<?xml version="1.0"?>
<opencv_storage>
<stage6>
  <maxWeakCount>17</maxWeakCount>
  <stageThreshold>-7.8684663772583008e-01</stageThreshold>
  <weakClassifiers>
    <_>
      <internalNodes>
        0 -1 4320 -1 -1 -1 -1 -1 2147483647 -1 -1</internalNodes>
      <leafValues>
        4.6039447188377380e-02 8.9086896181106567e-01</leafValues></_>
    <_>
      <internalNodes>
        0 -1 9563 1073709055 1073741823 -1 -1 -1 -1 -1 -1</internalNodes>
      <leafValues>
        -1.6160245239734650e-01 5.8578932285308838e-01</leafValues></_>
    <_>
      <internalNodes>
        0 -1 3780 -2 -1 -2 -1 -1 -1 -1 -134217729</internalNodes>
      <leafValues>
        -2.0758999884128571e-01 4.0324613451957703e-01</leafValues></_>
    <_>
      <internalNodes>
        0 -1 4766 -65538 -1 -1 -1 -1 -1 -1 2139062143</internalNodes>
      <leafValues>
        -1.9670496881008148e-01 2.9198378324508667e-01</leafValues></_>
    <_>
      <internalNodes>
        0 -1 7037 1056844322 7208583 -830493024 46135294 2012886855
        91717502 2013228372 6649710</internalNodes>
      <leafValues>
        -1.2020045518875122e+00 6.1643444001674652e-02</leafValues></_>
    <_>
      <internalNodes>
        0 -1 15984 539760176 805060604 -1073905668 1073627132 1073627132
        -32771 1073627132 613430304</internalNodes>
      <leafValues>
        -9.4542980194091797e-01 9.4098091125488281e-02</leafValues></_>
    <_>
      <internalNodes>
        0 -1 6879 -16386 1073741823 -1 -1 2147483647 2147483647 -1
        2147483647</internalNodes>
      <leafValues>
        -1.9638475775718689e-01 2.5467637181282043e-01</leafValues></_>
    <_>
      <internalNodes>
        0 -1 8550 2098176 582762092 1593730604 12849020 121585216
        133263325 823422496 263456</internalNodes>
      <leafValues>
        -1.6663705110549927e+00 4.0294401347637177e-02</leafValues></_>
    <_>
      <internalNodes>
        0 -1 863 135266560 733917052 2147237550 922529788 221512812
        1073692661 1291531700 70255684</internalNodes>
      <leafValues>
        -1.2241277694702148e+00 7.5354672968387604e-02</leafValues></_>
    <_>
      <internalNodes>
        0 -1 11920 -65676 -1 -1 -16842753 -1 -1 -1 -16973825</internalNodes>
      <leafValues>
        -1.4017881453037262e-01 3.7946897745132446e-01</leafValues></_>
    <_>
      <internalNodes>
        0 -1 7348 135266816 -1376370892 -4243460 234438640 607918064
        1341722620 1048387056 67108880</internalNodes>
      <leafValues>
        -1.1463657617568970e+00 6.3527271151542664e-02</leafValues></_>
    <_>
      <internalNodes>
        0 -1 5725 -1 -1 -1 -1 -1 -1 -1 2147483647</internalNodes>
      <leafValues>
        9.3044415116310120e-02 -6.9865214824676514e-01</leafValues></_>
    <_>
      <internalNodes>
        0 -1 8325 -1090523612 787415022 -16608 721354750 2004842340
        125829117 2004713296 1414821749</internalNodes>
      <leafValues>
        -6.2487053871154785e-01 9.6944749355316162e-02</leafValues></_>
    <_>
      <internalNodes>
        0 -1 8251 653240870 49213030 -285233630 49708782 1962241861
        1415577463 -50366604 611776501</internalNodes>
      <leafValues>
        -1.1181248426437378e+00 7.3810912668704987e-02</leafValues></_>
    <_>
      <internalNodes>
        0 -1 15462 41944064 3943416 -1107550660 715405230 1068774964
        1819574133 -1237567664 7353664</internalNodes>
      <leafValues>
        -1.5220118761062622e+00 5.5422417819499969e-02</leafValues></_>
    <_>
      <internalNodes>
        0 -1 12111 787410466 648998702 -486610272 581741546 1735744772
        343375743 2012706560 70678388</internalNodes>
      <leafValues>
        -1.2114392518997192e+00 7.0179432630538940e-02</leafValues></_>
    <_>
      <internalNodes>
        0 -1 10081 988555808 753450620 -293703776 149040688 2130587412
        745864565 922580816 2113536</internalNodes>
      <leafValues>
        -1.1066478490829468e+00 6.7070402204990387e-02</leafValues></_></weakClassifiers></stage6>
</opencv_storage>
