<?xml version="1.0"?>
<opencv_storage>
<stage11>
  <maxWeakCount>35</maxWeakCount>
  <stageThreshold>-1.2033591270446777e+00</stageThreshold>
  <weakClassifiers>
    <_>
      <internalNodes>
        0 -1 7208 1073709055 -1 -1 -1 2147450879 -1 -1 -1</internalNodes>
      <leafValues>
        6.8298220634460449e-02 6.5443933010101318e-01</leafValues></_>
    <_>
      <internalNodes>
        0 -1 4195 -1 -1 -1 -1 2147450879 -1 -1 -1</internalNodes>
      <leafValues>
        -1.0828738659620285e-01 4.8459258675575256e-01</leafValues></_>
    <_>
      <internalNodes>
        0 -1 12862 -65538 -1 -1 -1 -1 -1 -1 -1</internalNodes>
      <leafValues>
        -1.0109037905931473e-01 6.7891156673431396e-01</leafValues></_>
    <_>
      <internalNodes>
        0 -1 6860 -1 -1 -1 -1 -129 -1 -137 2147483647</internalNodes>
      <leafValues>
        1.3558562099933624e-01 -3.3444085717201233e-01</leafValues></_>
    <_>
      <internalNodes>
        0 -1 4701 -65538 -1 -1 -1 -1 -1 -1 2139062143</internalNodes>
      <leafValues>
        -1.5178370475769043e-01 2.6847261190414429e-01</leafValues></_>
    <_>
      <internalNodes>
        0 -1 12517 547367456 1006255930 1073688494 855517114 796798760
        796688307 1002177040 73401344</internalNodes>
      <leafValues>
        -1.1825771331787109e+00 3.2637957483530045e-02</leafValues></_>
    <_>
      <internalNodes>
        0 -1 8040 -1 -1 -1 -1 -1 -1 -1 2147483647</internalNodes>
      <leafValues>
        8.3316788077354431e-02 -5.3019553422927856e-01</leafValues></_>
    <_>
      <internalNodes>
        0 -1 8733 -2 -1 -1 -1 -1 -1 -1 1073184759</internalNodes>
      <leafValues>
        -1.0330356657505035e-01 3.2113644480705261e-01</leafValues></_>
    <_>
      <internalNodes>
        0 -1 3229 543179392 723578722 1055063248 908099552 1115035620
        -672104586 1382374628 4368</internalNodes>
      <leafValues>
        -1.4088243246078491e+00 3.1390022486448288e-02</leafValues></_>
    <_>
      <internalNodes>
        0 -1 8575 2147483630 -1 -17 -268435457 -1 -1 -129 1073709055</internalNodes>
      <leafValues>
        -1.1127619445323944e-01 2.8673931956291199e-01</leafValues></_>
    <_>
      <internalNodes>
        0 -1 11300 -1 -1 -1 -1 -1 -1 -1 2147483647</internalNodes>
      <leafValues>
        6.5008170902729034e-02 -5.1848536729812622e-01</leafValues></_>
    <_>
      <internalNodes>
        0 -1 5913 1024 548691752 -1527496928 574116836 108797012
        118521469 617353076 3159088</internalNodes>
      <leafValues>
        -2.0110175609588623e+00 4.3396301567554474e-02</leafValues></_>
    <_>
      <internalNodes>
        0 -1 7965 2097408 916200270 1072512974 14627751 397155302
        804468095 928987943 22020400</internalNodes>
      <leafValues>
        -1.2910141944885254e+00 5.0026722252368927e-02</leafValues></_>
    <_>
      <internalNodes>
        0 -1 3149 102763552 249573238 803999522 1676685298 1182092912
        267712372 1140067792 2880</internalNodes>
      <leafValues>
        -1.0343477725982666e+00 5.0018560141324997e-02</leafValues></_>
    <_>
      <internalNodes>
        0 -1 612 1895230978 811906794 1156483104 539683940 1979675744
        276133351 1625507392 5728</internalNodes>
      <leafValues>
        -2.0468349456787109e+00 3.6871559917926788e-02</leafValues></_>
    <_>
      <internalNodes>
        0 -1 921 136840448 606088736 48376864 686337576 1191118084
        107242596 1178014736 3151925</internalNodes>
      <leafValues>
        -2.1999473571777344e+00 3.9706431329250336e-02</leafValues></_>
    <_>
      <internalNodes>
        0 -1 7700 -2 -1 -1 -1 -1 -1 -3 -1</internalNodes>
      <leafValues>
        -3.5178191959857941e-02 8.2143479585647583e-01</leafValues></_>
    <_>
      <internalNodes>
        0 -1 2853 145752320 645672652 1073618044 216282680 918830268
        905740157 268188772 8208</internalNodes>
      <leafValues>
        -1.8760244846343994e+00 3.1414620578289032e-02</leafValues></_>
    <_>
      <internalNodes>
        0 -1 10527 -1 -1073741825 -1 -1073741825 -1 2147483647 -1 -1</internalNodes>
      <leafValues>
        -8.4302581846714020e-02 4.1604605317115784e-01</leafValues></_>
    <_>
      <internalNodes>
        0 -1 3879 -293650912 552005614 -86304 6451114 2138560304
        108526965 -142645504 71728966</internalNodes>
      <leafValues>
        -8.9341765642166138e-01 4.5339632779359818e-02</leafValues></_>
    <_>
      <internalNodes>
        0 -1 5431 -1 -268435457 -1 -16777217 -1 2147483647 -9 2013265919</internalNodes>
      <leafValues>
        1.6815716028213501e-01 -2.1856465935707092e-01</leafValues></_>
    <_>
      <internalNodes>
        0 -1 15930 121112612 83111260 1073627068 804794148 1056190325
        936837109 250875508 2052</internalNodes>
      <leafValues>
        -5.7564578056335449e+00 3.5658065229654312e-02</leafValues></_>
    <_>
      <internalNodes>
        0 -1 6863 -196 -1 -1 2147481599 -3 -1 -16513 -134250498</internalNodes>
      <leafValues>
        -8.9840009808540344e-02 1.0673406124114990e+00</leafValues></_>
    <_>
      <internalNodes>
        0 -1 13314 -16388 -1048577 -1 -9 -9 -1 -513 1735913463</internalNodes>
      <leafValues>
        -2.3222436010837555e-01 5.2862441539764404e-01</leafValues></_>
    <_>
      <internalNodes>
        0 -1 16376 2147270652 -1 -18 -268435457 -1 -1 -129 2147254271</internalNodes>
      <leafValues>
        -2.0756632089614868e-01 3.0676922202110291e-01</leafValues></_>
    <_>
      <internalNodes>
        0 -1 9480 -1 -1 -1 -1 -1 -1 -1 2147483647</internalNodes>
      <leafValues>
        9.3589127063751221e-02 -6.2466186285018921e-01</leafValues></_>
    <_>
      <internalNodes>
        0 -1 11532 -2 -1 -2 -65537 -1 -1 -1 -1</internalNodes>
      <leafValues>
        -9.4475731253623962e-02 5.6509149074554443e-01</leafValues></_>
    <_>
      <internalNodes>
        0 -1 7359 7610912 543194088 -16847072 552611698 1442784260
        320135029 637367636 271936</internalNodes>
      <leafValues>
        -1.2865175008773804e+00 6.1590053141117096e-02</leafValues></_>
    <_>
      <internalNodes>
        0 -1 14087 106957832 993836854 268382142 242888568 503201140
        1342144190 929441372 3146768</internalNodes>
      <leafValues>
        -1.0050798654556274e+00 6.6021122038364410e-02</leafValues></_>
    <_>
      <internalNodes>
        0 -1 11371 -1360081396 40561830 1860939298 686976750 1870087940
        73768846 1719493668 6702854</internalNodes>
      <leafValues>
        -1.7996007204055786e+00 5.4472725838422775e-02</leafValues></_>
    <_>
      <internalNodes>
        0 -1 9122 87041568 1073528815 1073676287 1073622907 1073559468
        1073168383 1870606296 586429992</internalNodes>
      <leafValues>
        -9.1027832031250000e-01 6.8502664566040039e-02</leafValues></_>
    <_>
      <internalNodes>
        0 -1 9913 -65540 -1 -1 -1 -1 -1 -1 -1</internalNodes>
      <leafValues>
        -7.6168224215507507e-02 6.3909155130386353e-01</leafValues></_>
    <_>
      <internalNodes>
        0 -1 13200 2883584 775171956 787246928 585121604 1719012928
        1476280316 366289664 70518836</internalNodes>
      <leafValues>
        -1.7624382972717285e+00 4.9586504697799683e-02</leafValues></_>
    <_>
      <internalNodes>
        0 -1 7322 13503488 270954008 1017040418 540030698 204551804
        2083848062 1413227552 1040</internalNodes>
      <leafValues>
        -1.1127295494079590e+00 6.2087692320346832e-02</leafValues></_>
    <_>
      <internalNodes>
        0 -1 7427 140521472 -1526792332 -1260109898 -1477394754
        -1260306608 1049943924 1643982712 1056816</internalNodes>
      <leafValues>
        -1.4026632308959961e+00 5.2801050245761871e-02</leafValues></_></weakClassifiers></stage11>
</opencv_storage>
