<?xml version="1.0"?>
<opencv_storage>
<stage12>
  <maxWeakCount>47</maxWeakCount>
  <stageThreshold>-1.7244935035705566e+00</stageThreshold>
  <weakClassifiers>
    <_>
      <internalNodes>
        0 -1 4424 -1 -1 -1 -1 2147450879 -1 -1 -1</internalNodes>
      <leafValues>
        1.0582990944385529e-01 7.2841227054595947e-01</leafValues></_>
    <_>
      <internalNodes>
        0 -1 12045 -1 -1 -1 -1 -1 -1 -1 -134217729</internalNodes>
      <leafValues>
        -5.1317360252141953e-02 9.8667454719543457e-01</leafValues></_>
    <_>
      <internalNodes>
        0 -1 11687 69214208 612502532 711864068 539770784 1744637184
        377173365 659625248 7456</internalNodes>
      <leafValues>
        -1.5215659141540527e+00 1.3743354007601738e-02</leafValues></_>
    <_>
      <internalNodes>
        0 -1 13182 -1 -1 -1 -1 -1 -1 -1 2147483647</internalNodes>
      <leafValues>
        7.2750583291053772e-02 -5.7739371061325073e-01</leafValues></_>
    <_>
      <internalNodes>
        0 -1 7424 -16386 -1 -1 -1 -1 -1 -1 1979580415</internalNodes>
      <leafValues>
        -1.2329737842082977e-01 2.7271842956542969e-01</leafValues></_>
    <_>
      <internalNodes>
        0 -1 14768 606076944 180104552 788401660 585639328 536615476
        267927526 761537564 5506672</internalNodes>
      <leafValues>
        -5.7564578056335449e+00 3.9012716151773930e-03</leafValues></_>
    <_>
      <internalNodes>
        0 -1 13806 -33554436 -134283265 -1 -524481 -134217738 -524289 -1
        -545259523</internalNodes>
      <leafValues>
        -6.9105471484363079e-03 1.3871235847473145e+00</leafValues></_>
    <_>
      <internalNodes>
        0 -1 11975 -4114 -16777217 -2 -2 -2 -1 -4 1744830463</internalNodes>
      <leafValues>
        -2.3853203654289246e-01 3.9526316523551941e-01</leafValues></_>
    <_>
      <internalNodes>
        0 -1 9440 -268435474 -285212673 -2 -1 -134217865 2013265919 -9
        2004877311</internalNodes>
      <leafValues>
        -2.6054814457893372e-01 2.4122199416160583e-01</leafValues></_>
    <_>
      <internalNodes>
        0 -1 6455 -2 -1 -1 -1 -1 -1 -9 -134742025</internalNodes>
      <leafValues>
        -1.1656233668327332e-01 4.3378588557243347e-01</leafValues></_>
    <_>
      <internalNodes>
        0 -1 9392 788516394 788529150 -268439646 787480559 2013230932
        939524095 2013233013 1132363647</internalNodes>
      <leafValues>
        -4.8357266187667847e-01 9.7063302993774414e-02</leafValues></_>
    <_>
      <internalNodes>
        0 -1 4477 74186752 143921084 914303620 753549012 505289840
        74350455 444467204 74976624</internalNodes>
      <leafValues>
        -5.7564578056335449e+00 5.8698531240224838e-02</leafValues></_>
    <_>
      <internalNodes>
        0 -1 5262 -16388 -32769 -1 -1 2147483647 -1 -32769 -1</internalNodes>
      <leafValues>
        -1.1128083616495132e-01 7.5834697484970093e-01</leafValues></_>
    <_>
      <internalNodes>
        0 -1 9925 -12 -1 -1 -65537 -1 -1 -1 -184549377</internalNodes>
      <leafValues>
        -1.6086827218532562e-01 3.4702655673027039e-01</leafValues></_>
    <_>
      <internalNodes>
        0 -1 195 551553536 783314534 -152113216 1684052596 622222132
        141862756 1399803472 7359040</internalNodes>
      <leafValues>
        -1.2069728374481201e+00 5.8940052986145020e-02</leafValues></_>
    <_>
      <internalNodes>
        0 -1 9042 540017952 653279028 -1610989896 610807656 -1110176720
        1622177788 536610564 2097152</internalNodes>
      <leafValues>
        -2.2489931583404541e+00 5.7393345981836319e-02</leafValues></_>
    <_>
      <internalNodes>
        0 -1 12335 -2 -2 -65537 -2 -1 -1 -1 -1</internalNodes>
      <leafValues>
        -7.5659953057765961e-02 6.6260349750518799e-01</leafValues></_>
    <_>
      <internalNodes>
        0 -1 4336 537403904 170012214 -1360122064 112996206 771162912
        804536311 629085744 5774658</internalNodes>
      <leafValues>
        -2.0652687549591064e+00 5.2020382136106491e-02</leafValues></_>
    <_>
      <internalNodes>
        0 -1 4666 217319424 251031546 -1090797656 652611430 2021082976
        1669185407 905405700 4486497</internalNodes>
      <leafValues>
        -9.1512477397918701e-01 6.8902641534805298e-02</leafValues></_>
    <_>
      <internalNodes>
        0 -1 3657 -18 -1 -1 -1 -1 -1 -1 -134217729</internalNodes>
      <leafValues>
        -1.3473941385746002e-01 3.1360617280006409e-01</leafValues></_>
    <_>
      <internalNodes>
        0 -1 8495 1049600 106446394 737705192 888700396 101524852
        750067582 921861476 204742240</internalNodes>
      <leafValues>
        -2.0996544361114502e+00 4.5130759477615356e-02</leafValues></_>
    <_>
      <internalNodes>
        0 -1 1254 746065440 241991566 1727966752 46059240 2138406496
        1165885303 217331268 5768276</internalNodes>
      <leafValues>
        -1.0119382143020630e+00 6.7849881947040558e-02</leafValues></_>
    <_>
      <internalNodes>
        0 -1 10082 112206896 685252280 -1099010840 782802084 83770676
        1009030516 108798976 2098176</internalNodes>
      <leafValues>
        -2.3216457366943359e+00 4.8949837684631348e-02</leafValues></_>
    <_>
      <internalNodes>
        0 -1 6297 -49153 -1 -1 -1 -1 -1 -32769 1073708917</internalNodes>
      <leafValues>
        2.4210856854915619e-01 -1.8599620461463928e-01</leafValues></_>
    <_>
      <internalNodes>
        0 -1 11281 -268505090 -1073807361 -1 -1 -1 -1 -1 -1</internalNodes>
      <leafValues>
        -1.2496107071638107e-01 3.8889783620834351e-01</leafValues></_>
    <_>
      <internalNodes>
        0 -1 4670 4464640 137248034 144092708 210417774 83759716
        102180140 1412716324 68171044</internalNodes>
      <leafValues>
        -5.7564578056335449e+00 4.4315077364444733e-02</leafValues></_>
    <_>
      <internalNodes>
        0 -1 8577 2130624490 -65537 -17 -268435457 -268697611 -1
        1879015295 233226231</internalNodes>
      <leafValues>
        -1.0008688271045685e-01 9.3418437242507935e-01</leafValues></_>
    <_>
      <internalNodes>
        0 -1 6346 1324285940 -302055425 -1 -1 2147483645 -1 -11 -2097164</internalNodes>
      <leafValues>
        -4.1320550441741943e-01 3.7145376205444336e-01</leafValues></_>
    <_>
      <internalNodes>
        0 -1 4358 -262290 2013265791 -4098 -25169921 2013233149
        2013233151 -9 2013265919</internalNodes>
      <leafValues>
        -4.7765269875526428e-01 2.3073546588420868e-01</leafValues></_>
    <_>
      <internalNodes>
        0 -1 7467 -1392627994 -1073741825 -268451842 805240830
        2147430399 1879015423 2147479518 96415594</internalNodes>
      <leafValues>
        -4.2883157730102539e-01 1.7242394387722015e-01</leafValues></_>
    <_>
      <internalNodes>
        0 -1 10500 -1 -1 -1 -1 -1 -1 -1 2147483647</internalNodes>
      <leafValues>
        1.1261083930730820e-01 -6.5195125341415405e-01</leafValues></_>
    <_>
      <internalNodes>
        0 -1 10520 -268456158 654245887 -150999314 -1392574466
        2147450741 1476395007 -32907 889159551</internalNodes>
      <leafValues>
        -4.8035255074501038e-01 1.4754848182201385e-01</leafValues></_>
    <_>
      <internalNodes>
        0 -1 8566 716440072 645070348 1843834378 251297652 1743683424
        78216318 930364724 19928324</internalNodes>
      <leafValues>
        -1.2402222156524658e+00 7.0469714701175690e-02</leafValues></_>
    <_>
      <internalNodes>
        0 -1 2336 255328512 645271479 805191460 614403878 234030436
        1071667189 381489110 501614452</internalNodes>
      <leafValues>
        -5.7564578056335449e+00 6.5747037529945374e-02</leafValues></_>
    <_>
      <internalNodes>
        0 -1 10964 -98460 -8519681 -4 -16842754 2147450743 -1 -8202
        -58720394</internalNodes>
      <leafValues>
        -2.0047189295291901e-01 8.4323108196258545e-01</leafValues></_>
    <_>
      <internalNodes>
        0 -1 10986 -269062162 -16842754 -2 -402653201 2147483647
        2130706431 -65674 2004318198</internalNodes>
      <leafValues>
        -4.8127284646034241e-01 3.3029165863990784e-01</leafValues></_>
    <_>
      <internalNodes>
        0 -1 9927 -16875524 -17825793 -3 -268959746 2147212669 -1 -66187
        218087422</internalNodes>
      <leafValues>
        -4.0369242429733276e-01 2.9549098014831543e-01</leafValues></_>
    <_>
      <internalNodes>
        0 -1 10263 653667872 1056899007 2147450879 -16401 1610612607
        -32769 1073086445 7744612</internalNodes>
      <leafValues>
        -5.7603669166564941e-01 1.5283454954624176e-01</leafValues></_>
    <_>
      <internalNodes>
        0 -1 9396 1073692671 -1 -1 -1 -32769 -1 -1 2147483647</internalNodes>
      <leafValues>
        3.0930036306381226e-01 -2.6292127370834351e-01</leafValues></_>
    <_>
      <internalNodes>
        0 -1 2891 2113564416 989790198 2147483454 788529134 2013232949
        1995440126 2147448676 607911935</internalNodes>
      <leafValues>
        -7.0803248882293701e-01 1.3117696344852448e-01</leafValues></_>
    <_>
      <internalNodes>
        0 -1 13048 238038048 922660858 -1342423236 784121836 1072786032
        1065320319 2147433764 20199216</internalNodes>
      <leafValues>
        -1.3375633955001831e+00 9.3038454651832581e-02</leafValues></_>
    <_>
      <internalNodes>
        0 -1 15302 77604480 754953958 2130652910 708767484 770983796
        133594484 827667504 6293604</internalNodes>
      <leafValues>
        -1.3155905008316040e+00 8.4351457655429840e-02</leafValues></_>
    <_>
      <internalNodes>
        0 -1 531 -1427756032 639642926 1878861356 572669288 2121219904
        1877540669 763258116 100934660</internalNodes>
      <leafValues>
        -1.7567113637924194e+00 8.5112519562244415e-02</leafValues></_>
    <_>
      <internalNodes>
        0 -1 10959 -1073790978 -1342177281 -1 -1073741825 -1 -1 -1
        251543548</internalNodes>
      <leafValues>
        4.0824785828590393e-01 -1.8561241030693054e-01</leafValues></_>
    <_>
      <internalNodes>
        0 -1 3349 137102848 137395580 -114844 145665926 1342011188
        401375224 735970368 2100836</internalNodes>
      <leafValues>
        -1.2657284736633301e+00 7.1178562939167023e-02</leafValues></_>
    <_>
      <internalNodes>
        0 -1 10156 -1 -1 -1 -1 -1 -1 -1 2147483647</internalNodes>
      <leafValues>
        1.1946971714496613e-01 -7.2297513484954834e-01</leafValues></_>
    <_>
      <internalNodes>
        0 -1 14873 780142592 540683012 1073359658 6953646 567693060
        645166974 358030352 1568</internalNodes>
      <leafValues>
        -2.3932323455810547e+00 6.3412159681320190e-02</leafValues></_></weakClassifiers></stage12>
</opencv_storage>
