<?xml version="1.0"?>
<opencv_storage>
<stage6>
  <maxWeakCount>9</maxWeakCount>
  <stageThreshold>-5.5343252420425415e-01</stageThreshold>
  <weakClassifiers>
    <_>
      <internalNodes>
        0 -1 8259 -155452686 -234881097 1941779383 -169480015 -134742047
        -51005515 -101191990 1891890930</internalNodes>
      <leafValues>
        -3.3513027429580688e-01 5.2770841121673584e-01</leafValues></_>
    <_>
      <internalNodes>
        0 -1 58349 -1218530401 970695128 592532881 1069265167 1825258958
        422051976 -1375231763 1505480923</internalNodes>
      <leafValues>
        -4.3378034234046936e-01 4.2027816176414490e-01</leafValues></_>
    <_>
      <internalNodes>
        0 -1 83275 -1370509329 672966907 538041674 -1027047226
        1586068263 1905913667 -223536316 -156762669</internalNodes>
      <leafValues>
        -4.7296616435050964e-01 3.6134955286979675e-01</leafValues></_>
    <_>
      <internalNodes>
        0 -1 45792 -966918857 1869010306 -778056542 -386776592
        -279525817 -380943968 -993300363 -521013936</internalNodes>
      <leafValues>
        -4.4454106688499451e-01 3.9067718386650085e-01</leafValues></_>
    <_>
      <internalNodes>
        0 -1 58856 539234583 913904787 -2008985093 -1755342776 403725885
        -1143240757 725895772 -3143097</internalNodes>
      <leafValues>
        -4.7140970826148987e-01 3.6414813995361328e-01</leafValues></_>
    <_>
      <internalNodes>
        0 -1 78402 -101716017 -689057792 -852223774 -521231589
        -770047742 -1373175519 1611490064 1164440322</internalNodes>
      <leafValues>
        -4.9058452248573303e-01 3.5555797815322876e-01</leafValues></_>
    <_>
      <internalNodes>
        0 -1 106175 -637691321 -173031635 -1938018459 -448023241
        -2034913409 -10494553 -169980577 2061238249</internalNodes>
      <leafValues>
        -3.2469812035560608e-01 5.3085690736770630e-01</leafValues></_>
    <_>
      <internalNodes>
        0 -1 85320 1853881111 -1110458375 -25761041 -1325498450 -111026
        -8464793 -1931037464 -459352350</internalNodes>
      <leafValues>
        -3.6241912841796875e-01 5.1295357942581177e-01</leafValues></_>
    <_>
      <internalNodes>
        0 -1 47019 1217389391 32658989 272113912 1057757462 1762652555
        2138280588 1201160314 1176698688</internalNodes>
      <leafValues>
        -5.7705354690551758e-01 3.1325036287307739e-01</leafValues></_></weakClassifiers></stage6>
</opencv_storage>
