<?xml version="1.0"?>
<opencv_storage>
<stage4>
  <maxWeakCount>7</maxWeakCount>
  <stageThreshold>-1.2668727636337280e+00</stageThreshold>
  <weakClassifiers>
    <_>
      <internalNodes>
        0 -1 36766 -4145 46923246 1928297152 -202391746 1465340683
        24590206 -134817793 1946154895</internalNodes>
      <leafValues>
        -4.5351043343544006e-01 5.6353056430816650e-01</leafValues></_>
    <_>
      <internalNodes>
        0 -1 20648 -976489598 -1240366845 17057093 1468645955
        -2147076706 -503087102 440650570 1404552107</internalNodes>
      <leafValues>
        -4.5928046107292175e-01 4.5214867591857910e-01</leafValues></_>
    <_>
      <internalNodes>
        0 -1 58555 -237508722 -951328225 -2130509654 -794831406
        1367849827 1101776940 -743838942 -236465349</internalNodes>
      <leafValues>
        -4.6801310777664185e-01 4.4299560785293579e-01</leafValues></_>
    <_>
      <internalNodes>
        0 -1 48340 1788547070 935626186 285212885 272984082 683677277
        520114177 1212625067 1868550479</internalNodes>
      <leafValues>
        -5.8612537384033203e-01 3.4196043014526367e-01</leafValues></_>
    <_>
      <internalNodes>
        0 -1 74272 -572656813 -10271407 286281168 -1333166662
        -1441415150 -1067743163 -796597280 -192810040</internalNodes>
      <leafValues>
        -4.1019520163536072e-01 4.5441195368766785e-01</leafValues></_>
    <_>
      <internalNodes>
        0 -1 67735 -1009524722 575347145 -535633788 1920696722
        1342798404 77316355 -1052523585 -998245669</internalNodes>
      <leafValues>
        -4.9405995011329651e-01 3.5805875062942505e-01</leafValues></_>
    <_>
      <internalNodes>
        0 -1 20151 -119563885 -679912534 -101737690 -271862996
        1692396859 -1277707037 -537434865 1810091907</internalNodes>
      <leafValues>
        -3.2415843009948730e-01 6.0420697927474976e-01</leafValues></_></weakClassifiers></stage4>
</opencv_storage>
