<?xml version="1.0"?>
<opencv_storage>
<stage8>
  <maxWeakCount>11</maxWeakCount>
  <stageThreshold>-8.9849495887756348e-01</stageThreshold>
  <weakClassifiers>
    <_>
      <internalNodes>
        0 -1 18474 -537198593 1591179135 1073737311 -268976514 836704189
        1308569151 -134266881 -614860820</internalNodes>
      <leafValues>
        -1.3644213974475861e-01 6.6787528991699219e-01</leafValues></_>
    <_>
      <internalNodes>
        0 -1 47908 -136315638 1781471018 1075020946 -239574054
        1933825842 1081884866 -1555601808 -975846921</internalNodes>
      <leafValues>
        -3.6102625727653503e-01 3.7134903669357300e-01</leafValues></_>
    <_>
      <internalNodes>
        0 -1 44104 -237539328 -110198336 1091143799 1428072699 -84152659
        -1398560768 -1383268533 -1058739072</internalNodes>
      <leafValues>
        -5.1831012964248657e-01 2.8851127624511719e-01</leafValues></_>
    <_>
      <internalNodes>
        0 -1 62968 -22027350 823914439 -67161558 -1140936745 -134285369
        1077174271 -134875233 -70259473</internalNodes>
      <leafValues>
        -2.9580637812614441e-01 4.7053706645965576e-01</leafValues></_>
    <_>
      <internalNodes>
        0 -1 71470 -404245738 38205759 16939098 1062064518 1074631320
        1141276736 1757607595 1950841511</internalNodes>
      <leafValues>
        -4.1874051094055176e-01 3.2941585779190063e-01</leafValues></_>
    <_>
      <internalNodes>
        0 -1 40544 -67240399 69697068 -134303839 -696389918 -721426985
        1342095188 1986517472 -1225265242</internalNodes>
      <leafValues>
        -3.5586038231849670e-01 4.1156893968582153e-01</leafValues></_>
    <_>
      <internalNodes>
        0 -1 65800 122414935 1184174731 822320212 -791920576 -129890884
        -1165934463 -1014302268 -460048796</internalNodes>
      <leafValues>
        -4.3234673142433167e-01 3.4476372599601746e-01</leafValues></_>
    <_>
      <internalNodes>
        0 -1 44261 1882169407 2046604124 -1501579617 1038341358
        -1932211154 -849379842 1845343919 -996299229</internalNodes>
      <leafValues>
        -3.1814491748809814e-01 4.6422290802001953e-01</leafValues></_>
    <_>
      <internalNodes>
        0 -1 13345 -1474260611 -989587080 268620143 620826702
        -2071281082 -644965192 1485474416 732635267</internalNodes>
      <leafValues>
        -3.9949589967727661e-01 3.8705736398696899e-01</leafValues></_>
    <_>
      <internalNodes>
        0 -1 68304 309932981 1025208301 -102789 -1077936203 2038349275
        -212994 -1073746179 -322218598</internalNodes>
      <leafValues>
        -3.0696174502372742e-01 5.0151211023330688e-01</leafValues></_>
    <_>
      <internalNodes>
        0 -1 47560 -790713598 -2143090303 1342819424 -1878209664
        587281170 1879181458 1732493827 -225526029</internalNodes>
      <leafValues>
        -4.5118680596351624e-01 3.4432137012481689e-01</leafValues></_></weakClassifiers></stage8>
</opencv_storage>
