<?xml version="1.0"?>
<opencv_storage>
<stage8>
  <maxWeakCount>13</maxWeakCount>
  <stageThreshold>-8.2691752910614014e-01</stageThreshold>
  <weakClassifiers>
    <_>
      <internalNodes>
        0 -1 148741 1607199711 866643918 595553134 2109734270 1641676782
        1909845870 519538398 2013263595</internalNodes>
      <leafValues>
        -2.3003195226192474e-01 5.7805109024047852e-01</leafValues></_>
    <_>
      <internalNodes>
        0 -1 284291 -941633563 46444751 -936742208 -2072142193
        2041269093 1090746754 1737998453 -732175453</internalNodes>
      <leafValues>
        -4.1617134213447571e-01 3.6618041992187500e-01</leafValues></_>
    <_>
      <internalNodes>
        0 -1 141287 -697052218 -939271921 1092616350 1367595143
        -1077288165 -660962943 1753858555 1883498067</internalNodes>
      <leafValues>
        -5.1018995046615601e-01 2.9477033019065857e-01</leafValues></_>
    <_>
      <internalNodes>
        0 -1 531997 629302583 -191378005 -2008997717 -445935291
        231989484 -485719925 -498344409 1459200356</internalNodes>
      <leafValues>
        -4.3967109918594360e-01 3.5167637467384338e-01</leafValues></_>
    <_>
      <internalNodes>
        0 -1 318062 191735549 1012540618 310912336 729875451 1346607788
        440463366 543844481 802749331</internalNodes>
      <leafValues>
        -5.3761821985244751e-01 3.0490663647651672e-01</leafValues></_>
    <_>
      <internalNodes>
        0 -1 184106 -72364577 1791132548 -1065642650 -545209868
        -661674517 -578174975 -212487198 -682385981</internalNodes>
      <leafValues>
        -4.0230083465576172e-01 4.0807232260704041e-01</leafValues></_>
    <_>
      <internalNodes>
        0 -1 358850 -512825823 188195459 -4216013 321650547 -285316183
        -1403688961 1789750372 -750806783</internalNodes>
      <leafValues>
        -3.0767723917961121e-01 4.7818389534950256e-01</leafValues></_>
    <_>
      <internalNodes>
        0 -1 231177 2146739866 1884395910 428998808 1267011600
        2067888377 135072536 1803578091 1804435971</internalNodes>
      <leafValues>
        -4.6818730235099792e-01 3.2571509480476379e-01</leafValues></_>
    <_>
      <internalNodes>
        0 -1 423881 -228718012 -11646699 135401743 -1691041710
        -599521180 -1736343031 -864763704 -830291456</internalNodes>
      <leafValues>
        -4.7192570567131042e-01 3.2787150144577026e-01</leafValues></_>
    <_>
      <internalNodes>
        0 -1 379993 64316227 1213599815 747490275 -2100325805 185115086
        -95647581 1845660258 1990971970</internalNodes>
      <leafValues>
        -5.0234895944595337e-01 3.1523308157920837e-01</leafValues></_>
    <_>
      <internalNodes>
        0 -1 376915 -991476954 37966743 -938811309 321053198 554309697
        8423461 -1052028764 1444929763</internalNodes>
      <leafValues>
        -5.0324720144271851e-01 3.1522840261459351e-01</leafValues></_>
    <_>
      <internalNodes>
        0 -1 335080 55842077 2119553105 -201177905 -782401530 1099025391
        -359100285 814622857 -1373191632</internalNodes>
      <leafValues>
        -4.1991278529167175e-01 3.9590612053871155e-01</leafValues></_>
    <_>
      <internalNodes>
        0 -1 272129 -1043379180 1551319555 -2147127095 -1235238206
        -667965261 -1676996079 -645764437 -2144078709</internalNodes>
      <leafValues>
        -4.0605753660202026e-01 4.2030137777328491e-01</leafValues></_></weakClassifiers></stage8>
</opencv_storage>
