<?xml version="1.0"?>
<opencv_storage>
<stage3>
  <maxWeakCount>7</maxWeakCount>
  <stageThreshold>-7.1193772554397583e-01</stageThreshold>
  <weakClassifiers>
    <_>
      <internalNodes>
        0 -1 172096 -170396926 1647824494 -185196256 1987706407
        1164211456 540303221 1432834884 2004349503</internalNodes>
      <leafValues>
        -5.1260507106781006e-01 6.3830733299255371e-01</leafValues></_>
    <_>
      <internalNodes>
        0 -1 25165 1342677122 -217862142 1342275778 1964097554
        1745869263 1107394562 1751638191 1936714747</internalNodes>
      <leafValues>
        -5.1756083965301514e-01 5.3636056184768677e-01</leafValues></_>
    <_>
      <internalNodes>
        0 -1 363051 -305666205 38396567 -603963254 -530591410 941578341
        1364926792 -91227541 1943010303</internalNodes>
      <leafValues>
        -5.7906401157379150e-01 4.5368734002113342e-01</leafValues></_>
    <_>
      <internalNodes>
        0 -1 65555 1939845299 59990279 361234 553713931 197616011
        312181248 327521087 2132795055</internalNodes>
      <leafValues>
        -5.4116749763488770e-01 4.7270709276199341e-01</leafValues></_>
    <_>
      <internalNodes>
        0 -1 348912 -135266393 1296824047 1911535266 -1573650462
        2147417611 1149140799 -50401360 -251660301</internalNodes>
      <leafValues>
        -4.5519357919692993e-01 5.6837117671966553e-01</leafValues></_>
    <_>
      <internalNodes>
        0 -1 544157 1125632071 1142101254 -1543376766 -456669502
        22275450 1125285890 1360775683 1313339719</internalNodes>
      <leafValues>
        -6.0920614004135132e-01 4.5404094457626343e-01</leafValues></_>
    <_>
      <internalNodes>
        0 -1 236808 -505491062 2000781320 285212713 327632481 2650458
        2032341041 303186253 1365729059</internalNodes>
      <leafValues>
        -5.7764172554016113e-01 4.5623344182968140e-01</leafValues></_></weakClassifiers></stage3>
</opencv_storage>
