<?xml version="1.0"?>
<opencv_storage>
<stage6>
  <maxWeakCount>11</maxWeakCount>
  <stageThreshold>-1.1031607389450073e+00</stageThreshold>
  <weakClassifiers>
    <_>
      <internalNodes>
        0 -1 169050 -176161793 1365237743 1903685983 2078269823
        1423439854 382466539 1675884286 1677720174</internalNodes>
      <leafValues>
        -2.2065727412700653e-01 6.6465753316879272e-01</leafValues></_>
    <_>
      <internalNodes>
        0 -1 364131 -547373057 536739387 805256829 -1145717765
        2147368190 482091004 897550701 -67109445</internalNodes>
      <leafValues>
        -2.4522027373313904e-01 6.5437352657318115e-01</leafValues></_>
    <_>
      <internalNodes>
        0 -1 52358 1346894690 -249731681 840782099 -740667002
        -1190069030 -1029439472 -528364822 1883498439</internalNodes>
      <leafValues>
        -5.3183835744857788e-01 3.7741252779960632e-01</leafValues></_>
    <_>
      <internalNodes>
        0 -1 332638 -487594102 1133440751 -1346441696 1933502318
        1197917189 1680268895 385598443 -208939061</internalNodes>
      <leafValues>
        -3.6202257871627808e-01 4.5018655061721802e-01</leafValues></_>
    <_>
      <internalNodes>
        0 -1 144714 -79706321 529198842 1868377982 1226882618
        -1646445263 1852210509 -402773681 -395590753</internalNodes>
      <leafValues>
        -3.4835439920425415e-01 4.8330983519554138e-01</leafValues></_>
    <_>
      <internalNodes>
        0 -1 510715 1118268687 1531821903 -1073364241 1670224841
        1653603531 -2088580607 129491307 1491596845</internalNodes>
      <leafValues>
        -4.5883616805076599e-01 3.8016453385353088e-01</leafValues></_>
    <_>
      <internalNodes>
        0 -1 286206 89130016 420140288 1346835418 -1646327792 964702709
        1008265344 679881423 -1415588437</internalNodes>
      <leafValues>
        -5.6970137357711792e-01 3.1509345769882202e-01</leafValues></_>
    <_>
      <internalNodes>
        0 -1 307064 -640949624 819938320 510 -1253995382 -1878905355
        -1878491118 1470327723 71766207</internalNodes>
      <leafValues>
        -4.5664620399475098e-01 3.9548060297966003e-01</leafValues></_>
    <_>
      <internalNodes>
        0 -1 259160 -1954292430 -1449617148 -1072479148 -140328956
        -463894292 179110546 -880672080 -169381472</internalNodes>
      <leafValues>
        -4.4224026799201965e-01 3.8555613160133362e-01</leafValues></_>
    <_>
      <internalNodes>
        0 -1 454465 -1216554787 -5849227 -148099163 792522484 1030224879
        -545259809 -1352937697 2071654845</internalNodes>
      <leafValues>
        -3.2318511605262756e-01 5.9939664602279663e-01</leafValues></_>
    <_>
      <internalNodes>
        0 -1 378242 -956830206 140386230 1108383880 -1475329770
        -1849398943 67109026 470388899 318061551</internalNodes>
      <leafValues>
        -6.0453921556472778e-01 3.5220462083816528e-01</leafValues></_></weakClassifiers></stage6>
</opencv_storage>
