<?xml version="1.0"?>
<opencv_storage>
<stage2>
  <maxWeakCount>8</maxWeakCount>
  <stageThreshold>-9.1651511192321777e-01</stageThreshold>
  <weakClassifiers>
    <_>
      <internalNodes>
        0 -1 121525 90030015 1065295679 737351671 1610596351 2113891303
        348077695 1538736111 2144337915</internalNodes>
      <leafValues>
        -4.1778522729873657e-01 6.6636693477630615e-01</leafValues></_>
    <_>
      <internalNodes>
        0 -1 138938 -503319830 -34477230 -168504613 -135136077
        -454756198 -25232016 -186323553 -246156869</internalNodes>
      <leafValues>
        -3.5687905550003052e-01 6.5080529451370239e-01</leafValues></_>
    <_>
      <internalNodes>
        0 -1 128511 2146413503 998226991 754921260 2003791807 1581191165
        256880447 -537395761 -603979777</internalNodes>
      <leafValues>
        -3.7754982709884644e-01 5.4629224538803101e-01</leafValues></_>
    <_>
      <internalNodes>
        0 -1 493994 1808262951 1269805238 -2130505309 -901516994
        898363743 -625241982 1661266011 1187510534</internalNodes>
      <leafValues>
        -4.5327213406562805e-01 4.5539388060569763e-01</leafValues></_>
    <_>
      <internalNodes>
        0 -1 241520 -91505685 -1979006112 1082971590 -1433749376
        -229966026 -878001491 -1668457584 -990580032</internalNodes>
      <leafValues>
        -5.2407205104827881e-01 3.9659997820854187e-01</leafValues></_>
    <_>
      <internalNodes>
        0 -1 437 1894232194 1979005670 956185849 1433873151 914256089
        -847548417 -1241682693 726629007</internalNodes>
      <leafValues>
        -4.5473733544349670e-01 4.6971294283866882e-01</leafValues></_>
    <_>
      <internalNodes>
        0 -1 365073 440283261 886245395 9637922 -1253761003 571345071
        -1979086454 1384467181 -41233</internalNodes>
      <leafValues>
        -5.5080759525299072e-01 4.1546010971069336e-01</leafValues></_>
    <_>
      <internalNodes>
        0 -1 390860 -203700121 1623909907 -855555900 -1570336397
        818045311 252807685 1284354115 1903684607</internalNodes>
      <leafValues>
        -5.7701760530471802e-01 4.2811012268066406e-01</leafValues></_></weakClassifiers></stage2>
</opencv_storage>
