<?xml version="1.0"?>
<opencv_storage>
<stage13>
  <maxWeakCount>57</maxWeakCount>
  <stageThreshold>-8.2233637571334839e-01</stageThreshold>
  <weakClassifiers>
    <_>
      <internalNodes>
        0 -1 210308 4.2058613151311874e-02</internalNodes>
      <leafValues>
        5.6910570710897446e-02 5.8798283338546753e-01</leafValues></_>
    <_>
      <internalNodes>
        0 -1 84495 1.6164619009941816e-03</internalNodes>
      <leafValues>
        -1.8102373182773590e-01 2.3710782825946808e-01</leafValues></_>
    <_>
      <internalNodes>
        0 -1 124999 -7.4347141198813915e-03</internalNodes>
      <leafValues>
        2.5317007303237915e-01 -1.4058402180671692e-01</leafValues></_>
    <_>
      <internalNodes>
        0 -1 146076 -2.5727505999384448e-05</internalNodes>
      <leafValues>
        9.0974658727645874e-02 -3.0041062831878662e-01</leafValues></_>
    <_>
      <internalNodes>
        0 -1 111592 -4.2056225356645882e-04</internalNodes>
      <leafValues>
        -2.8352236747741699e-01 1.1753024160861969e-01</leafValues></_>
    <_>
      <internalNodes>
        0 -1 111592 1.1993142834398896e-04</internalNodes>
      <leafValues>
        1.5484747290611267e-01 -2.1699745953083038e-01</leafValues></_>
    <_>
      <internalNodes>
        0 -1 175345 -4.7860614722594619e-04</internalNodes>
      <leafValues>
        -4.8023298382759094e-01 5.4685618728399277e-02</leafValues></_>
    <_>
      <internalNodes>
        0 -1 144780 -6.6253140568733215e-02</internalNodes>
      <leafValues>
        4.0440854430198669e-01 -6.9497033953666687e-02</leafValues></_>
    <_>
      <internalNodes>
        0 -1 305587 2.9820097610354424e-02</internalNodes>
      <leafValues>
        -1.3947227597236633e-01 2.3679634928703308e-01</leafValues></_>
    <_>
      <internalNodes>
        0 -1 163524 -1.6962422523647547e-03</internalNodes>
      <leafValues>
        2.2077384591102600e-01 -1.3147675991058350e-01</leafValues></_>
    <_>
      <internalNodes>
        0 -1 42070 3.3719278872013092e-02</internalNodes>
      <leafValues>
        -7.2268351912498474e-02 4.4833335280418396e-01</leafValues></_>
    <_>
      <internalNodes>
        0 -1 96644 -2.4605032522231340e-03</internalNodes>
      <leafValues>
        2.6392027735710144e-01 -1.1678025126457214e-01</leafValues></_>
    <_>
      <internalNodes>
        0 -1 29038 -5.1709939725697041e-04</internalNodes>
      <leafValues>
        -2.3491111397743225e-01 1.2351530045270920e-01</leafValues></_>
    <_>
      <internalNodes>
        0 -1 215430 3.6213514395058155e-03</internalNodes>
      <leafValues>
        -1.3731312751770020e-01 2.0058739185333252e-01</leafValues></_>
    <_>
      <internalNodes>
        0 -1 215423 2.7895588427782059e-03</internalNodes>
      <leafValues>
        -9.4974786043167114e-02 4.0886428952217102e-01</leafValues></_>
    <_>
      <internalNodes>
        0 -1 178402 1.1882105900440365e-04</internalNodes>
      <leafValues>
        -1.9721691310405731e-01 1.3638640940189362e-01</leafValues></_>
    <_>
      <internalNodes>
        0 -1 232352 2.9349804390221834e-04</internalNodes>
      <leafValues>
        6.6705197095870972e-02 -3.9626267552375793e-01</leafValues></_>
    <_>
      <internalNodes>
        0 -1 184144 -1.5387595631182194e-03</internalNodes>
      <leafValues>
        2.0116424560546875e-01 -1.2239947915077209e-01</leafValues></_>
    <_>
      <internalNodes>
        0 -1 136177 -9.6787267830222845e-04</internalNodes>
      <leafValues>
        -3.5785409808158875e-01 7.1249842643737793e-02</leafValues></_>
    <_>
      <internalNodes>
        0 -1 146813 -1.9752460066229105e-03</internalNodes>
      <leafValues>
        -4.7428089380264282e-01 5.1581688225269318e-02</leafValues></_>
    <_>
      <internalNodes>
        0 -1 139421 1.7876634374260902e-03</internalNodes>
      <leafValues>
        -9.4843521714210510e-02 2.6187843084335327e-01</leafValues></_>
    <_>
      <internalNodes>
        0 -1 240889 -2.0742700435221195e-03</internalNodes>
      <leafValues>
        2.6210692524909973e-01 -9.0079292654991150e-02</leafValues></_>
    <_>
      <internalNodes>
        0 -1 86510 -5.7216937420889735e-05</internalNodes>
      <leafValues>
        -1.7624774575233459e-01 1.3918787240982056e-01</leafValues></_>
    <_>
      <internalNodes>
        0 -1 30313 -1.1150289326906204e-02</internalNodes>
      <leafValues>
        -6.9622009992599487e-01 3.6563310772180557e-02</leafValues></_>
    <_>
      <internalNodes>
        0 -1 201735 -3.5696558188647032e-04</internalNodes>
      <leafValues>
        1.7920249700546265e-01 -1.4118012785911560e-01</leafValues></_>
    <_>
      <internalNodes>
        0 -1 181641 2.9526220168918371e-03</internalNodes>
      <leafValues>
        -7.6921187341213226e-02 3.5838356614112854e-01</leafValues></_>
    <_>
      <internalNodes>
        0 -1 176804 3.2721851021051407e-03</internalNodes>
      <leafValues>
        5.6454848498106003e-02 -5.4549527168273926e-01</leafValues></_>
    <_>
      <internalNodes>
        0 -1 147098 1.0268422774970531e-03</internalNodes>
      <leafValues>
        8.8978797197341919e-02 -2.8791040182113647e-01</leafValues></_>
    <_>
      <internalNodes>
        0 -1 156183 1.9190637394785881e-03</internalNodes>
      <leafValues>
        -6.5399639308452606e-02 4.1158100962638855e-01</leafValues></_>
    <_>
      <internalNodes>
        0 -1 183395 -2.7559616137295961e-04</internalNodes>
      <leafValues>
        1.4618071913719177e-01 -1.6706563532352448e-01</leafValues></_>
    <_>
      <internalNodes>
        0 -1 112505 8.3325058221817017e-02</internalNodes>
      <leafValues>
        -7.7833801507949829e-02 3.7312191724777222e-01</leafValues></_>
    <_>
      <internalNodes>
        0 -1 171493 -3.9312043227255344e-03</internalNodes>
      <leafValues>
        1.9743765890598297e-01 -1.5801142156124115e-01</leafValues></_>
    <_>
      <internalNodes>
        0 -1 44104 2.3421730846166611e-02</internalNodes>
      <leafValues>
        -6.3058927655220032e-02 4.3074765801429749e-01</leafValues></_>
    <_>
      <internalNodes>
        0 -1 221743 -1.1857803910970688e-03</internalNodes>
      <leafValues>
        2.1843051910400391e-01 -1.2042111158370972e-01</leafValues></_>
    <_>
      <internalNodes>
        0 -1 36492 1.2540543079376221e-01</internalNodes>
      <leafValues>
        -1.4026565849781036e-01 1.9357764720916748e-01</leafValues></_>
    <_>
      <internalNodes>
        0 -1 175368 -9.8374439403414726e-04</internalNodes>
      <leafValues>
        2.2983865439891815e-01 -1.1704292148351669e-01</leafValues></_>
    <_>
      <internalNodes>
        0 -1 166172 -5.5257917847484350e-04</internalNodes>
      <leafValues>
        1.2520514428615570e-01 -2.0769298076629639e-01</leafValues></_>
    <_>
      <internalNodes>
        0 -1 225393 2.8557144105434418e-04</internalNodes>
      <leafValues>
        8.9751847088336945e-02 -2.9775643348693848e-01</leafValues></_>
    <_>
      <internalNodes>
        0 -1 76758 6.1818353831768036e-02</internalNodes>
      <leafValues>
        -3.0659543350338936e-02 7.7938705682754517e-01</leafValues></_>
    <_>
      <internalNodes>
        0 -1 77592 -1.3174933381378651e-02</internalNodes>
      <leafValues>
        1.4868794381618500e-01 -2.0442864298820496e-01</leafValues></_>
    <_>
      <internalNodes>
        0 -1 114126 4.2502535507082939e-04</internalNodes>
      <leafValues>
        9.2130392789840698e-02 -2.8428393602371216e-01</leafValues></_>
    <_>
      <internalNodes>
        0 -1 142979 6.7871198058128357e-02</internalNodes>
      <leafValues>
        -8.4322653710842133e-02 2.9812443256378174e-01</leafValues></_>
    <_>
      <internalNodes>
        0 -1 166472 -7.6589215314015746e-04</internalNodes>
      <leafValues>
        1.7675122618675232e-01 -1.5737687051296234e-01</leafValues></_>
    <_>
      <internalNodes>
        0 -1 113681 -5.5028095841407776e-02</internalNodes>
      <leafValues>
        -3.6874854564666748e-01 7.2296455502510071e-02</leafValues></_>
    <_>
      <internalNodes>
        0 -1 283761 5.0723545253276825e-02</internalNodes>
      <leafValues>
        -6.9193921983242035e-02 4.5440319180488586e-01</leafValues></_>
    <_>
      <internalNodes>
        0 -1 110335 -3.0858453828841448e-04</internalNodes>
      <leafValues>
        -3.5804617404937744e-01 7.2234354913234711e-02</leafValues></_>
    <_>
      <internalNodes>
        0 -1 181638 1.0369919473305345e-03</internalNodes>
      <leafValues>
        -1.0522525012493134e-01 2.3484662175178528e-01</leafValues></_>
    <_>
      <internalNodes>
        0 -1 187132 -2.6057647541165352e-02</internalNodes>
      <leafValues>
        -8.0641269683837891e-01 3.1499650329351425e-02</leafValues></_>
    <_>
      <internalNodes>
        0 -1 286621 -8.6469505913555622e-04</internalNodes>
      <leafValues>
        1.5308770537376404e-01 -1.4994168281555176e-01</leafValues></_>
    <_>
      <internalNodes>
        0 -1 212817 -9.0868544066324830e-04</internalNodes>
      <leafValues>
        -3.4325376152992249e-01 6.3417539000511169e-02</leafValues></_>
    <_>
      <internalNodes>
        0 -1 189603 -1.6614768654108047e-02</internalNodes>
      <leafValues>
        5.7710438966751099e-01 -3.9101019501686096e-02</leafValues></_>
    <_>
      <internalNodes>
        0 -1 177420 1.8569321837276220e-03</internalNodes>
      <leafValues>
        -8.5058428347110748e-02 2.6368087530136108e-01</leafValues></_>
    <_>
      <internalNodes>
        0 -1 177405 4.6241428935900331e-04</internalNodes>
      <leafValues>
        -1.5080258250236511e-01 2.2608844935894012e-01</leafValues></_>
    <_>
      <internalNodes>
        0 -1 170740 2.4837316013872623e-03</internalNodes>
      <leafValues>
        8.5176669061183929e-02 -3.1440690159797668e-01</leafValues></_>
    <_>
      <internalNodes>
        0 -1 99486 9.0666685719043016e-04</internalNodes>
      <leafValues>
        -1.2161700427532196e-01 2.5422862172126770e-01</leafValues></_>
    <_>
      <internalNodes>
        0 -1 178571 1.4742361381649971e-03</internalNodes>
      <leafValues>
        4.9862165004014969e-02 -5.4091167449951172e-01</leafValues></_>
    <_>
      <internalNodes>
        0 -1 196471 2.1830326877534389e-03</internalNodes>
      <leafValues>
        -1.0161154717206955e-01 2.4806241691112518e-01</leafValues></_></weakClassifiers></stage13>
</opencv_storage>
