<?xml version="1.0"?>
<opencv_storage>
<stage1>
  <maxWeakCount>20</maxWeakCount>
  <stageThreshold>-1.2358644008636475e+00</stageThreshold>
  <weakClassifiers>
    <_>
      <internalNodes>
        0 -1 300016 4.1454769670963287e-02</internalNodes>
      <leafValues>
        -2.4900662899017334e-01 6.7995309829711914e-01</leafValues></_>
    <_>
      <internalNodes>
        0 -1 159437 -5.7727411389350891e-02</internalNodes>
      <leafValues>
        6.8237471580505371e-01 -1.9912618398666382e-01</leafValues></_>
    <_>
      <internalNodes>
        0 -1 339231 3.2635652460157871e-03</internalNodes>
      <leafValues>
        -3.1892508268356323e-01 3.6797466874122620e-01</leafValues></_>
    <_>
      <internalNodes>
        0 -1 343837 -3.9821527898311615e-03</internalNodes>
      <leafValues>
        6.4888668060302734e-01 -1.7595888674259186e-01</leafValues></_>
    <_>
      <internalNodes>
        0 -1 19668 3.6149088293313980e-02</internalNodes>
      <leafValues>
        -1.1271706223487854e-01 7.9669398069381714e-01</leafValues></_>
    <_>
      <internalNodes>
        0 -1 282774 -4.1321814060211182e-02</internalNodes>
      <leafValues>
        4.7166505455970764e-01 -2.4951553344726563e-01</leafValues></_>
    <_>
      <internalNodes>
        0 -1 385917 -2.8416793793439865e-03</internalNodes>
      <leafValues>
        4.6920186281204224e-01 -1.8547822535037994e-01</leafValues></_>
    <_>
      <internalNodes>
        0 -1 45298 -4.0481472387909889e-04</internalNodes>
      <leafValues>
        -5.8545947074890137e-01 1.4078806340694427e-01</leafValues></_>
    <_>
      <internalNodes>
        0 -1 45292 1.0743600432761014e-04</internalNodes>
      <leafValues>
        1.6696488857269287e-01 -5.2259618043899536e-01</leafValues></_>
    <_>
      <internalNodes>
        0 -1 316896 7.3214434087276459e-04</internalNodes>
      <leafValues>
        -1.8044772744178772e-01 4.6632322669029236e-01</leafValues></_>
    <_>
      <internalNodes>
        0 -1 218638 4.9072233960032463e-03</internalNodes>
      <leafValues>
        -1.3172888755798340e-01 5.2745437622070313e-01</leafValues></_>
    <_>
      <internalNodes>
        0 -1 226230 -3.8063786923885345e-03</internalNodes>
      <leafValues>
        4.6865856647491455e-01 -1.5671928226947784e-01</leafValues></_>
    <_>
      <internalNodes>
        0 -1 506199 -2.4422543356195092e-04</internalNodes>
      <leafValues>
        -6.2360203266143799e-01 1.1179774254560471e-01</leafValues></_>
    <_>
      <internalNodes>
        0 -1 256215 7.3128589428961277e-03</internalNodes>
      <leafValues>
        -1.4469902217388153e-01 6.0223990678787231e-01</leafValues></_>
    <_>
      <internalNodes>
        0 -1 147757 -5.6326142512261868e-03</internalNodes>
      <leafValues>
        5.2653813362121582e-01 -1.2519885599613190e-01</leafValues></_>
    <_>
      <internalNodes>
        0 -1 477290 -1.1821830412372947e-04</internalNodes>
      <leafValues>
        -4.9499738216400146e-01 1.5355332195758820e-01</leafValues></_>
    <_>
      <internalNodes>
        0 -1 379990 2.9161577112972736e-03</internalNodes>
      <leafValues>
        -1.4821282029151917e-01 4.4518557190895081e-01</leafValues></_>
    <_>
      <internalNodes>
        0 -1 256773 5.8424472808837891e-04</internalNodes>
      <leafValues>
        -1.5123267471790314e-01 4.6447923779487610e-01</leafValues></_>
    <_>
      <internalNodes>
        0 -1 285179 -1.1368712875992060e-03</internalNodes>
      <leafValues>
        4.1644304990768433e-01 -1.5494240820407867e-01</leafValues></_>
    <_>
      <internalNodes>
        0 -1 53418 2.0176894962787628e-02</internalNodes>
      <leafValues>
        -3.2182246446609497e-01 2.3193144798278809e-01</leafValues></_></weakClassifiers></stage1>
</opencv_storage>
