<?xml version="1.0"?>
<opencv_storage>
<stage18>
  <maxWeakCount>13</maxWeakCount>
  <stageThreshold>-4.4170585274696350e-01</stageThreshold>
  <weakClassifiers>
    <_>
      <internalNodes>
        0 -1 9238 1342156039 719791839 -1611196101 -1409568853 48189417
        -839975234 -399047544 -1459632145</internalNodes>
      <leafValues>
        -1.5654951333999634e-01 4.7210299968719482e-01</leafValues></_>
    <_>
      <internalNodes>
        0 -1 10541 -278530 485555759 -1360122980 -1506918490 2126282557
        787824574 -218293800 -105130569</internalNodes>
      <leafValues>
        -2.6542755961418152e-01 3.6838108301162720e-01</leafValues></_>
    <_>
      <internalNodes>
        0 -1 6506 -253766865 -1601228145 1343307921 -1864259072
        -2146842487 -1048542808 -990911578 1144515142</internalNodes>
      <leafValues>
        -3.3095067739486694e-01 2.9242515563964844e-01</leafValues></_>
    <_>
      <internalNodes>
        0 -1 11103 -515720257 -207322850 1074889774 -1952971514 17385665
        -567602999 -105817856 1975474553</internalNodes>
      <leafValues>
        -2.9702016711235046e-01 3.2360619306564331e-01</leafValues></_>
    <_>
      <internalNodes>
        0 -1 4069 1162640372 333021765 1008734661 1858371712 1368025597
        799101130 687885333 1070590603</internalNodes>
      <leafValues>
        -4.8355323076248169e-01 1.9683913886547089e-01</leafValues></_>
    <_>
      <internalNodes>
        0 -1 1554 1136391639 -537936213 -1090530065 -941940737
        1571011480 -1644700178 1165949979 1338714511</internalNodes>
      <leafValues>
        -2.4707838892936707e-01 4.0798646211624146e-01</leafValues></_>
    <_>
      <internalNodes>
        0 -1 13936 1297643829 -749710941 -1861035977 -1241738928
        -666960224 1996603907 -233520119 -1447278324</internalNodes>
      <leafValues>
        -3.1825661659240723e-01 3.4990957379341125e-01</leafValues></_>
    <_>
      <internalNodes>
        0 -1 10410 -201858526 1200064798 33687632 -1815453501 -754847727
        444801289 1630210456 -450067910</internalNodes>
      <leafValues>
        -2.9566976428031921e-01 3.6088901758193970e-01</leafValues></_>
    <_>
      <internalNodes>
        0 -1 4543 735184967 751079521 135266454 -589995902 1477052689
        -1987009460 -1874703346 -81950243</internalNodes>
      <leafValues>
        -4.2301613092422485e-01 2.5250032544136047e-01</leafValues></_>
    <_>
      <internalNodes>
        0 -1 6123 -353374238 1397661131 -2046765729 1368523426
        1074252225 -2003824187 1771166671 1889776241</internalNodes>
      <leafValues>
        -3.7210154533386230e-01 2.9452949762344360e-01</leafValues></_>
    <_>
      <internalNodes>
        0 -1 7602 -1796829549 1473297491 209005233 704249722 1718038004
        1431355356 1979612671 -866780037</internalNodes>
      <leafValues>
        -3.0973559617996216e-01 3.5880035161972046e-01</leafValues></_>
    <_>
      <internalNodes>
        0 -1 836 1850621684 -394032896 -1992292133 1701710083 906580725
        -342957310 1141023386 1863832493</internalNodes>
      <leafValues>
        -3.7266394495964050e-01 3.1296384334564209e-01</leafValues></_>
    <_>
      <internalNodes>
        0 -1 2016 -1953225420 883594518 1628471569 218275860 161572704
        -2004762106 -1052745186 983955198</internalNodes>
      <leafValues>
        -4.6538248658180237e-01 2.6567539572715759e-01</leafValues></_></weakClassifiers></stage18>
</opencv_storage>
