<?xml version="1.0"?>
<opencv_storage>
<stage15>
  <maxWeakCount>11</maxWeakCount>
  <stageThreshold>-5.6014454364776611e-01</stageThreshold>
  <weakClassifiers>
    <_>
      <internalNodes>
        0 -1 11985 -356567980 -173608995 -822743056 -256582465 -25262012
        -25888819 -122622264 -1072370066</internalNodes>
      <leafValues>
        -2.2965641319751740e-01 4.6666666865348816e-01</leafValues></_>
    <_>
      <internalNodes>
        0 -1 7132 1450606589 529533250 -1316135103 -1319402673
        1564613085 -1165864958 1804209853 -85249868</internalNodes>
      <leafValues>
        -3.6909767985343933e-01 3.2267019152641296e-01</leafValues></_>
    <_>
      <internalNodes>
        0 -1 9398 -1562648145 584577291 -585940938 -459992809
        -2113348749 129560968 -64455185 -501511511</internalNodes>
      <leafValues>
        -4.1132831573486328e-01 2.8326964378356934e-01</leafValues></_>
    <_>
      <internalNodes>
        0 -1 7855 -1693780046 -87391637 -2129545584 -1496675646
        1477045229 -909408131 -876549664 -522912862</internalNodes>
      <leafValues>
        -3.5917070508003235e-01 3.1833893060684204e-01</leafValues></_>
    <_>
      <internalNodes>
        0 -1 548 -503453337 -558174914 -68782849 -336330953 -268509474
        -916596905 -452985566 -185401419</internalNodes>
      <leafValues>
        -3.2496941089630127e-01 3.5751381516456604e-01</leafValues></_>
    <_>
      <internalNodes>
        0 -1 13171 535977723 -1082634185 -1559144035 759963708
        -1065344043 -83713910 -982895742 -1373861648</internalNodes>
      <leafValues>
        -3.6157709360122681e-01 3.3062094449996948e-01</leafValues></_>
    <_>
      <internalNodes>
        0 -1 3099 -1024269371 1322459472 1428210885 136286551 1845695036
        1764229538 813709924 2060032897</internalNodes>
      <leafValues>
        -3.9869818091392517e-01 2.8463509678840637e-01</leafValues></_>
    <_>
      <internalNodes>
        0 -1 12855 -1007071154 1718829703 406943896 -1979316942
        1074938376 1556729729 -184286524 -469501421</internalNodes>
      <leafValues>
        -4.2579591274261475e-01 2.8703942894935608e-01</leafValues></_>
    <_>
      <internalNodes>
        0 -1 2438 -556096713 23986826 -1455303393 1095895040 1277772597
        -937097024 881405819 -272439264</internalNodes>
      <leafValues>
        -3.6788538098335266e-01 3.4114304184913635e-01</leafValues></_>
    <_>
      <internalNodes>
        0 -1 7530 -489438847 -1098612628 -784068114 -207860992
        1796051519 -1189420991 -207552411 -458859963</internalNodes>
      <leafValues>
        -3.6256694793701172e-01 3.4031578898429871e-01</leafValues></_>
    <_>
      <internalNodes>
        0 -1 5970 1380203459 1697768277 1166020815 751028497 536996846
        -1577023295 -1605580534 304997624</internalNodes>
      <leafValues>
        -4.1134583950042725e-01 3.0166760087013245e-01</leafValues></_></weakClassifiers></stage15>
</opencv_storage>
