<?xml version="1.0"?>
<opencv_storage>
<stage8>
  <maxWeakCount>9</maxWeakCount>
  <stageThreshold>-6.8486428260803223e-01</stageThreshold>
  <weakClassifiers>
    <_>
      <internalNodes>
        0 -1 7061 -520625910 1615446078 805355586 444842178 1075986436
        1143031873 1627669045 1899488111</internalNodes>
      <leafValues>
        -4.9640288949012756e-01 4.2503097653388977e-01</leafValues></_>
    <_>
      <internalNodes>
        0 -1 10388 -486545429 45022971 -419435617 1912069115 -1628569970
        671021055 2021653701 -67633169</internalNodes>
      <leafValues>
        -3.1205564737319946e-01 4.5749691128730774e-01</leafValues></_>
    <_>
      <internalNodes>
        0 -1 5215 -51380489 -294715410 -1011025926 -256973140 -134363201
        -1679425626 1983215059 -134744093</internalNodes>
      <leafValues>
        -3.4703850746154785e-01 4.1274398565292358e-01</leafValues></_>
    <_>
      <internalNodes>
        0 -1 10500 -173279738 1742437231 -152247774 1383038643
        -1208228017 1188935478 -671116318 -241179669</internalNodes>
      <leafValues>
        -3.3065524697303772e-01 4.2113751173019409e-01</leafValues></_>
    <_>
      <internalNodes>
        0 -1 4539 160260450 103321664 168236 -435158779 1489526870
        1753278774 1208107175 -27845</internalNodes>
      <leafValues>
        -5.4355186223983765e-01 2.4634520709514618e-01</leafValues></_>
    <_>
      <internalNodes>
        0 -1 6078 1899439176 -1911438064 91161 1196655895 -1626840414
        -1207418837 1845602458 288340351</internalNodes>
      <leafValues>
        -4.9393373727798462e-01 3.0989059805870056e-01</leafValues></_>
    <_>
      <internalNodes>
        0 -1 11696 -540047121 465958439 -2082716831 -512537309
        1987165358 -1749231647 -917393845 1532740767</internalNodes>
      <leafValues>
        -2.8651133179664612e-01 5.1189523935317993e-01</leafValues></_>
    <_>
      <internalNodes>
        0 -1 8325 -45624785 -1964779008 -805187584 -560295591 1913201155
        1107525773 1439247811 -182715746</internalNodes>
      <leafValues>
        -4.0869241952896118e-01 3.4902536869049072e-01</leafValues></_>
    <_>
      <internalNodes>
        0 -1 9548 345509905 960696323 286266388 236650640 536871388
        470302850 -2011075669 -1626393972</internalNodes>
      <leafValues>
        -5.2521276473999023e-01 3.3641397953033447e-01</leafValues></_></weakClassifiers></stage8>
</opencv_storage>
