<?xml version="1.0"?>
<opencv_storage>
<stage1>
  <maxWeakCount>6</maxWeakCount>
  <stageThreshold>-9.8990899324417114e-01</stageThreshold>
  <weakClassifiers>
    <_>
      <internalNodes>
        0 -1 4159 2003647999 524146551 1039609788 2138570487 1740443643
        225804158 2147483631 2145386495</internalNodes>
      <leafValues>
        -4.6902653574943542e-01 6.7645490169525146e-01</leafValues></_>
    <_>
      <internalNodes>
        0 -1 614 -204475393 -235536669 -1593958238 300659431 -18491425
        980898754 939259035 1088415679</internalNodes>
      <leafValues>
        -4.4048014283180237e-01 5.6220310926437378e-01</leafValues></_>
    <_>
      <internalNodes>
        0 -1 3658 -585770270 -204696105 294903222 -76431317 -72234022
        -459237356 -142349605 1344522239</internalNodes>
      <leafValues>
        -4.8611316084861755e-01 4.3273386359214783e-01</leafValues></_>
    <_>
      <internalNodes>
        0 -1 8380 -1313425 -336068891 1878505314 -222298369 -427835867
        90136431 -1744837881 -778043393</internalNodes>
      <leafValues>
        -3.8829919695854187e-01 5.4530107975006104e-01</leafValues></_>
    <_>
      <internalNodes>
        0 -1 8475 494941180 340941140 -1978857966 2006651796 289549805
        770267595 977963775 -4215810</internalNodes>
      <leafValues>
        -5.1431757211685181e-01 3.9556002616882324e-01</leafValues></_>
    <_>
      <internalNodes>
        0 -1 12310 -941773266 5587460 1074118736 576338099 1137008018
        8519695 1200438039 1920466247</internalNodes>
      <leafValues>
        -5.4321259260177612e-01 3.7472733855247498e-01</leafValues></_></weakClassifiers></stage1>
</opencv_storage>
