<?xml version="1.0"?>
<opencv_storage>
<stage19>
  <maxWeakCount>14</maxWeakCount>
  <stageThreshold>-9.3763381242752075e-01</stageThreshold>
  <weakClassifiers>
    <_>
      <internalNodes>
        0 -1 5742 1968680945 1006497341 2122305215 -1847903745
        1692218846 1851674610 1879007211 -151374089</internalNodes>
      <leafValues>
        -1.5077424049377441e-01 4.6003177762031555e-01</leafValues></_>
    <_>
      <internalNodes>
        0 -1 5205 -60293132 -391123414 -537988444 -1075331455 -536887402
        232062933 -992682046 -689442858</internalNodes>
      <leafValues>
        -2.6995775103569031e-01 3.4657377004623413e-01</leafValues></_>
    <_>
      <internalNodes>
        0 -1 9616 -572915745 -142839319 729137103 -304363753 -88234006
        -1003710986 -1162743509 -113538789</internalNodes>
      <leafValues>
        -1.5781578421592712e-01 5.7767069339752197e-01</leafValues></_>
    <_>
      <internalNodes>
        0 -1 3883 -25254097 -155193410 -88133738 1226209058 645354026
        -83886473 -1071129907 -373959745</internalNodes>
      <leafValues>
        -2.9562520980834961e-01 3.3868706226348877e-01</leafValues></_>
    <_>
      <internalNodes>
        0 -1 7700 -1031631504 -1819967471 1275134473 -720715694
        694332092 1208128561 162601416 -781336572</internalNodes>
      <leafValues>
        -3.5018846392631531e-01 2.8809162974357605e-01</leafValues></_>
    <_>
      <internalNodes>
        0 -1 9393 -437522714 -1025512721 -1430591896 -624693393
        1207418498 1659076597 -1211641873 -556139617</internalNodes>
      <leafValues>
        -2.5235334038734436e-01 4.0608200430870056e-01</leafValues></_>
    <_>
      <internalNodes>
        0 -1 9820 -51452160 1765666742 1988022229 -50874831 -268435509
        -64555036 -1363222598 -1593847965</internalNodes>
      <leafValues>
        -2.5622111558914185e-01 4.1678929328918457e-01</leafValues></_>
    <_>
      <internalNodes>
        0 -1 11601 664548852 353406993 -2078603238 740036610 -1332401259
        939737105 77957781 842711620</internalNodes>
      <leafValues>
        -5.4110080003738403e-01 1.9424416124820709e-01</leafValues></_>
    <_>
      <internalNodes>
        0 -1 8660 1079717398 319636375 1069078 -1824155646 -1874245408
        285305751 -1601189246 146318098</internalNodes>
      <leafValues>
        -4.3527641892433167e-01 2.4427072703838348e-01</leafValues></_>
    <_>
      <internalNodes>
        0 -1 12045 -514422298 -786202293 18008201 1418346926 -474697216
        813744130 -1031602044 -465049018</internalNodes>
      <leafValues>
        -3.8195252418518066e-01 2.9072472453117371e-01</leafValues></_>
    <_>
      <internalNodes>
        0 -1 15079 890788037 -275590253 -1853172401 1775602771
        1494259185 -30701408 -1744671166 2123414242</internalNodes>
      <leafValues>
        -3.6057460308074951e-01 3.1607127189636230e-01</leafValues></_>
    <_>
      <internalNodes>
        0 -1 11040 -554767177 -1154269660 2079456123 396670894
        -956369212 -1401135795 -588778280 -598673510</internalNodes>
      <leafValues>
        -2.8699645400047302e-01 4.2928636074066162e-01</leafValues></_>
    <_>
      <internalNodes>
        0 -1 7907 -608239942 -478494752 2144433329 741476960 -17717505
        -2097926307 805046157 -555286618</internalNodes>
      <leafValues>
        -2.4881552159786224e-01 4.4586348533630371e-01</leafValues></_>
    <_>
      <internalNodes>
        0 -1 10741 910339202 1414780111 -838323956 -1115578310
        -635856401 -1459412927 -1559782710 1694568390</internalNodes>
      <leafValues>
        -3.8623788952827454e-01 3.0442318320274353e-01</leafValues></_></weakClassifiers></stage19>
</opencv_storage>
