<?xml version="1.0"?>
<opencv_storage>
<stage4>
  <maxWeakCount>8</maxWeakCount>
  <stageThreshold>-7.9446244239807129e-01</stageThreshold>
  <weakClassifiers>
    <_>
      <internalNodes>
        0 -1 4244 1476378046 893370106 268397375 -4269 100087274
        219164479 -17409 2147463103</internalNodes>
      <leafValues>
        -4.1633465886116028e-01 5.2178031206130981e-01</leafValues></_>
    <_>
      <internalNodes>
        0 -1 4897 -404492630 -745147422 -253299849 2005004283 -805311811
        -330008587 -19531778 -178913437</internalNodes>
      <leafValues>
        -3.8770827651023865e-01 4.6672889590263367e-01</leafValues></_>
    <_>
      <internalNodes>
        0 -1 9501 -4740098 1055402751 -1074910692 933935868 2134711741
        770867047 2013206474 -4195081</internalNodes>
      <leafValues>
        -3.3184799551963806e-01 4.9672973155975342e-01</leafValues></_>
    <_>
      <internalNodes>
        0 -1 4155 -89199698 21307870 1082147116 1335591260 1697637866
        832077992 1996524059 2067785867</internalNodes>
      <leafValues>
        -4.9385720491409302e-01 3.2870495319366455e-01</leafValues></_>
    <_>
      <internalNodes>
        0 -1 10964 -632108288 2035564560 -1073592208 1343787152
        -1744100838 -636405364 -134008618 -184855938</internalNodes>
      <leafValues>
        -5.0152355432510376e-01 3.0334433913230896e-01</leafValues></_>
    <_>
      <internalNodes>
        0 -1 4596 640686193 1827249847 2058350269 -1207992845 1667582365
        -50430599 -2030141953 -806568754</internalNodes>
      <leafValues>
        -3.2730385661125183e-01 4.6335986256599426e-01</leafValues></_>
    <_>
      <internalNodes>
        0 -1 8303 -268187510 276930841 1895825617 -1876967415 1937949313
        2101251 93851782 1711006255</internalNodes>
      <leafValues>
        -5.3854042291641235e-01 2.9342353343963623e-01</leafValues></_>
    <_>
      <internalNodes>
        0 -1 5156 -9443405 -903156094 -285311499 -312428912 -298877457
        -1628766221 -957353589 -974141582</internalNodes>
      <leafValues>
        -2.7921363711357117e-01 5.8084142208099365e-01</leafValues></_></weakClassifiers></stage4>
</opencv_storage>
