<?xml version="1.0"?>
<opencv_storage>
<stage4>
  <maxWeakCount>25</maxWeakCount>
  <stageThreshold>-1.0387345552444458e+00</stageThreshold>
  <weakClassifiers>
    <_>
      <internalNodes>
        0 -1 382536 2.8594005852937698e-02</internalNodes>
      <leafValues>
        -2.8483921289443970e-01 6.0523557662963867e-01</leafValues></_>
    <_>
      <internalNodes>
        0 -1 320228 -5.0947046838700771e-04</internalNodes>
      <leafValues>
        -6.6369235515594482e-01 1.5761165320873260e-01</leafValues></_>
    <_>
      <internalNodes>
        0 -1 144527 -1.5506505966186523e-02</internalNodes>
      <leafValues>
        3.0075678229331970e-01 -2.7832293510437012e-01</leafValues></_>
    <_>
      <internalNodes>
        0 -1 299651 -3.0443735886365175e-04</internalNodes>
      <leafValues>
        1.9510875642299652e-01 -3.6088848114013672e-01</leafValues></_>
    <_>
      <internalNodes>
        0 -1 300125 5.2370182238519192e-03</internalNodes>
      <leafValues>
        -1.7950189113616943e-01 3.9650651812553406e-01</leafValues></_>
    <_>
      <internalNodes>
        0 -1 72368 8.6029753088951111e-02</internalNodes>
      <leafValues>
        -1.4685332775115967e-01 7.0811372995376587e-01</leafValues></_>
    <_>
      <internalNodes>
        0 -1 356163 -4.8780185170471668e-04</internalNodes>
      <leafValues>
        -4.5850422978401184e-01 1.7768789827823639e-01</leafValues></_>
    <_>
      <internalNodes>
        0 -1 488298 6.6910614259541035e-03</internalNodes>
      <leafValues>
        -1.5644443035125732e-01 4.9082037806510925e-01</leafValues></_>
    <_>
      <internalNodes>
        0 -1 195592 5.3788244258612394e-04</internalNodes>
      <leafValues>
        1.2832947075366974e-01 -4.9583661556243896e-01</leafValues></_>
    <_>
      <internalNodes>
        0 -1 316925 9.2780304839834571e-04</internalNodes>
      <leafValues>
        -1.3222061097621918e-01 4.8229068517684937e-01</leafValues></_>
    <_>
      <internalNodes>
        0 -1 196140 -2.3800395138096064e-04</internalNodes>
      <leafValues>
        -4.7332257032394409e-01 1.2167466431856155e-01</leafValues></_>
    <_>
      <internalNodes>
        0 -1 396797 3.0681747011840343e-03</internalNodes>
      <leafValues>
        -1.3769656419754028e-01 4.1680097579956055e-01</leafValues></_>
    <_>
      <internalNodes>
        0 -1 441084 7.7258804813027382e-03</internalNodes>
      <leafValues>
        -1.2560920417308807e-01 3.9935845136642456e-01</leafValues></_>
    <_>
      <internalNodes>
        0 -1 278680 3.8565578870475292e-03</internalNodes>
      <leafValues>
        -2.1000677347183228e-01 2.3436456918716431e-01</leafValues></_>
    <_>
      <internalNodes>
        0 -1 69645 6.4364047721028328e-03</internalNodes>
      <leafValues>
        -1.2399480491876602e-01 3.9791145920753479e-01</leafValues></_>
    <_>
      <internalNodes>
        0 -1 332765 -3.3114152029156685e-03</internalNodes>
      <leafValues>
        4.8594680428504944e-01 -1.5308365225791931e-01</leafValues></_>
    <_>
      <internalNodes>
        0 -1 269464 -5.7163457386195660e-03</internalNodes>
      <leafValues>
        3.1198522448539734e-01 -1.5390008687973022e-01</leafValues></_>
    <_>
      <internalNodes>
        0 -1 617670 3.2616412499919534e-04</internalNodes>
      <leafValues>
        1.0392110049724579e-01 -5.2988082170486450e-01</leafValues></_>
    <_>
      <internalNodes>
        0 -1 128662 2.6343118399381638e-02</internalNodes>
      <leafValues>
        -1.1463066935539246e-01 4.3416166305541992e-01</leafValues></_>
    <_>
      <internalNodes>
        0 -1 7846 -1.1673029512166977e-03</internalNodes>
      <leafValues>
        3.3464387059211731e-01 -1.4996284246444702e-01</leafValues></_>
    <_>
      <internalNodes>
        0 -1 250213 3.6488617770373821e-03</internalNodes>
      <leafValues>
        -1.2912419438362122e-01 3.6535620689392090e-01</leafValues></_>
    <_>
      <internalNodes>
        0 -1 13945 6.9844476878643036e-02</internalNodes>
      <leafValues>
        -2.4811734259128571e-01 2.3706115782260895e-01</leafValues></_>
    <_>
      <internalNodes>
        0 -1 432510 -4.1451081633567810e-03</internalNodes>
      <leafValues>
        3.0873882770538330e-01 -1.5577463805675507e-01</leafValues></_>
    <_>
      <internalNodes>
        0 -1 496191 4.6783126890659332e-03</internalNodes>
      <leafValues>
        -1.3132879137992859e-01 3.9448896050453186e-01</leafValues></_>
    <_>
      <internalNodes>
        0 -1 455096 -6.0069991741329432e-04</internalNodes>
      <leafValues>
        -5.3686088323593140e-01 9.8012566566467285e-02</leafValues></_></weakClassifiers></stage4>
</opencv_storage>
