<?xml version="1.0"?>
<opencv_storage>
<stage11>
  <maxWeakCount>46</maxWeakCount>
  <stageThreshold>-1.5119642019271851e+00</stageThreshold>
  <weakClassifiers>
    <_>
      <internalNodes>
        0 -1 8341 -1 1073741823 -1 -1 -1 -1 -1 -1</internalNodes>
      <leafValues>
        1.0755568742752075e-01 6.9579970836639404e-01</leafValues></_>
    <_>
      <internalNodes>
        0 -1 13887 -1073741826 -268435457 -1 -285212673 -129 -1 -9
        2147483647</internalNodes>
      <leafValues>
        1.6254568099975586e-01 -3.0616188049316406e-01</leafValues></_>
    <_>
      <internalNodes>
        0 -1 3647 -65538 -1 -1 -1 -1 -1 -1 -134742025</internalNodes>
      <leafValues>
        -1.3476108014583588e-01 3.0060970783233643e-01</leafValues></_>
    <_>
      <internalNodes>
        0 -1 7208 1073709055 -1 -1 -1 2147450879 -1 -1 -1</internalNodes>
      <leafValues>
        -1.3233117759227753e-01 2.9415374994277954e-01</leafValues></_>
    <_>
      <internalNodes>
        0 -1 1263 1024 648298296 1006513944 687352484 528290016
        662048574 939263252 3409924</internalNodes>
      <leafValues>
        -1.3485802412033081e+00 1.7071206122636795e-02</leafValues></_>
    <_>
      <internalNodes>
        0 -1 912 -1 -1 -1 -1 -1 -1 -1 2147483647</internalNodes>
      <leafValues>
        8.5858546197414398e-02 -5.6499147415161133e-01</leafValues></_>
    <_>
      <internalNodes>
        0 -1 1535 -1 -1 -17 -268435457 -1 -1 -129 2147483647</internalNodes>
      <leafValues>
        -6.6027499735355377e-02 5.3682845830917358e-01</leafValues></_>
    <_>
      <internalNodes>
        0 -1 10664 2097152 1042300408 -50577474 985140540 913575220
        -1074462884 820281146 2098196</internalNodes>
      <leafValues>
        -2.0811190605163574e+00 2.9406188055872917e-02</leafValues></_>
    <_>
      <internalNodes>
        0 -1 6977 -1 -1 -1 -1 -1 2147483647 -1 -1</internalNodes>
      <leafValues>
        -9.2715099453926086e-02 3.8836601376533508e-01</leafValues></_>
    <_>
      <internalNodes>
        0 -1 16002 2097168 770191280 939343860 720650088 1073626620
        519847926 1040066388 554700800</internalNodes>
      <leafValues>
        -2.1538481712341309e+00 3.1930934637784958e-02</leafValues></_>
    <_>
      <internalNodes>
        0 -1 3336 -18 -285212673 -2 -285212673 -137 2147483647 -139
        2013265919</internalNodes>
      <leafValues>
        2.2447352111339569e-01 -1.4529992640018463e-01</leafValues></_>
    <_>
      <internalNodes>
        0 -1 7341 136446080 787014924 -1396822108 -1897394482 226233589
        593895036 250487816 262656</internalNodes>
      <leafValues>
        -1.2283244132995605e+00 2.8291162103414536e-02</leafValues></_>
    <_>
      <internalNodes>
        0 -1 12100 44566528 545005358 259664436 681716256 259261504
        636497772 931019552 593495856</internalNodes>
      <leafValues>
        -5.7564578056335449e+00 3.2974090427160263e-02</leafValues></_>
    <_>
      <internalNodes>
        0 -1 12414 -5 -1 -2 -65537 -1 -1 -2 -1073741825</internalNodes>
      <leafValues>
        -4.0531225502490997e-02 1.3997496366500854e+00</leafValues></_>
    <_>
      <internalNodes>
        0 -1 12045 -1 -1 -1 -1 -1 -1 -1 -134217729</internalNodes>
      <leafValues>
        -6.9088995456695557e-02 1.0789529085159302e+00</leafValues></_>
    <_>
      <internalNodes>
        0 -1 10292 -1 -1 -1 -1 -1 -1 -1 2147483647</internalNodes>
      <leafValues>
        8.3544097840785980e-02 -5.3692603111267090e-01</leafValues></_>
    <_>
      <internalNodes>
        0 -1 3231 44049408 728906720 2008038392 979510306 66371348
        1600127089 657462496 0</internalNodes>
      <leafValues>
        -5.7564578056335449e+00 3.7409037351608276e-02</leafValues></_>
    <_>
      <internalNodes>
        0 -1 5101 -65538 -1 -1 -8388609 -4 2146435071 -4194305 -16777225</internalNodes>
      <leafValues>
        -7.3275133967399597e-02 1.0823155641555786e+00</leafValues></_>
    <_>
      <internalNodes>
        0 -1 5975 -16388 -1 -17 -268435457 -1 -1 -129 1073741823</internalNodes>
      <leafValues>
        -1.9619993865489960e-01 4.3413746356964111e-01</leafValues></_>
    <_>
      <internalNodes>
        0 -1 7483 -20626 -1073741825 -1 -1 -1 -1 -1 1988067319</internalNodes>
      <leafValues>
        -2.1708205342292786e-01 2.9920694231987000e-01</leafValues></_>
    <_>
      <internalNodes>
        0 -1 8454 -2 -1 -1 -1 -1 2147483647 -1 -134217729</internalNodes>
      <leafValues>
        -1.1087945103645325e-01 4.8813673853874207e-01</leafValues></_>
    <_>
      <internalNodes>
        0 -1 7151 573844688 612253436 1073622012 519978610 1048460884
        1069383679 259329888 11877684</internalNodes>
      <leafValues>
        -1.1122285127639771e+00 6.9703266024589539e-02</leafValues></_>
    <_>
      <internalNodes>
        0 -1 8006 653535520 543337268 989782768 812186322 92152884
        922220280 922105040 21584</internalNodes>
      <leafValues>
        -1.2056958675384521e+00 6.0596395283937454e-02</leafValues></_>
    <_>
      <internalNodes>
        0 -1 7940 45089800 649080380 1073692456 766656510 502082852
        671055871 800465456 378875879</internalNodes>
      <leafValues>
        -1.1491414308547974e+00 6.4924046397209167e-02</leafValues></_>
    <_>
      <internalNodes>
        0 -1 1259 72616960 721301448 535703545 783040500 989271372
        532675582 897325624 72352004</internalNodes>
      <leafValues>
        -1.5792398452758789e+00 5.5435344576835632e-02</leafValues></_>
    <_>
      <internalNodes>
        0 -1 11893 805191676 -1342177281 -1 -1342177281 -1 -1 -1
        251543548</internalNodes>
      <leafValues>
        3.7310123443603516e-01 -1.3798661530017853e-01</leafValues></_>
    <_>
      <internalNodes>
        0 -1 10002 249835040 754745056 -16990356 1055964228 1073493380
        2129690468 645283332 0</internalNodes>
      <leafValues>
        -1.3340029716491699e+00 5.1056824624538422e-02</leafValues></_>
    <_>
      <internalNodes>
        0 -1 8684 -1 -1 -1 -1 -1 -1 -1 2147483647</internalNodes>
      <leafValues>
        7.9332247376441956e-02 -6.9480955600738525e-01</leafValues></_>
    <_>
      <internalNodes>
        0 -1 14322 69730304 586167848 804667288 610841184 234296576
        91566069 1995718324 4203824</internalNodes>
      <leafValues>
        -1.7628904581069946e+00 5.1528114825487137e-02</leafValues></_>
    <_>
      <internalNodes>
        0 -1 4006 -1033196542 553580222 921579008 553170174 1995794208
        1079441253 1978692932 7829301</internalNodes>
      <leafValues>
        -1.4452573060989380e+00 5.7673934847116470e-02</leafValues></_>
    <_>
      <internalNodes>
        0 -1 759 644812288 145014574 -1074352608 581894078 2088594244
        1156939735 2139092480 6503781</internalNodes>
      <leafValues>
        -1.1295542716979980e+00 6.2021452933549881e-02</leafValues></_>
    <_>
      <internalNodes>
        0 -1 1360 1744440832 544665194 -16830976 552533662 1700757296
        628457087 1069503488 275838820</internalNodes>
      <leafValues>
        -1.5399714708328247e+00 5.0776872783899307e-02</leafValues></_>
    <_>
      <internalNodes>
        0 -1 4010 5382176 11677666 360063910 649608946 611785748
        355753853 939335538 276177840</internalNodes>
      <leafValues>
        -2.2438619136810303e+00 5.3528696298599243e-02</leafValues></_>
    <_>
      <internalNodes>
        0 -1 13125 -2 -268435457 -1 -285212673 -1 -1 -1 2147483647</internalNodes>
      <leafValues>
        1.5980052947998047e-01 -3.1588622927665710e-01</leafValues></_>
    <_>
      <internalNodes>
        0 -1 12381 -268505090 -1 -2 -1359020034 -1 2147483647 -1
        2147483645</internalNodes>
      <leafValues>
        -1.7055551707744598e-01 2.9428952932357788e-01</leafValues></_>
    <_>
      <internalNodes>
        0 -1 7485 4728832 161492590 -122005588 -437714974 754753420
        74760180 1744698948 1536</internalNodes>
      <leafValues>
        -1.2720091342926025e+00 5.0737302750349045e-02</leafValues></_>
    <_>
      <internalNodes>
        0 -1 9204 -1 -268435457 -1 -285212673 -1 -1 -1 2147483647</internalNodes>
      <leafValues>
        1.6487129032611847e-01 -2.9654723405838013e-01</leafValues></_>
    <_>
      <internalNodes>
        0 -1 13271 -1073741825 -1 -1 -1 -1 -1 -1 1073709055</internalNodes>
      <leafValues>
        1.7956508696079254e-01 -2.5930467247962952e-01</leafValues></_>
    <_>
      <internalNodes>
        0 -1 4586 67110912 78650466 -18188384 82640756 615851812
        114704245 1047805300 607149876</internalNodes>
      <leafValues>
        -1.5317223072052002e+00 5.1346946507692337e-02</leafValues></_>
    <_>
      <internalNodes>
        0 -1 3642 846996480 909910568 805254964 170012418 838543104
        805248852 1801388032 7602960</internalNodes>
      <leafValues>
        -1.6339989900588989e+00 5.7750634849071503e-02</leafValues></_>
    <_>
      <internalNodes>
        0 -1 3093 7341568 78456588 802519592 539127596 86250304
        645677022 342622820 6148</internalNodes>
      <leafValues>
        -1.9500010013580322e+00 5.1609061658382416e-02</leafValues></_>
    <_>
      <internalNodes>
        0 -1 3843 553562976 595242916 -1226104320 581483504 2013226464
        276128449 1962742352 5526324</internalNodes>
      <leafValues>
        -1.4732612371444702e+00 5.2063237875699997e-02</leafValues></_>
    <_>
      <internalNodes>
        0 -1 14296 69469216 774909950 1073692604 226246436 1056251476
        767180797 133442524 9520</internalNodes>
      <leafValues>
        -1.7322810888290405e+00 5.3190279752016068e-02</leafValues></_>
    <_>
      <internalNodes>
        0 -1 3209 -32769 -1 -1 -1 -1 -1 -1 2147450879</internalNodes>
      <leafValues>
        1.4616651833057404e-01 -3.0006733536720276e-01</leafValues></_>
    <_>
      <internalNodes>
        0 -1 4300 10488352 103300924 771697448 15994726 754921008
        804878193 939489028 1587024</internalNodes>
      <leafValues>
        -1.7601108551025391e+00 4.8274274915456772e-02</leafValues></_>
    <_>
      <internalNodes>
        0 -1 6780 -1 -1 -1 -1 -129 -1 -137 2147483647</internalNodes>
      <leafValues>
        1.4926533401012421e-01 -3.1830275058746338e-01</leafValues></_></weakClassifiers></stage11>
</opencv_storage>
