<?xml version="1.0"?>
<opencv_storage>
<stage8>
  <maxWeakCount>27</maxWeakCount>
  <stageThreshold>-1.1248822212219238e+00</stageThreshold>
  <weakClassifiers>
    <_>
      <internalNodes>
        0 -1 8306 2147467263 2147483647 -1 -1 2147483647 2147483647 -1
        -1</internalNodes>
      <leafValues>
        2.2544803097844124e-02 6.1813503503799438e-01</leafValues></_>
    <_>
      <internalNodes>
        0 -1 6027 -4 -1 -1 -1 -1 -1 -1 1073741823</internalNodes>
      <leafValues>
        -1.6898834705352783e-01 3.7855428457260132e-01</leafValues></_>
    <_>
      <internalNodes>
        0 -1 3647 -2 -1 -1 -1 -1 -1 -1 -134742025</internalNodes>
      <leafValues>
        -1.2083354592323303e-01 3.9027592539787292e-01</leafValues></_>
    <_>
      <internalNodes>
        0 -1 510 69471232 1073491960 -115031 788283388 1073033084
        1056339964 1065291764 8388880</internalNodes>
      <leafValues>
        -9.4931316375732422e-01 4.9864193424582481e-03</leafValues></_>
    <_>
      <internalNodes>
        0 -1 13962 -1 -1 -1 -1 -1 -1 -1 2147483647</internalNodes>
      <leafValues>
        1.1807639896869659e-01 -6.0079741477966309e-01</leafValues></_>
    <_>
      <internalNodes>
        0 -1 7423 -18 -1 -1 -1 -1 -1 -1 1962409974</internalNodes>
      <leafValues>
        -1.7757986485958099e-01 2.6841291785240173e-01</leafValues></_>
    <_>
      <internalNodes>
        0 -1 10600 1073692671 -1 -1 -1 -1 -1 -1 -1</internalNodes>
      <leafValues>
        -1.2475950270891190e-01 3.5204505920410156e-01</leafValues></_>
    <_>
      <internalNodes>
        0 -1 4445 744435200 619478894 1862270624 -1427177618 1610575616
        134053751 1467954948 812972918</internalNodes>
      <leafValues>
        -8.7695866823196411e-01 6.8649396300315857e-02</leafValues></_>
    <_>
      <internalNodes>
        0 -1 16189 67108932 733757434 805105644 486287204 1073483644
        1056767932 536099612 2098224</internalNodes>
      <leafValues>
        -1.4853990077972412e+00 4.2571142315864563e-02</leafValues></_>
    <_>
      <internalNodes>
        0 -1 5566 549191696 770706456 -1359208580 771506162 928781424
        805126142 649858084 99355216</internalNodes>
      <leafValues>
        -2.8125474452972412e+00 5.2477851510047913e-02</leafValues></_>
    <_>
      <internalNodes>
        0 -1 11496 -285315290 117374975 -16781330 587136766 2147450740
        1476394879 2013233012 16187381</internalNodes>
      <leafValues>
        -4.6227276325225830e-01 9.4078525900840759e-02</leafValues></_>
    <_>
      <internalNodes>
        0 -1 11389 -4098 -1 -1 -65538 -1 -1 -1 2147483647</internalNodes>
      <leafValues>
        -9.9078170955181122e-02 4.2591711878776550e-01</leafValues></_>
    <_>
      <internalNodes>
        0 -1 3879 -327270880 544665198 -1073759648 6717218 1064793904
        108395893 -160992000 72644358</internalNodes>
      <leafValues>
        -1.0951604843139648e+00 6.1506543308496475e-02</leafValues></_>
    <_>
      <internalNodes>
        0 -1 11364 -1 -1 -1 -1 -1 -1 -1 2147483647</internalNodes>
      <leafValues>
        8.0453820526599884e-02 -5.6068706512451172e-01</leafValues></_>
    <_>
      <internalNodes>
        0 -1 7656 648479234 581873066 -1158797664 15265774 2013069824
        5535589 1467315972 288533</internalNodes>
      <leafValues>
        -1.2203011512756348e+00 4.7583300620317459e-02</leafValues></_>
    <_>
      <internalNodes>
        0 -1 6139 1625563136 48642784 -1544753808 551612278 880620784
        1425505404 352156796 2098304</internalNodes>
      <leafValues>
        -1.3876134157180786e+00 5.3705271333456039e-02</leafValues></_>
    <_>
      <internalNodes>
        0 -1 7139 104335520 10239524 721235624 586591880 1735857968
        7632743 661987104 74720868</internalNodes>
      <leafValues>
        -2.9030168056488037e+00 4.9137420952320099e-02</leafValues></_>
    <_>
      <internalNodes>
        0 -1 12045 -1 -1 -1 -1 -1 -1 -1 -134217729</internalNodes>
      <leafValues>
        -4.0649525821208954e-02 1.3255556821823120e+00</leafValues></_>
    <_>
      <internalNodes>
        0 -1 12188 -1360105982 49213100 1862200930 552533606 2147305220
        109019135 2146924100 1148614516</internalNodes>
      <leafValues>
        -8.9679998159408569e-01 6.2749214470386505e-02</leafValues></_>
    <_>
      <internalNodes>
        0 -1 12577 211812352 183242696 -1495912832 800205536 137113312
        251146084 129764640 0</internalNodes>
      <leafValues>
        -1.8876512050628662e+00 4.4341303408145905e-02</leafValues></_>
    <_>
      <internalNodes>
        0 -1 15636 254018096 1056190364 1073741820 780025640 234634620
        1073627007 268189500 137364740</internalNodes>
      <leafValues>
        -1.3707792758941650e+00 5.9279847890138626e-02</leafValues></_>
    <_>
      <internalNodes>
        0 -1 5069 -2 -1 -1 -1 -1 -1 -1 -1</internalNodes>
      <leafValues>
        -7.0823304355144501e-02 6.3483357429504395e-01</leafValues></_>
    <_>
      <internalNodes>
        0 -1 8360 -17 -1 -1 -1 -1 2147483647 -1 -134217729</internalNodes>
      <leafValues>
        -1.1233275383710861e-01 4.3466609716415405e-01</leafValues></_>
    <_>
      <internalNodes>
        0 -1 7086 40378880 81838056 -1359049976 1090400034 879568128
        24391539 1928668720 4203792</internalNodes>
      <leafValues>
        -1.7881683111190796e+00 4.7904841601848602e-02</leafValues></_>
    <_>
      <internalNodes>
        0 -1 9123 537134112 1060585342 1073692543 503201790 936781160
        1056915447 805257100 395579172</internalNodes>
      <leafValues>
        -1.7551655769348145e+00 5.2349075675010681e-02</leafValues></_>
    <_>
      <internalNodes>
        0 -1 9392 638454272 40793466 1660887714 543862754 1685460740
        68646781 893351168 7747334</internalNodes>
      <leafValues>
        -1.7834322452545166e+00 4.7914545983076096e-02</leafValues></_>
    <_>
      <internalNodes>
        0 -1 9905 250612736 1794670246 -286358494 82463464 611779648
        41840501 1702782532 5260800</internalNodes>
      <leafValues>
        -1.1875715255737305e+00 5.5752880871295929e-02</leafValues></_></weakClassifiers></stage8>
</opencv_storage>
