<?xml version="1.0"?>
<opencv_storage>
<stage4>
  <maxWeakCount>16</maxWeakCount>
  <stageThreshold>-8.0602937936782837e-01</stageThreshold>
  <weakClassifiers>
    <_>
      <internalNodes>
        0 -1 4324 -1 2147483647 -1 -1 2147483647 2147483647 -1
        2147483647</internalNodes>
      <leafValues>
        -8.9148700237274170e-02 7.8188395500183105e-01</leafValues></_>
    <_>
      <internalNodes>
        0 -1 430 -18 -1 -1 -1 -1 -1 -1 1962934263</internalNodes>
      <leafValues>
        -2.9629835486412048e-01 4.2591792345046997e-01</leafValues></_>
    <_>
      <internalNodes>
        0 -1 4320 -1 -1 -1 -1 -1 2147483647 -1 -1</internalNodes>
      <leafValues>
        -1.3370807468891144e-01 5.6549435853958130e-01</leafValues></_>
    <_>
      <internalNodes>
        0 -1 8477 0 217333300 720926304 553432436 611658608 1056800766
        318521188 41842532</internalNodes>
      <leafValues>
        -1.4488303661346436e+00 4.0622986853122711e-02</leafValues></_>
    <_>
      <internalNodes>
        0 -1 5186 -2 -1 -2 -1 -1 -1 -1 -134217729</internalNodes>
      <leafValues>
        -1.1560512334108353e-01 4.8632520437240601e-01</leafValues></_>
    <_>
      <internalNodes>
        0 -1 7921 1311776 472137484 1005332380 99430199 225183684
        1073692670 578105118 53741112</internalNodes>
      <leafValues>
        -2.0685350894927979e+00 3.1135989353060722e-02</leafValues></_>
    <_>
      <internalNodes>
        0 -1 7423 -18 -1 -1 -1 -1 -1 -1 1979711487</internalNodes>
      <leafValues>
        -1.3618530333042145e-01 4.1342183947563171e-01</leafValues></_>
    <_>
      <internalNodes>
        0 -1 9564 7343104 749500270 1073659885 788332542 1870544740
        2147450879 2147383140 1013743476</internalNodes>
      <leafValues>
        -6.9999718666076660e-01 8.9678905904293060e-02</leafValues></_>
    <_>
      <internalNodes>
        0 -1 3649 -291320032 16427824 888942336 572681728 1903638356
        653621093 -1275325692 0</internalNodes>
      <leafValues>
        -2.0840325355529785e+00 4.3244328349828720e-02</leafValues></_>
    <_>
      <internalNodes>
        0 -1 16283 679480320 774905720 1056731004 748952828 1056718181
        1031667061 1861492576 2098032</internalNodes>
      <leafValues>
        -1.3218497037887573e+00 7.0877119898796082e-02</leafValues></_>
    <_>
      <internalNodes>
        0 -1 8385 -18 -1 -18 -1 -1 2013265919 -1 2013265919</internalNodes>
      <leafValues>
        -1.8018256127834320e-01 2.8421455621719360e-01</leafValues></_>
    <_>
      <internalNodes>
        0 -1 2149 699138560 1048386744 805187192 520040296 1014242864
        805273213 796788780 75238944</internalNodes>
      <leafValues>
        -1.4967193603515625e+00 5.7777363806962967e-02</leafValues></_>
    <_>
      <internalNodes>
        0 -1 7063 251408032 1056747262 1073720808 788410302 402603365
        376717303 1073618740 107494389</internalNodes>
      <leafValues>
        -8.8861638307571411e-01 7.5179465115070343e-02</leafValues></_>
    <_>
      <internalNodes>
        0 -1 8980 -2 -1 -2 -16777217 -129 -1 -1 -16777217</internalNodes>
      <leafValues>
        -1.1621378362178802e-01 4.6781972050666809e-01</leafValues></_>
    <_>
      <internalNodes>
        0 -1 14004 512 745940964 1073641636 175787660 771252084
        394100351 938286884 100672880</internalNodes>
      <leafValues>
        -1.3506689071655273e+00 5.6509636342525482e-02</leafValues></_>
    <_>
      <internalNodes>
        0 -1 10446 40373248 14684086 -1359081696 14722592 402605860
        125296629 2004120832 90655852</internalNodes>
      <leafValues>
        -1.4347608089447021e+00 7.2823710739612579e-02</leafValues></_></weakClassifiers></stage4>
</opencv_storage>
