<?xml version="1.0"?>
<opencv_storage>
<stage9>
  <maxWeakCount>29</maxWeakCount>
  <stageThreshold>-1.0793067216873169e+00</stageThreshold>
  <weakClassifiers>
    <_>
      <internalNodes>
        0 -1 3667 2147483646 2147483647 -1 2147483647 2147483647
        2147483647 2147483647 2147483647</internalNodes>
      <leafValues>
        -1.2687569856643677e-01 5.3018122911453247e-01</leafValues></_>
    <_>
      <internalNodes>
        0 -1 3658 -2 -1 -2 -1 -1 -1 -1 1979187199</internalNodes>
      <leafValues>
        -2.5327798724174500e-01 3.1404998898506165e-01</leafValues></_>
    <_>
      <internalNodes>
        0 -1 8334 -16386 2147483647 -1 -1 2147483647 2147483647 -1
        2147483647</internalNodes>
      <leafValues>
        -1.8611854314804077e-01 3.4151431918144226e-01</leafValues></_>
    <_>
      <internalNodes>
        0 -1 7483 -16406 -65537 -1 -1 -1 2147483647 -1 343244790</internalNodes>
      <leafValues>
        -2.1938493847846985e-01 2.5507000088691711e-01</leafValues></_>
    <_>
      <internalNodes>
        0 -1 10156 -1 -1 -1 -1 -1 -1 -1 2147483647</internalNodes>
      <leafValues>
        7.1793645620346069e-02 -6.7152780294418335e-01</leafValues></_>
    <_>
      <internalNodes>
        0 -1 13043 -18 -268435457 -2 -285212673 -129 2147483647 -1
        2013265919</internalNodes>
      <leafValues>
        1.8117980659008026e-01 -2.2595565021038055e-01</leafValues></_>
    <_>
      <internalNodes>
        0 -1 1368 246416896 176037882 788409440 586432364 125045828
        175201262 788466500 68173648</internalNodes>
      <leafValues>
        -1.3151382207870483e+00 6.0823198407888412e-02</leafValues></_>
    <_>
      <internalNodes>
        0 -1 6605 -1 -1 -1 -1 -1 -1 -1 -134217729</internalNodes>
      <leafValues>
        -5.6698676198720932e-02 1.2134910821914673e+00</leafValues></_>
    <_>
      <internalNodes>
        0 -1 9641 -4 -1 -1 -1 -1 -1 -1 268435455</internalNodes>
      <leafValues>
        -1.4369791746139526e-01 2.7021875977516174e-01</leafValues></_>
    <_>
      <internalNodes>
        0 -1 10763 707273728 229256878 804925374 1055534890 1047670696
        796798974 863973128 19408144</internalNodes>
      <leafValues>
        -1.4933111667633057e+00 4.0648300200700760e-02</leafValues></_>
    <_>
      <internalNodes>
        0 -1 10503 1073692671 -1 -1 -1 -1 -1 -1 2147483647</internalNodes>
      <leafValues>
        1.9611644744873047e-01 -2.1062687039375305e-01</leafValues></_>
    <_>
      <internalNodes>
        0 -1 8508 805273470 -1 -1 -1 2147483647 2147483647 -1 -1</internalNodes>
      <leafValues>
        -1.5087176859378815e-01 2.7649629116058350e-01</leafValues></_>
    <_>
      <internalNodes>
        0 -1 14080 537922048 116420130 -1392597472 48541288 1056184608
        1079279462 1425808960 74456576</internalNodes>
      <leafValues>
        -1.1976233720779419e+00 5.2468251436948776e-02</leafValues></_>
    <_>
      <internalNodes>
        0 -1 13923 741344256 782512116 -1342558612 782375676 754192148
        1073102845 1073491892 541590576</internalNodes>
      <leafValues>
        -1.7446500062942505e+00 4.6703282743692398e-02</leafValues></_>
    <_>
      <internalNodes>
        0 -1 8331 -17 -1 -1 -1 -1 2147483647 -1 -1</internalNodes>
      <leafValues>
        -7.6985925436019897e-02 5.5926638841629028e-01</leafValues></_>
    <_>
      <internalNodes>
        0 -1 6319 1114898432 270167224 586952800 547535212 905756000
        40126332 888426560 4260112</internalNodes>
      <leafValues>
        -1.5358824729919434e+00 4.0193676948547363e-02</leafValues></_>
    <_>
      <internalNodes>
        0 -1 11847 -81922 -1 -1 -1 -1 -1 -1 2147483647</internalNodes>
      <leafValues>
        -9.5847330987453461e-02 4.0574547648429871e-01</leafValues></_>
    <_>
      <internalNodes>
        0 -1 10387 -1502698716 552529902 -1359054174 548072174
        1879013188 74973053 369063264 16547700</internalNodes>
      <leafValues>
        -1.1350052356719971e+00 5.0115391612052917e-02</leafValues></_>
    <_>
      <internalNodes>
        0 -1 6009 540026888 677822308 -1073774660 606092988 897328412
        922025845 417627477 1315840</internalNodes>
      <leafValues>
        -9.2353343963623047e-01 6.1704233288764954e-02</leafValues></_>
    <_>
      <internalNodes>
        0 -1 16372 1049376 785915688 520060780 251407844 259280688
        2129475028 897328480 67371588</internalNodes>
      <leafValues>
        -1.3869022130966187e+00 4.9463275820016861e-02</leafValues></_>
    <_>
      <internalNodes>
        0 -1 4260 -1 -1 -1 -1 -1 -1 -1 2147483647</internalNodes>
      <leafValues>
        8.4689959883689880e-02 -6.4702808856964111e-01</leafValues></_>
    <_>
      <internalNodes>
        0 -1 12477 -1 -1 -17 -268435457 -1 -1 -129 1073741823</internalNodes>
      <leafValues>
        -1.2065201252698898e-01 4.1480764746665955e-01</leafValues></_>
    <_>
      <internalNodes>
        0 -1 3780 -2 -1 -2 -1 -1 -1 -1 -134217729</internalNodes>
      <leafValues>
        -1.3950893282890320e-01 3.4975823760032654e-01</leafValues></_>
    <_>
      <internalNodes>
        0 -1 6781 606735360 639663968 1853386658 169889312 123549188
        108691283 787885316 7472384</internalNodes>
      <leafValues>
        -1.6178995370864868e+00 4.5878950506448746e-02</leafValues></_>
    <_>
      <internalNodes>
        0 -1 8915 715663904 673984304 -1073860678 736640816 662447906
        620724221 792342432 305281824</internalNodes>
      <leafValues>
        -1.5218013525009155e+00 5.4131980985403061e-02</leafValues></_>
    <_>
      <internalNodes>
        0 -1 10160 1073692670 -1 -1 -1 -1 -1 -1 1073709055</internalNodes>
      <leafValues>
        1.8566024303436279e-01 -2.4530452489852905e-01</leafValues></_>
    <_>
      <internalNodes>
        0 -1 8688 77605888 -2032107524 2147483644 1034485748 1870527996
        -212996 1055170428 15408</internalNodes>
      <leafValues>
        -8.9132493734359741e-01 5.9702794998884201e-02</leafValues></_>
    <_>
      <internalNodes>
        0 -1 4470 -1 -1 -1 -1 -1 -1 -1 2147483647</internalNodes>
      <leafValues>
        7.5078345835208893e-02 -6.6548085212707520e-01</leafValues></_>
    <_>
      <internalNodes>
        0 -1 2887 452723712 749747838 939408940 620539646 1064771364
        787840887 729615360 660610864</internalNodes>
      <leafValues>
        -1.0623949766159058e+00 5.5863775312900543e-02</leafValues></_></weakClassifiers></stage9>
</opencv_storage>
