<?xml version="1.0"?>
<opencv_storage>
<stage7>
  <maxWeakCount>12</maxWeakCount>
  <stageThreshold>-7.6499611139297485e-01</stageThreshold>
  <weakClassifiers>
    <_>
      <internalNodes>
        0 -1 2807 1533935455 121486719 804626297 -1091043585 1190987391
        890529599 -436497026 2109472604</internalNodes>
      <leafValues>
        -1.7440974712371826e-01 5.8662331104278564e-01</leafValues></_>
    <_>
      <internalNodes>
        0 -1 3658 -570041862 -674836020 -1333241642 -139362069
        -2029068324 -459241420 -2086298737 1413841878</internalNodes>
      <leafValues>
        -4.5189359784126282e-01 3.3762338757514954e-01</leafValues></_>
    <_>
      <internalNodes>
        0 -1 4283 -603982109 1470871533 1958184878 1979611838 1409062067
        1446401839 2147471351 -3410530</internalNodes>
      <leafValues>
        -3.2492861151695251e-01 4.0669095516204834e-01</leafValues></_>
    <_>
      <internalNodes>
        0 -1 10050 -68554477 1054146845 -1794075052 -1737281521
        -1199019744 -199523596 -805253696 -184682290</internalNodes>
      <leafValues>
        -3.8237339258193970e-01 3.6434599757194519e-01</leafValues></_>
    <_>
      <internalNodes>
        0 -1 10588 1003553403 219153425 138478493 1030202688 873343887
        535369873 -1656614734 -1688216902</internalNodes>
      <leafValues>
        -4.4991847872734070e-01 2.8905436396598816e-01</leafValues></_>
    <_>
      <internalNodes>
        0 -1 3570 -1000716429 1264713370 -1879906736 -1519464462
        1425932223 -1172766986 1148669424 -828910091</internalNodes>
      <leafValues>
        -3.2082191109657288e-01 4.0184557437896729e-01</leafValues></_>
    <_>
      <internalNodes>
        0 -1 6698 1077374239 762982198 738011039 2138726960 -445377482
        -1373653122 1820291934 -281820826</internalNodes>
      <leafValues>
        -3.5443624854087830e-01 3.8120734691619873e-01</leafValues></_>
    <_>
      <internalNodes>
        0 -1 5305 -104335806 -1413182967 -1877552606 713054220 701215047
        1611804707 -1037090112 -791250077</internalNodes>
      <leafValues>
        -4.6894922852516174e-01 2.7567321062088013e-01</leafValues></_>
    <_>
      <internalNodes>
        0 -1 5971 1223970617 1073528671 914042725 -1897583129
        -1716853537 -570462343 195100511 865789770</internalNodes>
      <leafValues>
        -3.5371142625808716e-01 3.8797944784164429e-01</leafValues></_>
    <_>
      <internalNodes>
        0 -1 4723 818544647 -7914742 -1991681377 -1662041413 -683049385
        -1226272622 -666653705 -1807643933</internalNodes>
      <leafValues>
        -3.5559332370758057e-01 3.6386644840240479e-01</leafValues></_>
    <_>
      <internalNodes>
        0 -1 11041 -2101704140 1871974913 -1342171881 -149741468
        -1343974700 -1525675822 -729501530 -196815324</internalNodes>
      <leafValues>
        -4.0895915031433105e-01 3.4241724014282227e-01</leafValues></_>
    <_>
      <internalNodes>
        0 -1 10456 -686038014 108250951 -477521657 -1910714283
        1611330381 1470337547 -612126315 -236463197</internalNodes>
      <leafValues>
        -4.1906607151031494e-01 3.2447063922882080e-01</leafValues></_></weakClassifiers></stage7>
</opencv_storage>
