<?xml version="1.0"?>
<opencv_storage>
<stage4>
  <maxWeakCount>11</maxWeakCount>
  <stageThreshold>-1.1534664630889893e+00</stageThreshold>
  <weakClassifiers>
    <_>
      <internalNodes>
        0 -1 6914 1140568574 291028990 1870475253 2145882111 108525307
        895035132 771350527 2147483647</internalNodes>
      <leafValues>
        -2.6649957895278931e-01 5.9629791975021362e-01</leafValues></_>
    <_>
      <internalNodes>
        0 -1 3528 -745016862 -702884925 -1073630857 2111169648
        -661915443 -1182756858 1154302171 1354228467</internalNodes>
      <leafValues>
        -4.6237048506736755e-01 3.8180148601531982e-01</leafValues></_>
    <_>
      <internalNodes>
        0 -1 9560 134545765 925827285 201396334 -572968839 1636711147
        -1442185088 -2105086981 -284227058</internalNodes>
      <leafValues>
        -4.1461649537086487e-01 3.4570804238319397e-01</leafValues></_>
    <_>
      <internalNodes>
        0 -1 3884 -346034172 -748100173 -424679489 -5163744 -1537793776
        -93440459 -281885985 -67396805</internalNodes>
      <leafValues>
        -3.1607672572135925e-01 4.5245137810707092e-01</leafValues></_>
    <_>
      <internalNodes>
        0 -1 11953 -755764224 2097726352 -784174759 -91569724 407618645
        -1475209184 -1035439464 -527371466</internalNodes>
      <leafValues>
        -4.8009932041168213e-01 2.8276509046554565e-01</leafValues></_>
    <_>
      <internalNodes>
        0 -1 6672 2122837522 431147098 1426219131 1398053654 1661966795
        1233697224 1128933040 723421800</internalNodes>
      <leafValues>
        -4.2269423604011536e-01 3.3461478352546692e-01</leafValues></_>
    <_>
      <internalNodes>
        0 -1 8435 -103371096 525467815 319881224 2110588219 289634477
        713105803 243338396 1032798409</internalNodes>
      <leafValues>
        -5.1001346111297607e-01 2.6115012168884277e-01</leafValues></_>
    <_>
      <internalNodes>
        0 -1 7271 -376668971 -1615479697 2146041711 -315554347
        -1892360962 -808518089 1374613355 -5333063</internalNodes>
      <leafValues>
        -2.2737491130828857e-01 6.0681700706481934e-01</leafValues></_>
    <_>
      <internalNodes>
        0 -1 12230 -430258298 39886851 1146405320 -2109099752 1858962514
        -394100543 1084900200 -875916570</internalNodes>
      <leafValues>
        -4.0479522943496704e-01 3.4923690557479858e-01</leafValues></_>
    <_>
      <internalNodes>
        0 -1 5111 -988757326 -1958739694 17827282 -887508037 352911750
        -1993834232 -1542908958 -772292218</internalNodes>
      <leafValues>
        -4.3946805596351624e-01 3.3103325963020325e-01</leafValues></_>
    <_>
      <internalNodes>
        0 -1 9982 -876679751 -1680035890 -1342350435 -1414930530
        -1896414080 -345019048 -998046272 1299178241</internalNodes>
      <leafValues>
        -3.6660808324813843e-01 4.0081003308296204e-01</leafValues></_></weakClassifiers></stage4>
</opencv_storage>
