<?xml version="1.0"?>
<opencv_storage>
<stage11>
  <maxWeakCount>11</maxWeakCount>
  <stageThreshold>-5.5901044607162476e-01</stageThreshold>
  <weakClassifiers>
    <_>
      <internalNodes>
        0 -1 8456 600849789 335508405 511454880 -1124286482 914058239
        1073577468 2004828155 -1074024449</internalNodes>
      <leafValues>
        -3.1923076510429382e-01 5.1286762952804565e-01</leafValues></_>
    <_>
      <internalNodes>
        0 -1 7437 -596132817 -207818827 -286457857 918019518 -50340371
        -1116406145 -20988466 -386352312</internalNodes>
      <leafValues>
        -3.2157301902770996e-01 4.5399466156959534e-01</leafValues></_>
    <_>
      <internalNodes>
        0 -1 6861 -4569 -64557573 -285229545 -420167767 2147181591
        -1356858027 -1233127888 -239077505</internalNodes>
      <leafValues>
        -3.1261983513832092e-01 4.6231713891029358e-01</leafValues></_>
    <_>
      <internalNodes>
        0 -1 5836 1581940735 889763289 196291373 -439574016 1343896557
        2115060267 985796302 -72398402</internalNodes>
      <leafValues>
        -3.4898573160171509e-01 3.8560801744461060e-01</leafValues></_>
    <_>
      <internalNodes>
        0 -1 9772 -535461328 1499383275 -603598563 -322921502 -207577931
        1774258185 -30880616 -1933561757</internalNodes>
      <leafValues>
        -4.3285012245178223e-01 3.0966687202453613e-01</leafValues></_>
    <_>
      <internalNodes>
        0 -1 11472 -1034198225 1089593247 -1810652442 539837103
        2033844494 1728064569 -419112937 -716181881</internalNodes>
      <leafValues>
        -4.2880740761756897e-01 3.3930394053459167e-01</leafValues></_>
    <_>
      <internalNodes>
        0 -1 14547 -1580952817 -280153314 1355421031 1146933586
        1783427963 -205290612 -100943831 799998857</internalNodes>
      <leafValues>
        -3.8164579868316650e-01 3.7317594885826111e-01</leafValues></_>
    <_>
      <internalNodes>
        0 -1 6123 1726384770 1069600833 -667880358 -679834358
        -1061173067 -1174275412 -396760195 1945204480</internalNodes>
      <leafValues>
        -4.3211671710014343e-01 3.3774274587631226e-01</leafValues></_>
    <_>
      <internalNodes>
        0 -1 9563 72562963 85302335 -1158743185 -1645416755 -570493187
        -335642625 -270113283 -1359151867</internalNodes>
      <leafValues>
        -3.6322525143623352e-01 3.9821770787239075e-01</leafValues></_>
    <_>
      <internalNodes>
        0 -1 14035 -2007436775 -749351467 1694741961 1152291332
        312506908 -91730768 781076778 562441730</internalNodes>
      <leafValues>
        -4.5821338891983032e-01 3.2421338558197021e-01</leafValues></_>
    <_>
      <internalNodes>
        0 -1 5426 -30017976 852832591 1074700575 1738224259 1782255884
        610380147 84017710 902790842</internalNodes>
      <leafValues>
        -5.3535395860671997e-01 3.1212610006332397e-01</leafValues></_></weakClassifiers></stage11>
</opencv_storage>
