<?xml version="1.0"?>
<opencv_storage>
<stage7>
  <maxWeakCount>11</maxWeakCount>
  <stageThreshold>-1.0823979377746582e+00</stageThreshold>
  <weakClassifiers>
    <_>
      <internalNodes>
        0 -1 4286 -8397313 1606268607 1065271227 -17436673 1123392923
        536686463 -9044545 -262161</internalNodes>
      <leafValues>
        -7.7825158834457397e-02 6.9402986764907837e-01</leafValues></_>
    <_>
      <internalNodes>
        0 -1 2109 -18894122 -67109897 888372223 -721939 -151522347
        -1157627915 -33554433 -265822481</internalNodes>
      <leafValues>
        -2.7126687765121460e-01 4.8227840662002563e-01</leafValues></_>
    <_>
      <internalNodes>
        0 -1 7175 729749493 2113764973 989538997 -1230000585 1878334975
        1073236863 1815885823 -67117441</internalNodes>
      <leafValues>
        -3.6458864808082581e-01 3.7045094370841980e-01</leafValues></_>
    <_>
      <internalNodes>
        0 -1 6860 -1073233663 537123981 -1039675107 1015323028
        -2030025196 1007370441 957337602 -2088700061</internalNodes>
      <leafValues>
        -4.7252273559570313e-01 2.4114108085632324e-01</leafValues></_>
    <_>
      <internalNodes>
        0 -1 11094 -1605638221 -1558666189 -1547484149 -2061283064
        -896989016 250675526 1097154893 -1964770948</internalNodes>
      <leafValues>
        -3.5875475406646729e-01 3.4715816378593445e-01</leafValues></_>
    <_>
      <internalNodes>
        0 -1 3823 -1128275045 -1116688734 1852731150 -1845449995
        -999397844 -1910743210 -818515186 -295456897</internalNodes>
      <leafValues>
        -3.0335626006126404e-01 4.3615245819091797e-01</leafValues></_>
    <_>
      <internalNodes>
        0 -1 11040 -889732604 270602502 -1836003119 476053770 -256073148
        -1174392780 -234843912 -262888954</internalNodes>
      <leafValues>
        -4.7275826334953308e-01 2.7579441666603088e-01</leafValues></_>
    <_>
      <internalNodes>
        0 -1 7700 -1970631760 -2084335470 -2113892328 -749513372
        155752656 1798443018 -1061616908 -2116728752</internalNodes>
      <leafValues>
        -4.4302356243133545e-01 2.9897069931030273e-01</leafValues></_>
    <_>
      <internalNodes>
        0 -1 7423 -1656067832 2051593028 -786430117 -639901679
        -744887832 -656877522 1776477371 563594787</internalNodes>
      <leafValues>
        -4.2602416872978210e-01 3.0797579884529114e-01</leafValues></_>
    <_>
      <internalNodes>
        0 -1 16119 -749448657 2077430355 1560601295 227332444 -393399999
        1386383393 278506111 504279924</internalNodes>
      <leafValues>
        -4.4946917891502380e-01 2.9179504513740540e-01</leafValues></_>
    <_>
      <internalNodes>
        0 -1 7107 -62582862 197706322 2888733 948688064 805312216
        797520006 50856940 -66105292</internalNodes>
      <leafValues>
        -4.2569711804389954e-01 3.4183633327484131e-01</leafValues></_></weakClassifiers></stage7>
</opencv_storage>
