<?xml version="1.0"?>
<opencv_storage>
<stage9>
  <maxWeakCount>13</maxWeakCount>
  <stageThreshold>-1.0029325485229492e+00</stageThreshold>
  <weakClassifiers>
    <_>
      <internalNodes>
        0 -1 2591 2037714013 1853816831 787300351 2147368943 1576928508
        -16809985 1291218879 -16795649</internalNodes>
      <leafValues>
        -2.4373956024646759e-01 5.3320121765136719e-01</leafValues></_>
    <_>
      <internalNodes>
        0 -1 207 -479222841 -743862632 -1863339075 -705570938 -546977105
        -24461361 -67897397 -725301081</internalNodes>
      <leafValues>
        -3.2058268785476685e-01 4.1185957193374634e-01</leafValues></_>
    <_>
      <internalNodes>
        0 -1 7208 739580851 -369905731 268370911 -41959618 85093786
        -1096814603 -1678839830 -1078795041</internalNodes>
      <leafValues>
        -2.9868519306182861e-01 4.5094209909439087e-01</leafValues></_>
    <_>
      <internalNodes>
        0 -1 6599 -1415082217 791096639 1342071795 185707057 222242449
        -4333637 -1796232163 -1174417762</internalNodes>
      <leafValues>
        -2.7301257848739624e-01 4.5014560222625732e-01</leafValues></_>
    <_>
      <internalNodes>
        0 -1 10480 -205528538 549919496 67129988 1523008898 -237793017
        1074311442 -725028431 -987762365</internalNodes>
      <leafValues>
        -4.2591837048530579e-01 2.7936550974845886e-01</leafValues></_>
    <_>
      <internalNodes>
        0 -1 11953 -262818800 -1089415928 1334109 -618634303 805814800
        -1685372414 -1845301102 -525287838</internalNodes>
      <leafValues>
        -4.1280710697174072e-01 2.9804572463035583e-01</leafValues></_>
    <_>
      <internalNodes>
        0 -1 11696 1673893967 -645033851 -2130273905 628644098
        1512235151 -1149089118 -910053350 1536905313</internalNodes>
      <leafValues>
        -3.6089849472045898e-01 3.4013497829437256e-01</leafValues></_>
    <_>
      <internalNodes>
        0 -1 8732 -1070294414 -1835560824 1224858615 1473272138
        -637361525 -1929083792 1760797923 -398196671</internalNodes>
      <leafValues>
        -3.4398069977760315e-01 3.9382424950599670e-01</leafValues></_>
    <_>
      <internalNodes>
        0 -1 9080 -14944450 -627277052 39026816 -434855742 -1027176407
        1276444675 -783095854 -1002190846</internalNodes>
      <leafValues>
        -4.0607163310050964e-01 3.1960788369178772e-01</leafValues></_>
    <_>
      <internalNodes>
        0 -1 7042 1909564795 418353881 488657041 -1701840333 1661624533
        1302219297 137036114 -1079039806</internalNodes>
      <leafValues>
        -3.9655908942222595e-01 3.3624860644340515e-01</leafValues></_>
    <_>
      <internalNodes>
        0 -1 8960 1493710842 1393536554 1954342640 -1649361232 76944588
        -53652104 -187304749 -1278972548</internalNodes>
      <leafValues>
        -3.3354145288467407e-01 3.7739789485931396e-01</leafValues></_>
    <_>
      <internalNodes>
        0 -1 10890 -1934980295 1559723980 -1912639823 -270520324
        632115140 1324878286 -2341093 -648141857</internalNodes>
      <leafValues>
        -3.2300809025764465e-01 3.9932477474212646e-01</leafValues></_>
    <_>
      <internalNodes>
        0 -1 7135 952871424 383713494 960833630 155332629 1514697636
        319319216 619389921 1868961451</internalNodes>
      <leafValues>
        -5.6409758329391479e-01 2.4976845085620880e-01</leafValues></_></weakClassifiers></stage9>
</opencv_storage>
