<?xml version="1.0"?>
<opencv_storage>
<stage8>
  <maxWeakCount>10</maxWeakCount>
  <stageThreshold>-6.0821980237960815e-01</stageThreshold>
  <weakClassifiers>
    <_>
      <internalNodes>
        0 -1 10456 -1022647774 42385924 67158144 761999 1933591041
        103874560 -266349504 1642329047</internalNodes>
      <leafValues>
        -5.1401871442794800e-01 4.3278944492340088e-01</leafValues></_>
    <_>
      <internalNodes>
        0 -1 8432 -101187841 935260018 -1220596871 -37978061 1744647855
        805076796 -318821955 -9729</internalNodes>
      <leafValues>
        -2.3641550540924072e-01 6.2592661380767822e-01</leafValues></_>
    <_>
      <internalNodes>
        0 -1 12271 -420491669 74100470 788442998 -523583770 1568626375
        1710063485 -1233980082 -403712057</internalNodes>
      <leafValues>
        -3.6059269309043884e-01 3.8451057672500610e-01</leafValues></_>
    <_>
      <internalNodes>
        0 -1 1744 80208851 -794866 -815337633 -202639437 -925121553
        -21233741 -1092305462 -5768205</internalNodes>
      <leafValues>
        -2.3832878470420837e-01 5.9872758388519287e-01</leafValues></_>
    <_>
      <internalNodes>
        0 -1 10500 -137650138 -2021578224 302039810 46637186 263358539
        17072544 -1820196121 -788794641</internalNodes>
      <leafValues>
        -3.6745241284370422e-01 3.6771348118782043e-01</leafValues></_>
    <_>
      <internalNodes>
        0 -1 12825 -16797186 2008526583 -1359054496 -793788754
        -830576896 -75636828 -176241446 -189795697</internalNodes>
      <leafValues>
        -3.1214722990989685e-01 4.6180176734924316e-01</leafValues></_>
    <_>
      <internalNodes>
        0 -1 8460 668741681 26419220 26330163 995774545 -796243546
        706379789 -528019160 -880071445</internalNodes>
      <leafValues>
        -5.3011214733123779e-01 2.5984695553779602e-01</leafValues></_>
    <_>
      <internalNodes>
        0 -1 1904 1749719574 1582539280 621035793 1661080193 673398980
        -880131926 1726837434 531460646</internalNodes>
      <leafValues>
        -5.0079292058944702e-01 2.8081616759300232e-01</leafValues></_>
    <_>
      <internalNodes>
        0 -1 8623 1579353619 2104970767 1878736887 2036723298 -865698338
        -98087020 74647212 -76327902</internalNodes>
      <leafValues>
        -3.2931196689605713e-01 4.4740688800811768e-01</leafValues></_>
    <_>
      <internalNodes>
        0 -1 8575 -818177950 1632386801 659419623 1740743919 -642443286
        -1535223188 456778792 423607479</internalNodes>
      <leafValues>
        -3.6788511276245117e-01 4.1426703333854675e-01</leafValues></_></weakClassifiers></stage8>
</opencv_storage>
