<?xml version="1.0"?>
<opencv_storage>
<stage3>
  <maxWeakCount>7</maxWeakCount>
  <stageThreshold>-6.3429325819015503e-01</stageThreshold>
  <weakClassifiers>
    <_>
      <internalNodes>
        0 -1 4324 1946140607 322961279 795749213 -67125381 1207371199
        511258102 -66 2147481199</internalNodes>
      <leafValues>
        -3.5987508296966553e-01 6.4341086149215698e-01</leafValues></_>
    <_>
      <internalNodes>
        0 -1 2234 -136336401 1900095745 6296066 463178810 -1072724289
        83972867 1360106990 1675358879</internalNodes>
      <leafValues>
        -4.4389012455940247e-01 4.3423500657081604e-01</leafValues></_>
    <_>
      <internalNodes>
        0 -1 4596 35655735 1844154103 733999093 2147483107 1461725469
        2147382777 251575807 -806373697</internalNodes>
      <leafValues>
        -3.8387316465377808e-01 4.3843546509742737e-01</leafValues></_>
    <_>
      <internalNodes>
        0 -1 11472 -95172089 134643788 1681988 1619083490 589947663
        1663043624 -758721674 1927280267</internalNodes>
      <leafValues>
        -5.4519253969192505e-01 3.1456589698791504e-01</leafValues></_>
    <_>
      <internalNodes>
        0 -1 6455 -490026246 -433395520 -1609477968 -187706944
        -1054637637 -2138403511 -754769696 -681052396</internalNodes>
      <leafValues>
        -4.4374454021453857e-01 3.7339469790458679e-01</leafValues></_>
    <_>
      <internalNodes>
        0 -1 7423 -320607994 -963542844 -1190543141 1928577681
        -116877154 -905248702 -2146435365 1628922022</internalNodes>
      <leafValues>
        -4.5434576272964478e-01 3.6106574535369873e-01</leafValues></_>
    <_>
      <internalNodes>
        0 -1 4010 1414771590 1090720786 37810 1696305155 1615501583
        998916232 1145068099 2079310433</internalNodes>
      <leafValues>
        -5.0257837772369385e-01 3.5718166828155518e-01</leafValues></_></weakClassifiers></stage3>
</opencv_storage>
