<?xml version="1.0"?>
<opencv_storage>
<stage15>
  <maxWeakCount>15</maxWeakCount>
  <stageThreshold>-1.1329480409622192e+00</stageThreshold>
  <weakClassifiers>
    <_>
      <internalNodes>
        0 -1 113986 -1015188219 2012737303 2012491597 -1016072473
        -939524180 -721944753 -295174278 1724888582</internalNodes>
      <leafValues>
        -1.1796981841325760e-01 5.5641591548919678e-01</leafValues></_>
    <_>
      <internalNodes>
        0 -1 171572 -10621449 1473489837 2138533396 -570429445
        1340078011 1864183675 -1350567969 -20989957</internalNodes>
      <leafValues>
        -2.3170340061187744e-01 5.1008087396621704e-01</leafValues></_>
    <_>
      <internalNodes>
        0 -1 424306 -319828641 -203183157 -590091 985593467 -147900
        -449380404 -671160626 -252182578</internalNodes>
      <leafValues>
        -2.6859524846076965e-01 4.3489551544189453e-01</leafValues></_>
    <_>
      <internalNodes>
        0 -1 531990 1903525365 1542799291 795896621 -1418904579
        -1665226307 -207254210 1206758523 -1074182198</internalNodes>
      <leafValues>
        -2.3656710982322693e-01 5.3939837217330933e-01</leafValues></_>
    <_>
      <internalNodes>
        0 -1 268071 1602923254 286801972 134290768 671155203 1225339625
        949110855 -1610007862 1204786155</internalNodes>
      <leafValues>
        -4.2626309394836426e-01 2.9729843139648438e-01</leafValues></_>
    <_>
      <internalNodes>
        0 -1 260924 -913075793 1238466966 -1051471238 1825891336
        -636509506 -1910290143 -373266276 -993595002</internalNodes>
      <leafValues>
        -3.1345200538635254e-01 4.0062913298606873e-01</leafValues></_>
    <_>
      <internalNodes>
        0 -1 419512 1093480975 1572884739 420148103 -983833838 664515237
        2145928323 -427500949 1154966279</internalNodes>
      <leafValues>
        -3.7772127985954285e-01 3.3478435873985291e-01</leafValues></_>
    <_>
      <internalNodes>
        0 -1 437025 -1649414153 -1233846348 1795063549 -152162732
        -579451515 -25198601 -1493213512 -533205408</internalNodes>
      <leafValues>
        -3.4480476379394531e-01 3.8659411668777466e-01</leafValues></_>
    <_>
      <internalNodes>
        0 -1 322930 -525736416 1561654055 -1023409957 949703878
        -907939127 -240910261 -1304696661 69335438</internalNodes>
      <leafValues>
        -4.3325844407081604e-01 3.0840626358985901e-01</leafValues></_>
    <_>
      <internalNodes>
        0 -1 327078 -1279286731 679257639 1004699450 -1946174637
        -281408361 -1107386370 -1326052307 -537941645</internalNodes>
      <leafValues>
        -3.2260158658027649e-01 4.3312191963195801e-01</leafValues></_>
    <_>
      <internalNodes>
        0 -1 391683 -168821281 1140784935 -268996756 -1426854673
        1845446407 1658290045 -704674620 -1057624210</internalNodes>
      <leafValues>
        -3.2201004028320313e-01 4.3174970149993896e-01</leafValues></_>
    <_>
      <internalNodes>
        0 -1 175061 113209499 -1116639317 1056779765 -1694515530
        535961534 -1074041230 972033215 -1879143297</internalNodes>
      <leafValues>
        -2.8787869215011597e-01 4.7306206822395325e-01</leafValues></_>
    <_>
      <internalNodes>
        0 -1 33004 -348173249 -1181684665 -2146782 -1604135250 -10541684
        1063583527 -277454774 -720902433</internalNodes>
      <leafValues>
        -3.3775761723518372e-01 4.2043426632881165e-01</leafValues></_>
    <_>
      <internalNodes>
        0 -1 304609 1318003261 2002763426 -1347539397 2037067239
        782909062 -1137295810 338644676 1484719658</internalNodes>
      <leafValues>
        -3.5438778996467590e-01 4.0655654668807983e-01</leafValues></_>
    <_>
      <internalNodes>
        0 -1 362092 -1010621696 16794417 16849090 2063791682 -460809281
        1632649216 -624867065 1963452363</internalNodes>
      <leafValues>
        -4.4097718596458435e-01 3.3060199022293091e-01</leafValues></_></weakClassifiers></stage15>
</opencv_storage>
