<?xml version="1.0"?>
<opencv_storage>
<stage8>
  <maxWeakCount>12</maxWeakCount>
  <stageThreshold>-7.6227009296417236e-01</stageThreshold>
  <weakClassifiers>
    <_>
      <internalNodes>
        0 -1 62926 459617279 1408204479 -1887813635 2076145215 90466559
        1073299453 -302571521 -4718601</internalNodes>
      <leafValues>
        -2.3652048408985138e-01 6.2026667594909668e-01</leafValues></_>
    <_>
      <internalNodes>
        0 -1 412369 -486617409 -159404299 -620762670 -526079254
        -906494652 -1124663340 -16794428 -524812297</internalNodes>
      <leafValues>
        -3.6114850640296936e-01 4.1072082519531250e-01</leafValues></_>
    <_>
      <internalNodes>
        0 -1 538067 -1039810561 -11041 2004842409 -819912435 -1758765057
        -1079298057 -1659585473 1528497551</internalNodes>
      <leafValues>
        -2.7223083376884460e-01 5.4961854219436646e-01</leafValues></_>
    <_>
      <internalNodes>
        0 -1 406604 72616721 -1256202623 -578698665 -1085187715 555417
        -1649737716 -1825723521 -1379112312</internalNodes>
      <leafValues>
        -4.3628957867622375e-01 3.5737839341163635e-01</leafValues></_>
    <_>
      <internalNodes>
        0 -1 144043 -340275401 1057599414 -8573272 16957110 1828540171
        1017413430 -1384157937 -282606721</internalNodes>
      <leafValues>
        -3.2432714104652405e-01 4.5816734433174133e-01</leafValues></_>
    <_>
      <internalNodes>
        0 -1 223592 -25 1869279214 -1090605728 -186452014 -679659586
        -290455561 -8552457 -721953376</internalNodes>
      <leafValues>
        -3.5161533951759338e-01 4.3207302689552307e-01</leafValues></_>
    <_>
      <internalNodes>
        0 -1 392320 478142463 930801598 784183096 525615024 805238702
        668344308 1069279163 -1107313154</internalNodes>
      <leafValues>
        -3.4044092893600464e-01 4.7091895341873169e-01</leafValues></_>
    <_>
      <internalNodes>
        0 -1 267009 1268704906 313222086 -1810347766 -966926190
        1998181003 2392576 1782728714 1642457803</internalNodes>
      <leafValues>
        -5.4583865404129028e-01 2.9447501897811890e-01</leafValues></_>
    <_>
      <internalNodes>
        0 -1 255715 -914386282 -242069482 -981106531 -1319634673
        1376609192 1250067843 554752475 1344795303</internalNodes>
      <leafValues>
        -4.2973774671554565e-01 3.9340969920158386e-01</leafValues></_>
    <_>
      <internalNodes>
        0 -1 407351 1095723591 1125585011 -989539927 788873812
        -500440117 -39613929 -1736382173 1615784705</internalNodes>
      <leafValues>
        -5.0229769945144653e-01 3.3915409445762634e-01</leafValues></_>
    <_>
      <internalNodes>
        0 -1 398585 650380369 -1868795630 4221303 1590694144 -657825194
        -637369160 -787985508 -595568300</internalNodes>
      <leafValues>
        -4.8657080531120300e-01 3.5245653986930847e-01</leafValues></_>
    <_>
      <internalNodes>
        0 -1 302988 148379493 400447711 864492509 335970941 981992925
        -360611623 698761325 -1354215568</internalNodes>
      <leafValues>
        -5.2031701803207397e-01 3.2308658957481384e-01</leafValues></_></weakClassifiers></stage8>
</opencv_storage>
