<?xml version="1.0"?>
<opencv_storage>
<stage14>
  <maxWeakCount>14</maxWeakCount>
  <stageThreshold>-8.0653125047683716e-01</stageThreshold>
  <weakClassifiers>
    <_>
      <internalNodes>
        0 -1 484874 1215131399 1463123770 1769930725 -481985053
        -411570705 1224736639 745910127 1624220672</internalNodes>
      <leafValues>
        -1.8377482891082764e-01 5.1311951875686646e-01</leafValues></_>
    <_>
      <internalNodes>
        0 -1 318215 2143158175 1065193243 -1417691369 -1280319565
        1073725435 1325170472 -277922370 -268444689</internalNodes>
      <leafValues>
        -2.3988147079944611e-01 5.0831413269042969e-01</leafValues></_>
    <_>
      <internalNodes>
        0 -1 448349 -187771758 1221169727 402770173 -863703592
        -1140146176 -612003199 -189863700 -462356652</internalNodes>
      <leafValues>
        -4.0316265821456909e-01 3.1725373864173889e-01</leafValues></_>
    <_>
      <internalNodes>
        0 -1 259760 -1017724301 1085571362 1631699552 -189132568
        -803653473 1101955075 -92147360 -995864092</internalNodes>
      <leafValues>
        -4.5025563240051270e-01 2.8284731507301331e-01</leafValues></_>
    <_>
      <internalNodes>
        0 -1 46996 1715784081 -45781603 -268444339 -1955157521
        -1370731082 -304137231 -1821066631 2058947887</internalNodes>
      <leafValues>
        -3.3730900287628174e-01 4.1867500543594360e-01</leafValues></_>
    <_>
      <internalNodes>
        0 -1 260648 -306189537 -601674198 -822088854 -826097746
        -1879098162 -1896513552 1140168390 -1057563274</internalNodes>
      <leafValues>
        -3.2805040478706360e-01 3.8959208130836487e-01</leafValues></_>
    <_>
      <internalNodes>
        0 -1 305829 1174595616 391205141 -787082096 857948919 -402398069
        1523495696 -1162589554 11462998</internalNodes>
      <leafValues>
        -4.9155136942863464e-01 2.7404421567916870e-01</leafValues></_>
    <_>
      <internalNodes>
        0 -1 206597 -524816833 891659055 795602295 -1117618310
        -192993478 -1343006913 -159463427 -295197113</internalNodes>
      <leafValues>
        -2.7012068033218384e-01 4.9037447571754456e-01</leafValues></_>
    <_>
      <internalNodes>
        0 -1 269264 -613069957 1035598899 2063515391 866140082
        1591041776 -1208164874 -134914871 -2343004</internalNodes>
      <leafValues>
        -2.9186508059501648e-01 4.6699708700180054e-01</leafValues></_>
    <_>
      <internalNodes>
        0 -1 391113 -375134610 5694797 -2139029171 1086739789 1107345424
        1127580682 -620621488 -506074967</internalNodes>
      <leafValues>
        -4.8742857575416565e-01 3.0964672565460205e-01</leafValues></_>
    <_>
      <internalNodes>
        0 -1 157638 51841326 -162775020 84694239 -468282747 -1954446738
        -1105425368 -1876849330 -2143179904</internalNodes>
      <leafValues>
        -5.6343990564346313e-01 2.4915115535259247e-01</leafValues></_>
    <_>
      <internalNodes>
        0 -1 194588 77213657 1532004051 143139704 1069814670 405473736
        713164802 587884796 -343200870</internalNodes>
      <leafValues>
        -4.6952739357948303e-01 2.9569149017333984e-01</leafValues></_>
    <_>
      <internalNodes>
        0 -1 379977 410048823 -658608586 1605894125 -336884056
        1451097881 -402790417 -1477137286 2052056352</internalNodes>
      <leafValues>
        -3.3328697085380554e-01 4.5353862643241882e-01</leafValues></_>
    <_>
      <internalNodes>
        0 -1 425424 -741347537 2002767953 1375813938 -1068906349
        1196608065 -749862878 2047048208 -263985086</internalNodes>
      <leafValues>
        -3.7842673063278198e-01 3.9723634719848633e-01</leafValues></_></weakClassifiers></stage14>
</opencv_storage>
