<?xml version="1.0"?>
<opencv_storage>
<stage9>
  <maxWeakCount>12</maxWeakCount>
  <stageThreshold>-9.8630547523498535e-01</stageThreshold>
  <weakClassifiers>
    <_>
      <internalNodes>
        0 -1 525915 1682906967 -25172621 1342169063 1340996911
        1224208207 -302129179 1157064303 1726479715</internalNodes>
      <leafValues>
        -1.7010676860809326e-01 5.7657176256179810e-01</leafValues></_>
    <_>
      <internalNodes>
        0 -1 250614 1867857919 826113775 -1971704071 -1077983051
        1609907387 787774717 1879002751 -32773</internalNodes>
      <leafValues>
        -3.5669183731079102e-01 4.4427940249443054e-01</leafValues></_>
    <_>
      <internalNodes>
        0 -1 137285 -184614258 -691046778 319495519 -511852017
        -167138327 -695332800 -2012487329 1925169843</internalNodes>
      <leafValues>
        -4.6990120410919189e-01 3.5450962185859680e-01</leafValues></_>
    <_>
      <internalNodes>
        0 -1 260049 -115363017 113329102 1888524246 -728837838
        1076683725 -557067234 -236731788 -1057687712</internalNodes>
      <leafValues>
        -4.3890273571014404e-01 3.6425229907035828e-01</leafValues></_>
    <_>
      <internalNodes>
        0 -1 348664 -673198322 1174205422 -1994799546 1649761273
        1385952006 806420525 -1444886714 -416306453</internalNodes>
      <leafValues>
        -4.7705376148223877e-01 3.4253475069999695e-01</leafValues></_>
    <_>
      <internalNodes>
        0 -1 369290 -393808523 2064732979 -1533715709 1918284882
        -391992767 -801730511 -384922908 -392102880</internalNodes>
      <leafValues>
        -3.8006615638732910e-01 4.3209394812583923e-01</leafValues></_>
    <_>
      <internalNodes>
        0 -1 503115 576075375 1929904701 -1609322233 -423374572
        159693357 -912293758 1723894552 1716044292</internalNodes>
      <leafValues>
        -5.6309998035430908e-01 2.8337058424949646e-01</leafValues></_>
    <_>
      <internalNodes>
        0 -1 416385 -925527001 76042981 -497315693 672580458 -98998228
        944550411 -577814127 -1059603151</internalNodes>
      <leafValues>
        -4.2125231027603149e-01 4.0345963835716248e-01</leafValues></_>
    <_>
      <internalNodes>
        0 -1 258084 -254617308 -170323307 828133557 -41651245 1385332978
        -1182263133 -1222604692 -1598240017</internalNodes>
      <leafValues>
        -4.2512783408164978e-01 3.9499303698539734e-01</leafValues></_>
    <_>
      <internalNodes>
        0 -1 319532 572267510 754061363 -250554119 -1971833700 407443565
        1905340480 -335402383 -84146780</internalNodes>
      <leafValues>
        -5.5654156208038330e-01 3.1065553426742554e-01</leafValues></_>
    <_>
      <internalNodes>
        0 -1 423880 -666676129 609862421 -1458969238 -1204891506
        -494518271 -888143285 -1567833992 -229483694</internalNodes>
      <leafValues>
        -4.6150675415992737e-01 3.8443902134895325e-01</leafValues></_>
    <_>
      <internalNodes>
        0 -1 92705 1459568431 2097102407 -268521553 1634723605
        -1552306329 1585282935 -176816337 -868767993</internalNodes>
      <leafValues>
        -3.1965610384941101e-01 5.3179293870925903e-01</leafValues></_></weakClassifiers></stage9>
</opencv_storage>
