<?xml version="1.0"?>
<opencv_storage>
<stage1>
  <maxWeakCount>6</maxWeakCount>
  <stageThreshold>-1.2960246801376343e+00</stageThreshold>
  <weakClassifiers>
    <_>
      <internalNodes>
        0 -1 145818 490540991 460299071 284758119 1071611487 389753855
        84478027 45973499 2145386495</internalNodes>
      <leafValues>
        -5.9210526943206787e-01 7.5804877281188965e-01</leafValues></_>
    <_>
      <internalNodes>
        0 -1 72113 -212344150 -241987450 151367707 996478987 1209201594
        -622647290 -996994277 325268203</internalNodes>
      <leafValues>
        -5.2435421943664551e-01 5.3459894657135010e-01</leafValues></_>
    <_>
      <internalNodes>
        0 -1 108202 620443455 701171847 -1056956052 836698439 677053093
        504119452 206254699 -4196865</internalNodes>
      <leafValues>
        -5.2795928716659546e-01 5.5333769321441650e-01</leafValues></_>
    <_>
      <internalNodes>
        0 -1 260048 -242225193 1745394266 -1043970927 -128941436
        413868356 -1434275678 -2138918156 -991631008</internalNodes>
      <leafValues>
        -5.2319037914276123e-01 4.9072661995887756e-01</leafValues></_>
    <_>
      <internalNodes>
        0 -1 353850 -1330640843 -2077550203 -515798087 -594804578
        1776820418 -1172264832 -1696595816 -2003301888</internalNodes>
      <leafValues>
        -5.7388263940811157e-01 4.5912653207778931e-01</leafValues></_>
    <_>
      <internalNodes>
        0 -1 407613 109717640 1876033836 159453200 -1630306233 12980359
        160252186 524426 2135897863</internalNodes>
      <leafValues>
        -6.2740308046340942e-01 4.0110102295875549e-01</leafValues></_></weakClassifiers></stage1>
</opencv_storage>
