<?xml version="1.0"?>
<opencv_storage>
<stage12>
  <maxWeakCount>12</maxWeakCount>
  <stageThreshold>-7.9366290569305420e-01</stageThreshold>
  <weakClassifiers>
    <_>
      <internalNodes>
        0 -1 32542 -1049127814 -268435714 2146841599 -33574278 -8390661
        -84872966 1744322555 1934323931</internalNodes>
      <leafValues>
        -2.6989936828613281e-01 4.5709827542304993e-01</leafValues></_>
    <_>
      <internalNodes>
        0 -1 31643 -149729315 2147290677 536809337 -78105 1040001023
        639721325 -1079173314 -268748865</internalNodes>
      <leafValues>
        -3.0392840504646301e-01 4.2164146900177002e-01</leafValues></_>
    <_>
      <internalNodes>
        0 -1 49055 240962879 -48075209 1592753645 -814781660 -1227006725
        -3507339 1333186175 1605506499</internalNodes>
      <leafValues>
        -2.7981185913085938e-01 4.8828116059303284e-01</leafValues></_>
    <_>
      <internalNodes>
        0 -1 64687 -1440707024 -1300459245 278255637 -107724480
        -1589537888 -644312576 -6131784 -1874575275</internalNodes>
      <leafValues>
        -5.0233644247055054e-01 2.5077542662620544e-01</leafValues></_>
    <_>
      <internalNodes>
        0 -1 82064 -444683273 716343159 -1074041226 703585318 1340411133
        -1888931969 -329505128 -76026785</internalNodes>
      <leafValues>
        -2.9176360368728638e-01 4.4586148858070374e-01</leafValues></_>
    <_>
      <internalNodes>
        0 -1 40689 -804023813 -273649401 268750978 4891910 1199720902
        -2011100951 -1669291098 1078453623</internalNodes>
      <leafValues>
        -4.4384923577308655e-01 3.1210139393806458e-01</leafValues></_>
    <_>
      <internalNodes>
        0 -1 78288 -218112267 -256136317 -1806691460 -225025676
        -1466980790 -2139127804 982296208 -263132172</internalNodes>
      <leafValues>
        -4.1479644179344177e-01 3.3220845460891724e-01</leafValues></_>
    <_>
      <internalNodes>
        0 -1 68014 -440165378 1026858113 301991132 -1358577510
        -125541249 985683097 -1686028840 1065999023</internalNodes>
      <leafValues>
        -3.7072905898094177e-01 3.7247353792190552e-01</leafValues></_>
    <_>
      <internalNodes>
        0 -1 29220 1736885026 1742194054 1141129545 67318074 597050752
        1854136905 1744832666 1862409238</internalNodes>
      <leafValues>
        -6.1447608470916748e-01 2.2189369797706604e-01</leafValues></_>
    <_>
      <internalNodes>
        0 -1 72562 -200718179 488194574 319847535 93421584 1535648264
        -1283454840 1233132810 194642442</internalNodes>
      <leafValues>
        -3.7727797031402588e-01 4.0586081147193909e-01</leafValues></_>
    <_>
      <internalNodes>
        0 -1 50896 -1214055632 1294338 -2147450856 -75392662 697647292
        -1669332464 -1337863779 -457841868</internalNodes>
      <leafValues>
        -3.9171656966209412e-01 3.8008365035057068e-01</leafValues></_>
    <_>
      <internalNodes>
        0 -1 73417 -373366441 -1774256393 -1091010662 795535302
        -1241897017 1438580221 -1371572280 -1561333949</internalNodes>
      <leafValues>
        -2.8781819343566895e-01 4.9519410729408264e-01</leafValues></_></weakClassifiers></stage12>
</opencv_storage>
