<?xml version="1.0"?>
<opencv_storage>
<stage8>
  <maxWeakCount>42</maxWeakCount>
  <stageThreshold>-9.1567981243133545e-01</stageThreshold>
  <weakClassifiers>
    <_>
      <internalNodes>
        0 -1 48854 -1.0553978383541107e-01</internalNodes>
      <leafValues>
        6.2607449293136597e-01 5.2083334885537624e-03</leafValues></_>
    <_>
      <internalNodes>
        0 -1 156786 1.0760780423879623e-02</internalNodes>
      <leafValues>
        -2.7626663446426392e-01 2.5938361883163452e-01</leafValues></_>
    <_>
      <internalNodes>
        0 -1 136743 -1.0872775316238403e-01</internalNodes>
      <leafValues>
        3.5689824819564819e-01 -1.6058713197708130e-01</leafValues></_>
    <_>
      <internalNodes>
        0 -1 12529 6.4840242266654968e-02</internalNodes>
      <leafValues>
        -1.1820037662982941e-01 5.1170408725738525e-01</leafValues></_>
    <_>
      <internalNodes>
        0 -1 134883 9.1471672058105469e-03</internalNodes>
      <leafValues>
        9.2927135527133942e-02 -4.7084197402000427e-01</leafValues></_>
    <_>
      <internalNodes>
        0 -1 231245 1.3410842511802912e-03</internalNodes>
      <leafValues>
        -1.6197650134563446e-01 2.6152846217155457e-01</leafValues></_>
    <_>
      <internalNodes>
        0 -1 177048 -3.8970343302935362e-03</internalNodes>
      <leafValues>
        4.5818644762039185e-01 -1.1072196811437607e-01</leafValues></_>
    <_>
      <internalNodes>
        0 -1 175376 4.7240802086889744e-03</internalNodes>
      <leafValues>
        -1.2773036956787109e-01 4.0494477748870850e-01</leafValues></_>
    <_>
      <internalNodes>
        0 -1 221070 -1.7467755824327469e-03</internalNodes>
      <leafValues>
        2.8927060961723328e-01 -1.2068998068571091e-01</leafValues></_>
    <_>
      <internalNodes>
        0 -1 121863 -4.4513703323900700e-04</internalNodes>
      <leafValues>
        1.6742217540740967e-01 -2.1986514329910278e-01</leafValues></_>
    <_>
      <internalNodes>
        0 -1 119414 1.9066618988290429e-03</internalNodes>
      <leafValues>
        -1.0162422806024551e-01 4.1703030467033386e-01</leafValues></_>
    <_>
      <internalNodes>
        0 -1 6425 6.2270745635032654e-02</internalNodes>
      <leafValues>
        -1.8485692143440247e-01 2.1690014004707336e-01</leafValues></_>
    <_>
      <internalNodes>
        0 -1 12494 -1.4631472527980804e-02</internalNodes>
      <leafValues>
        4.9362817406654358e-01 -8.4693588316440582e-02</leafValues></_>
    <_>
      <internalNodes>
        0 -1 163065 -1.6354495659470558e-02</internalNodes>
      <leafValues>
        3.2351940870285034e-01 -1.0640867799520493e-01</leafValues></_>
    <_>
      <internalNodes>
        0 -1 169576 2.3540086112916470e-03</internalNodes>
      <leafValues>
        7.7775053679943085e-02 -5.2216672897338867e-01</leafValues></_>
    <_>
      <internalNodes>
        0 -1 129318 3.3355585765093565e-03</internalNodes>
      <leafValues>
        -1.3641849160194397e-01 2.6172310113906860e-01</leafValues></_>
    <_>
      <internalNodes>
        0 -1 249526 2.4099305272102356e-02</internalNodes>
      <leafValues>
        -7.7038839459419250e-02 4.4631251692771912e-01</leafValues></_>
    <_>
      <internalNodes>
        0 -1 58626 5.0621561240404844e-04</internalNodes>
      <leafValues>
        1.0784807801246643e-01 -3.3421978354454041e-01</leafValues></_>
    <_>
      <internalNodes>
        0 -1 143228 -4.8543253797106445e-04</internalNodes>
      <leafValues>
        3.3202329277992249e-01 -1.0397511720657349e-01</leafValues></_>
    <_>
      <internalNodes>
        0 -1 142286 8.3264720160514116e-04</internalNodes>
      <leafValues>
        -1.3390462100505829e-01 2.7539756894111633e-01</leafValues></_>
    <_>
      <internalNodes>
        0 -1 24017 2.1348046138882637e-02</internalNodes>
      <leafValues>
        6.8806022405624390e-02 -5.6955212354660034e-01</leafValues></_>
    <_>
      <internalNodes>
        0 -1 198637 -4.6182557707652450e-04</internalNodes>
      <leafValues>
        -3.0344763398170471e-01 1.0115198791027069e-01</leafValues></_>
    <_>
      <internalNodes>
        0 -1 216260 3.5188463516533375e-04</internalNodes>
      <leafValues>
        -2.1805988252162933e-01 1.5136137604713440e-01</leafValues></_>
    <_>
      <internalNodes>
        0 -1 175627 -2.4129878729581833e-03</internalNodes>
      <leafValues>
        -5.6810855865478516e-01 5.5641870945692062e-02</leafValues></_>
    <_>
      <internalNodes>
        0 -1 96242 -5.3257256746292114e-02</internalNodes>
      <leafValues>
        -8.3246326446533203e-01 3.5512667149305344e-02</leafValues></_>
    <_>
      <internalNodes>
        0 -1 182531 9.5592974685132504e-04</internalNodes>
      <leafValues>
        -1.3068874180316925e-01 2.5871205329895020e-01</leafValues></_>
    <_>
      <internalNodes>
        0 -1 182531 -5.6966452393680811e-04</internalNodes>
      <leafValues>
        3.0379778146743774e-01 -1.4730913937091827e-01</leafValues></_>
    <_>
      <internalNodes>
        0 -1 207781 -2.3257074644789100e-05</internalNodes>
      <leafValues>
        1.5521910786628723e-01 -2.0677161216735840e-01</leafValues></_>
    <_>
      <internalNodes>
        0 -1 252461 3.8874953985214233e-02</internalNodes>
      <leafValues>
        -1.2876673042774200e-01 2.6101055741310120e-01</leafValues></_>
    <_>
      <internalNodes>
        0 -1 216512 -1.6677272506058216e-03</internalNodes>
      <leafValues>
        -2.5512138009071350e-01 1.3190723955631256e-01</leafValues></_>
    <_>
      <internalNodes>
        0 -1 215055 1.5136001165956259e-03</internalNodes>
      <leafValues>
        -9.0297974646091461e-02 3.6065247654914856e-01</leafValues></_>
    <_>
      <internalNodes>
        0 -1 214714 -8.5392768960446119e-04</internalNodes>
      <leafValues>
        3.0571198463439941e-01 -1.2154179811477661e-01</leafValues></_>
    <_>
      <internalNodes>
        0 -1 207254 7.7812120318412781e-02</internalNodes>
      <leafValues>
        -6.2942735850811005e-02 4.8048418760299683e-01</leafValues></_>
    <_>
      <internalNodes>
        0 -1 233869 -1.0197360813617706e-01</internalNodes>
      <leafValues>
        1.8827857077121735e-01 -1.7805048823356628e-01</leafValues></_>
    <_>
      <internalNodes>
        0 -1 235372 5.1319319754838943e-03</internalNodes>
      <leafValues>
        -8.4818847477436066e-02 3.8295435905456543e-01</leafValues></_>
    <_>
      <internalNodes>
        0 -1 184139 -8.6640228983014822e-04</internalNodes>
      <leafValues>
        2.3499916493892670e-01 -1.4661748707294464e-01</leafValues></_>
    <_>
      <internalNodes>
        0 -1 141325 -1.6603139229118824e-03</internalNodes>
      <leafValues>
        3.2081437110900879e-01 -9.0606175363063812e-02</leafValues></_>
    <_>
      <internalNodes>
        0 -1 229998 1.0173707269132137e-03</internalNodes>
      <leafValues>
        7.9867720603942871e-02 -3.6067554354667664e-01</leafValues></_>
    <_>
      <internalNodes>
        0 -1 192613 -1.1480851753731258e-05</internalNodes>
      <leafValues>
        1.5598942339420319e-01 -1.9302515685558319e-01</leafValues></_>
    <_>
      <internalNodes>
        0 -1 144141 -1.4067087322473526e-03</internalNodes>
      <leafValues>
        6.1993795633316040e-01 -4.8980768769979477e-02</leafValues></_>
    <_>
      <internalNodes>
        0 -1 99916 1.8586078658699989e-02</internalNodes>
      <leafValues>
        -1.1580516397953033e-01 2.6573550701141357e-01</leafValues></_>
    <_>
      <internalNodes>
        0 -1 133117 1.2069073272868991e-03</internalNodes>
      <leafValues>
        -1.5212617814540863e-01 2.1550101041793823e-01</leafValues></_></weakClassifiers></stage8>
</opencv_storage>
