<?xml version="1.0"?>
<opencv_storage>
<stage5>
  <maxWeakCount>23</maxWeakCount>
  <stageThreshold>-1.1023765802383423e+00</stageThreshold>
  <weakClassifiers>
    <_>
      <internalNodes>
        0 -1 10466 -1073758209 1073741823 -1 -1073741825 -1 2147483647
        -1 -1</internalNodes>
      <leafValues>
        5.5150922387838364e-02 7.5495415925979614e-01</leafValues></_>
    <_>
      <internalNodes>
        0 -1 3647 -65538 -1 -1 -1 -1 -1 -1 -134742025</internalNodes>
      <leafValues>
        -1.8570174276828766e-01 5.5236691236495972e-01</leafValues></_>
    <_>
      <internalNodes>
        0 -1 4320 -1 -1 -1 -1 -1 2147483647 -1 -1</internalNodes>
      <leafValues>
        -1.7770250141620636e-01 4.7850528359413147e-01</leafValues></_>
    <_>
      <internalNodes>
        0 -1 5235 -2 -1 -2 -1 -1 -1 -1 -134217729</internalNodes>
      <leafValues>
        -1.2806683778762817e-01 4.0141710638999939e-01</leafValues></_>
    <_>
      <internalNodes>
        0 -1 14298 3407888 804273620 1056452588 763117480 532428148
        1073643511 1060909028 1017122096</internalNodes>
      <leafValues>
        -1.7016830444335938e+00 5.8542270213365555e-02</leafValues></_>
    <_>
      <internalNodes>
        0 -1 10503 136840192 687357289 804011704 842674164 905189212
        234693948 888942448 70325600</internalNodes>
      <leafValues>
        -2.3717663288116455e+00 6.4196273684501648e-02</leafValues></_>
    <_>
      <internalNodes>
        0 -1 7483 -268505558 -1073807361 -1 -1 -3 2147483647 -1
        343244790</internalNodes>
      <leafValues>
        -2.1816129982471466e-01 2.2668845951557159e-01</leafValues></_>
    <_>
      <internalNodes>
        0 -1 9220 -1 -1 -1 -1 -1 -1 -1 2147483647</internalNodes>
      <leafValues>
        7.4614383280277252e-02 -6.4591836929321289e-01</leafValues></_>
    <_>
      <internalNodes>
        0 -1 11584 -2111829504 551972458 -1494323648 6336162 1425936164
        1198905207 1719093012 74723188</internalNodes>
      <leafValues>
        -1.4089813232421875e+00 5.2790779620409012e-02</leafValues></_>
    <_>
      <internalNodes>
        0 -1 16242 775160880 1056714620 2147368958 1065238004 1073496061
        2147254207 805257076 1048057204</internalNodes>
      <leafValues>
        -7.6007574796676636e-01 8.7914608418941498e-02</leafValues></_>
    <_>
      <internalNodes>
        0 -1 9641 -4 -1 -1 -1 -1 -1 -1 268435455</internalNodes>
      <leafValues>
        -1.6999834775924683e-01 3.1134665012359619e-01</leafValues></_>
    <_>
      <internalNodes>
        0 -1 9728 136315904 1068515196 -65684 1844723684 636767572
        1056849380 1593069004 7168</internalNodes>
      <leafValues>
        -1.1705996990203857e+00 5.8656051754951477e-02</leafValues></_>
    <_>
      <internalNodes>
        0 -1 8120 -1 -1 -1 -1 -1 -1 -1 2147483647</internalNodes>
      <leafValues>
        9.7301632165908813e-02 -5.8881026506423950e-01</leafValues></_>
    <_>
      <internalNodes>
        0 -1 7108 3673184 633093884 1039544172 788405886 125056628
        1065189247 213261828 616051812</internalNodes>
      <leafValues>
        -1.2137495279312134e+00 6.1398893594741821e-02</leafValues></_>
    <_>
      <internalNodes>
        0 -1 8434 -1494343168 40681454 -1461313014 539421290 1457337668
        7763828 1173754628 7616372</internalNodes>
      <leafValues>
        -2.0435853004455566e+00 4.6891193836927414e-02</leafValues></_>
    <_>
      <internalNodes>
        0 -1 8451 -1 -1 -1 -1 -32769 -1 -32769 -1</internalNodes>
      <leafValues>
        -5.8581959456205368e-02 9.2521589994430542e-01</leafValues></_>
    <_>
      <internalNodes>
        0 -1 1062 754199572 1073659902 -1342210049 805207997 1073692669
        1073741823 1073692670 234635252</internalNodes>
      <leafValues>
        -5.6790876388549805e-01 9.2937044799327850e-02</leafValues></_>
    <_>
      <internalNodes>
        0 -1 16038 0 71045112 536788914 606089080 762592356 657817589
        805200916 4194304</internalNodes>
      <leafValues>
        -1.6626015901565552e+00 5.2876904606819153e-02</leafValues></_>
    <_>
      <internalNodes>
        0 -1 10380 720055808 82095854 787394272 3845870 2004837380
        41844701 1475815184 7616004</internalNodes>
      <leafValues>
        -1.2017322778701782e+00 7.0011019706726074e-02</leafValues></_>
    <_>
      <internalNodes>
        0 -1 4260 -1 -1 -1 -1 -1 -1 -1 2147483647</internalNodes>
      <leafValues>
        9.3441896140575409e-02 -6.4020979404449463e-01</leafValues></_>
    <_>
      <internalNodes>
        0 -1 3701 773990912 137166432 -420860256 673475376 392554064
        7110468 894723076 2389248</internalNodes>
      <leafValues>
        -2.4695377349853516e+00 5.0808105617761612e-02</leafValues></_>
    <_>
      <internalNodes>
        0 -1 2220 -1360042494 753401836 -1157994904 -523698462
        1878480644 343275351 2004834116 1080063760</internalNodes>
      <leafValues>
        -1.3375214338302612e+00 7.4464440345764160e-02</leafValues></_>
    <_>
      <internalNodes>
        0 -1 15100 544211968 74461162 -1090633860 480786684 1841053232
        788365111 1022362928 5120</internalNodes>
      <leafValues>
        -1.4482135772705078e+00 6.0132745653390884e-02</leafValues></_></weakClassifiers></stage5>
</opencv_storage>
