<?xml version="1.0"?>
<opencv_storage>
<stage6>
  <maxWeakCount>21</maxWeakCount>
  <stageThreshold>-8.1523466110229492e-01</stageThreshold>
  <weakClassifiers>
    <_>
      <internalNodes>
        0 -1 137 -258 -1 -1 -1 -1 -1 -1 872380415</internalNodes>
      <leafValues>
        -2.6241531595587730e-02 6.5936452150344849e-01</leafValues></_>
    <_>
      <internalNodes>
        0 -1 8312 -1 1073741823 -1 -1 -1 -1 -1 -1</internalNodes>
      <leafValues>
        -1.3191233575344086e-01 8.2050782442092896e-01</leafValues></_>
    <_>
      <internalNodes>
        0 -1 7714 -689395200 586952636 -470882548 9721576 1073489716
        788426532 1899255648 1048608</internalNodes>
      <leafValues>
        -1.0920535326004028e+00 2.4235406890511513e-02</leafValues></_>
    <_>
      <internalNodes>
        0 -1 5677 -1 -1 -1 -1 -1 2147483647 -1 -1</internalNodes>
      <leafValues>
        -7.3319494724273682e-02 5.7682609558105469e-01</leafValues></_>
    <_>
      <internalNodes>
        0 -1 10603 1073692542 -1073741825 -1 -1 -1 -1 -1 -1</internalNodes>
      <leafValues>
        -1.3068175315856934e-01 3.9368152618408203e-01</leafValues></_>
    <_>
      <internalNodes>
        0 -1 2817 652739616 787361788 1006550780 545132540 1005847416
        1609990015 528223868 7347252</internalNodes>
      <leafValues>
        -9.5706588029861450e-01 4.7053381800651550e-02</leafValues></_>
    <_>
      <internalNodes>
        0 -1 9116 -1 -1 -1 -1 -1 -1 -1 2147483647</internalNodes>
      <leafValues>
        8.6084224283695221e-02 -5.6517219543457031e-01</leafValues></_>
    <_>
      <internalNodes>
        0 -1 15786 550504448 577252860 -1099335436 79433208 359937140
        293474301 99625772 5243908</internalNodes>
      <leafValues>
        -1.4836350679397583e+00 5.2613314241170883e-02</leafValues></_>
    <_>
      <internalNodes>
        0 -1 8325 -16781530 788529151 -22 -1358954498 2147450741
        1736441855 2147450741 2004844535</internalNodes>
      <leafValues>
        -3.2848164439201355e-01 1.3224290311336517e-01</leafValues></_>
    <_>
      <internalNodes>
        0 -1 8734 144706208 536756214 2147385332 670220284 1878556528
        1065254909 1056718716 4199684</internalNodes>
      <leafValues>
        -6.6691535711288452e-01 7.7475763857364655e-02</leafValues></_>
    <_>
      <internalNodes>
        0 -1 8970 -1537312768 573484556 -1199899136 547946216 1962693892
        73727862 1962245152 4521552</internalNodes>
      <leafValues>
        -1.4068048000335693e+00 5.1116302609443665e-02</leafValues></_>
    <_>
      <internalNodes>
        0 -1 7444 241184288 649478140 1002385276 871284542 788409140
        251604607 75439224 134221856</internalNodes>
      <leafValues>
        -1.0375961065292358e+00 5.5723153054714203e-02</leafValues></_>
    <_>
      <internalNodes>
        0 -1 3528 -2 -1 -1 -1 -1 -1 -1 -134217729</internalNodes>
      <leafValues>
        -1.3201771676540375e-01 3.3535724878311157e-01</leafValues></_>
    <_>
      <internalNodes>
        0 -1 9456 182854176 8040174 1790840616 14708390 1467375428
        276266486 108414480 74917205</internalNodes>
      <leafValues>
        -1.4754277467727661e+00 4.9122788012027740e-02</leafValues></_>
    <_>
      <internalNodes>
        0 -1 1941 179831088 786706168 1073496061 717111222 1023156084
        1023024637 1073364836 2099312</internalNodes>
      <leafValues>
        -1.4645296335220337e+00 4.9419507384300232e-02</leafValues></_>
    <_>
      <internalNodes>
        0 -1 9320 543826434 2240290 721052480 7138474 1702184773 6166501
        913712388 29760</internalNodes>
      <leafValues>
        -2.5375149250030518e+00 4.5100469142198563e-02</leafValues></_>
    <_>
      <internalNodes>
        0 -1 2498 585509416 2797350 1677617376 585279290 1958963028
        125132645 1375077712 3413364</internalNodes>
      <leafValues>
        -1.2404240369796753e+00 5.6108318269252777e-02</leafValues></_>
    <_>
      <internalNodes>
        0 -1 2260 1862151680 8973864 1860758048 48430690 966227716
        70680439 905405952 2159716</internalNodes>
      <leafValues>
        -2.3794465065002441e+00 4.3571412563323975e-02</leafValues></_>
    <_>
      <internalNodes>
        0 -1 5875 -32769 -1 -1 -1 2147450879 2147483647 -32769 -1</internalNodes>
      <leafValues>
        -9.9724031984806061e-02 4.1326096653938293e-01</leafValues></_>
    <_>
      <internalNodes>
        0 -1 5228 721322528 -907743522 653732386 49948706 670918176
        74798965 2011002160 32</internalNodes>
      <leafValues>
        -9.4397062063217163e-01 4.6858366578817368e-02</leafValues></_>
    <_>
      <internalNodes>
        0 -1 12468 2892288 2361356 751331624 11811460 711198470
        368852852 83317316 2097472</internalNodes>
      <leafValues>
        -2.0368516445159912e+00 4.9203187227249146e-02</leafValues></_></weakClassifiers></stage6>
</opencv_storage>
