<?xml version="1.0"?>
<opencv_storage>
<stage11>
  <maxWeakCount>44</maxWeakCount>
  <stageThreshold>-1.2870426177978516e+00</stageThreshold>
  <weakClassifiers>
    <_>
      <internalNodes>
        0 -1 9724 -1 -1 -1 -1 -1 -1 -1 2147483647</internalNodes>
      <leafValues>
        3.9264389872550964e-01 -3.9759820699691772e-01</leafValues></_>
    <_>
      <internalNodes>
        0 -1 7614 -4 -1 -1 -1 -1 -1 -1 -50331649</internalNodes>
      <leafValues>
        -1.3159288465976715e-01 4.0927311778068542e-01</leafValues></_>
    <_>
      <internalNodes>
        0 -1 12381 -2 -1 -2 -65538 -1 -1 -1 -1</internalNodes>
      <leafValues>
        -9.4462007284164429e-02 5.7305520772933960e-01</leafValues></_>
    <_>
      <internalNodes>
        0 -1 2750 -194 -1 -2 -1 -1 -1 -3 -1</internalNodes>
      <leafValues>
        -1.0999618470668793e-01 4.0433293581008911e-01</leafValues></_>
    <_>
      <internalNodes>
        0 -1 6555 -1 -1 -1 -1 -1 -1 -1 -134217729</internalNodes>
      <leafValues>
        -6.9803580641746521e-02 1.0156514644622803e+00</leafValues></_>
    <_>
      <internalNodes>
        0 -1 7965 2097152 840571724 1072447468 14623655 126620132
        569587582 307702567 1310768</internalNodes>
      <leafValues>
        -5.7564578056335449e+00 3.4332867711782455e-02</leafValues></_>
    <_>
      <internalNodes>
        0 -1 11596 -1 -65537 -2 -257 -1 -1 -134217729 -1073741953</internalNodes>
      <leafValues>
        -3.8112200796604156e-02 1.7387413978576660e+00</leafValues></_>
    <_>
      <internalNodes>
        0 -1 10410 -2 -1 -1 -1 -1 -1 -1 -1</internalNodes>
      <leafValues>
        -3.7345331162214279e-02 9.9178570508956909e-01</leafValues></_>
    <_>
      <internalNodes>
        0 -1 10663 538968064 975470324 1072971448 343155836 1048321212
        1072979774 1035484732 0</internalNodes>
      <leafValues>
        -1.4835083484649658e+00 3.4463297575712204e-02</leafValues></_>
    <_>
      <internalNodes>
        0 -1 10600 1073709054 -1 -1 -1 -1 -1 -1 -1</internalNodes>
      <leafValues>
        -1.1143754422664642e-01 3.0138200521469116e-01</leafValues></_>
    <_>
      <internalNodes>
        0 -1 8714 -3 -1 -1 -1 -1 -1 -1 -268435457</internalNodes>
      <leafValues>
        -6.6523849964141846e-02 5.5649316310882568e-01</leafValues></_>
    <_>
      <internalNodes>
        0 -1 12664 674235392 183779134 804924220 712654648 1073094420
        536616831 792669752 103814676</internalNodes>
      <leafValues>
        -1.4751374721527100e+00 3.5320587456226349e-02</leafValues></_>
    <_>
      <internalNodes>
        0 -1 5665 -1 -1 -1 -1 -129 -1 -1 2147483647</internalNodes>
      <leafValues>
        1.0599367320537567e-01 -4.0799963474273682e-01</leafValues></_>
    <_>
      <internalNodes>
        0 -1 509 603980800 98844208 1060913080 784207608 670831792
        879894524 242489360 1052672</internalNodes>
      <leafValues>
        -2.4487819671630859e+00 3.5733100026845932e-02</leafValues></_>
    <_>
      <internalNodes>
        0 -1 8361 -18 -1 -2 -1 -1 2013265919 -1 2013265919</internalNodes>
      <leafValues>
        -1.3254545629024506e-01 2.7227127552032471e-01</leafValues></_>
    <_>
      <internalNodes>
        0 -1 13170 -2 -268435457 -1 -285212673 -1 -1 -1 2147483647</internalNodes>
      <leafValues>
        1.0966186970472336e-01 -3.3824291825294495e-01</leafValues></_>
    <_>
      <internalNodes>
        0 -1 1368 102763552 712916862 1073687652 586559464 73663556
        142179326 2130582388 1056600</internalNodes>
      <leafValues>
        -1.3581767082214355e+00 4.4752817600965500e-02</leafValues></_>
    <_>
      <internalNodes>
        0 -1 617 40641024 614919998 561261600 609362488 892805476
        74542445 347411002 1443376</internalNodes>
      <leafValues>
        -2.8822948932647705e+00 4.2987376451492310e-02</leafValues></_>
    <_>
      <internalNodes>
        0 -1 9443 1073692671 -1 -1 -1 -1 -1 -1 2147483647</internalNodes>
      <leafValues>
        2.0317204296588898e-01 -1.8717184662818909e-01</leafValues></_>
    <_>
      <internalNodes>
        0 -1 7542 -2 -1 -1 -1 -1 -1 -1 2013265919</internalNodes>
      <leafValues>
        -1.0739201307296753e-01 3.5210120677947998e-01</leafValues></_>
    <_>
      <internalNodes>
        0 -1 14602 6291456 14958242 784317548 277491346 108281092
        216334268 636757536 32</internalNodes>
      <leafValues>
        -1.2079502344131470e+00 2.6311298832297325e-02</leafValues></_>
    <_>
      <internalNodes>
        0 -1 15944 -1 -1 -1 -1 -1 -1 -1 2147483647</internalNodes>
      <leafValues>
        7.7049970626831055e-02 -5.6716537475585938e-01</leafValues></_>
    <_>
      <internalNodes>
        0 -1 492 105131268 465387182 469698388 114560746 800407334
        338959990 360001396 122225674</internalNodes>
      <leafValues>
        -5.7564578056335449e+00 4.7306034713983536e-02</leafValues></_>
    <_>
      <internalNodes>
        0 -1 13156 -65538 -65537 -1 -1073741826 -268435457 -16777217
        2130706431 -1073774594</internalNodes>
      <leafValues>
        -3.5648431628942490e-02 1.1080284118652344e+00</leafValues></_>
    <_>
      <internalNodes>
        0 -1 11693 -1207959554 -16793601 -18 -1350631425 -129 -1 -129
        2147450879</internalNodes>
      <leafValues>
        -2.5593915581703186e-01 3.7888762354850769e-01</leafValues></_>
    <_>
      <internalNodes>
        0 -1 3650 -65602 -1073741826 -2 -268500996 -33 -1 -1 1995921271</internalNodes>
      <leafValues>
        -2.6090466976165771e-01 2.1493311226367950e-01</leafValues></_>
    <_>
      <internalNodes>
        0 -1 9505 -81922 1073741823 -1 -1073741825 -1 2147483647 -9
        2147483647</internalNodes>
      <leafValues>
        -1.9345395267009735e-01 2.5964459776878357e-01</leafValues></_>
    <_>
      <internalNodes>
        0 -1 1975 1073692670 2147483647 -1 2147483647 2147450879
        2147483647 2147450879 1073709055</internalNodes>
      <leafValues>
        4.2804735898971558e-01 -1.6175843775272369e-01</leafValues></_>
    <_>
      <internalNodes>
        0 -1 5528 -1 -1 -1 -1 -129 -1 -137 2147483647</internalNodes>
      <leafValues>
        1.5145163238048553e-01 -3.0868592858314514e-01</leafValues></_>
    <_>
      <internalNodes>
        0 -1 6975 1073621808 536784894 805191678 536772607 527708017
        1065320447 2013208061 2138914813</internalNodes>
      <leafValues>
        -6.0506993532180786e-01 8.7112955749034882e-02</leafValues></_>
    <_>
      <internalNodes>
        0 -1 4155 6596608 9891710 1862217248 801025598 895424256
        89417534 1736380192 7628321</internalNodes>
      <leafValues>
        -2.0198216438293457e+00 4.3773945420980453e-02</leafValues></_>
    <_>
      <internalNodes>
        0 -1 14182 741871136 1002323256 1056878198 782904868 1056190012
        251543036 888805168 48</internalNodes>
      <leafValues>
        -1.2075982093811035e+00 6.4484812319278717e-02</leafValues></_>
    <_>
      <internalNodes>
        0 -1 2085 44040704 251403796 1073627116 805186424 1073483508
        1073167997 1056703020 108803840</internalNodes>
      <leafValues>
        -1.7161128520965576e+00 4.7557674348354340e-02</leafValues></_>
    <_>
      <internalNodes>
        0 -1 16272 -1 -1 -1 -1 -1 -1 -1 2147483647</internalNodes>
      <leafValues>
        9.1050148010253906e-02 -5.8611375093460083e-01</leafValues></_>
    <_>
      <internalNodes>
        0 -1 2897 28049440 217720823 1056911026 141733884 359994420
        91649977 525800806 70517012</internalNodes>
      <leafValues>
        -2.0596053600311279e+00 4.7805856913328171e-02</leafValues></_>
    <_>
      <internalNodes>
        0 -1 13830 -1073741826 -1342177281 -1 -285278209 -129 -1 -129
        2147483647</internalNodes>
      <leafValues>
        1.9609889388084412e-01 -2.5847193598747253e-01</leafValues></_>
    <_>
      <internalNodes>
        0 -1 13096 706881536 208469994 -1073956184 543992358 1073047312
        125075453 670449492 78923620</internalNodes>
      <leafValues>
        -9.2310500144958496e-01 6.2313176691532135e-02</leafValues></_>
    <_>
      <internalNodes>
        0 -1 3592 -1532878848 648195040 -1560337858 108854264 1958737988
        1156870000 913601332 1081111920</internalNodes>
      <leafValues>
        -1.4545130729675293e+00 3.9466861635446548e-02</leafValues></_>
    <_>
      <internalNodes>
        0 -1 224 854721024 1626845106 905851702 540163688 1023360596
        863927799 8091360 0</internalNodes>
      <leafValues>
        -1.4480086565017700e+00 5.2198022603988647e-02</leafValues></_>
    <_>
      <internalNodes>
        0 -1 13250 8704 673475688 -67197012 114048300 483733248
        594823005 577837344 67117376</internalNodes>
      <leafValues>
        -1.6175249814987183e+00 4.4902373105287552e-02</leafValues></_>
    <_>
      <internalNodes>
        0 -1 10542 1073692671 2147483647 -1 -1 -1 -1 -1 2147483647</internalNodes>
      <leafValues>
        1.9015803933143616e-01 -1.9707331061363220e-01</leafValues></_>
    <_>
      <internalNodes>
        0 -1 10488 774909608 607661870 805191674 149565306 1035351477
        1073299453 928722480 70925909</internalNodes>
      <leafValues>
        -9.8516786098480225e-01 5.9082631021738052e-02</leafValues></_>
    <_>
      <internalNodes>
        0 -1 7284 69206016 246431414 -1074446404 884289100 494411220
        -848515076 2143028660 1050624</internalNodes>
      <leafValues>
        -1.5033708810806274e+00 4.5946162194013596e-02</leafValues></_>
    <_>
      <internalNodes>
        0 -1 10976 1281780224 7794404 1828122212 73699040 1157041760
        1148509798 1196762692 68158564</internalNodes>
      <leafValues>
        -1.2824035882949829e+00 5.0814934074878693e-02</leafValues></_></weakClassifiers></stage11>
</opencv_storage>
