<?xml version="1.0"?>
<opencv_storage>
<stage5>
  <maxWeakCount>11</maxWeakCount>
  <stageThreshold>-8.4891742467880249e-01</stageThreshold>
  <weakClassifiers>
    <_>
      <internalNodes>
        0 -1 24696 -76023813 662169882 670873503 -786449 1693407126
        400844656 -84412673 -37</internalNodes>
      <leafValues>
        -1.8144927918910980e-01 7.0618939399719238e-01</leafValues></_>
    <_>
      <internalNodes>
        0 -1 7295 1890553994 -135337281 1903375091 -248447258 2147482315
        1945485310 -1242188357 1607459483</internalNodes>
      <leafValues>
        -3.7843137979507446e-01 4.6831789612770081e-01</leafValues></_>
    <_>
      <internalNodes>
        0 -1 19052 1262320491 585871719 1074765440 1359683706 780878185
        581812368 1350696986 -139750977</internalNodes>
      <leafValues>
        -4.2927905917167664e-01 4.1568008065223694e-01</leafValues></_>
    <_>
      <internalNodes>
        0 -1 58548 -439370097 -877674499 -1342185580 -58265991
        1832384278 175564799 1994319701 -419444865</internalNodes>
      <leafValues>
        -3.6665013432502747e-01 4.6322914958000183e-01</leafValues></_>
    <_>
      <internalNodes>
        0 -1 62904 -344202974 185882665 1090902498 -199633826 1380665615
        1192874312 -846507350 -136324657</internalNodes>
      <leafValues>
        -4.6813488006591797e-01 3.6863791942596436e-01</leafValues></_>
    <_>
      <internalNodes>
        0 -1 68165 334992287 389379944 1072511541 -1820591301 -411174210
        972337151 930729273 -604506385</internalNodes>
      <leafValues>
        -2.9009005427360535e-01 5.8463943004608154e-01</leafValues></_>
    <_>
      <internalNodes>
        0 -1 33252 -741109046 -179075501 1372914155 -1257909994
        1107526314 -1618966263 143293115 1363540042</internalNodes>
      <leafValues>
        -4.8350498080253601e-01 3.7046283483505249e-01</leafValues></_>
    <_>
      <internalNodes>
        0 -1 79770 -622598357 -1574572219 -1359135072 548859630
        1568111907 -1879572641 905926517 -189796387</internalNodes>
      <leafValues>
        -4.0811225771903992e-01 4.4040760397911072e-01</leafValues></_>
    <_>
      <internalNodes>
        0 -1 55853 2033185808 -646783170 -1493209515 -1246527747
        1290984954 -117647619 -1931477777 -400558381</internalNodes>
      <leafValues>
        -3.4647485613822937e-01 5.2980887889862061e-01</leafValues></_>
    <_>
      <internalNodes>
        0 -1 87357 -247004885 -514767480 1485951119 -2033516222
        -540528477 -1735847781 1485948959 1605608227</internalNodes>
      <leafValues>
        -4.3010377883911133e-01 4.3117654323577881e-01</leafValues></_>
    <_>
      <internalNodes>
        0 -1 47472 -9457909 787431290 -1090798032 -219760657 -570530473
        2122120573 -52138 -638059137</internalNodes>
      <leafValues>
        -4.2860794067382813e-01 4.3918287754058838e-01</leafValues></_></weakClassifiers></stage5>
</opencv_storage>
