<?xml version="1.0"?>
<opencv_storage>
<stage9>
  <maxWeakCount>14</maxWeakCount>
  <stageThreshold>-1.0134547948837280e+00</stageThreshold>
  <weakClassifiers>
    <_>
      <internalNodes>
        0 -1 53204 -487595417 -1030832469 645916428 -204476440
        1165440773 1182463863 -172502461 2011160575</internalNodes>
      <leafValues>
        -2.6210349798202515e-01 5.0749462842941284e-01</leafValues></_>
    <_>
      <internalNodes>
        0 -1 68200 1043963773 1026703295 -1141308423 -1476641105
        758625981 268271095 2121676685 -1610675718</internalNodes>
      <leafValues>
        -3.5807567834854126e-01 4.1556659340858459e-01</leafValues></_>
    <_>
      <internalNodes>
        0 -1 6711 -712801447 2045640589 1056897903 -819906773 710326441
        -1204002817 -1510429905 770647464</internalNodes>
      <leafValues>
        -3.1344580650329590e-01 4.5534199476242065e-01</leafValues></_>
    <_>
      <internalNodes>
        0 -1 59781 -974790644 1879196679 -1996184371 693217341 604710973
        -926736083 -400320283 134734394</internalNodes>
      <leafValues>
        -5.1362961530685425e-01 2.8220403194427490e-01</leafValues></_>
    <_>
      <internalNodes>
        0 -1 22864 -44060921 -1820132598 1074993358 596938246 1074615040
        -574574071 1243050379 -272241862</internalNodes>
      <leafValues>
        -3.8587382435798645e-01 3.5860839486122131e-01</leafValues></_>
    <_>
      <internalNodes>
        0 -1 67600 -411065682 -962187541 -134688832 -328536085
        -210387177 216465279 -412171450 -1006635185</internalNodes>
      <leafValues>
        -3.3526745438575745e-01 4.1516330838203430e-01</leafValues></_>
    <_>
      <internalNodes>
        0 -1 28001 -523581866 1191430612 1075392848 1834888506
        -670323736 -1014169373 -729306414 -290987885</internalNodes>
      <leafValues>
        -3.9983576536178589e-01 3.5495814681053162e-01</leafValues></_>
    <_>
      <internalNodes>
        0 -1 24782 1500586174 1020256353 1073877000 1619198042
        1537091004 967838250 1881211182 2108606592</internalNodes>
      <leafValues>
        -5.8359003067016602e-01 2.6406839489936829e-01</leafValues></_>
    <_>
      <internalNodes>
        0 -1 68538 374937061 -1619983158 390322283 1834051013 413630489
        -777989816 1453344810 1449150864</internalNodes>
      <leafValues>
        -4.0781694650650024e-01 3.5113137960433960e-01</leafValues></_>
    <_>
      <internalNodes>
        0 -1 39330 1216672394 -54345717 177422419 2009523521 60822266
        -1691663739 -1993793750 1113047175</internalNodes>
      <leafValues>
        -4.4914203882217407e-01 3.2309481501579285e-01</leafValues></_>
    <_>
      <internalNodes>
        0 -1 72124 -46555203 888340153 -1342423189 -1619083397
        2134343036 767389684 -1342230568 -4214849</internalNodes>
      <leafValues>
        -3.4352648258209229e-01 4.3217322230339050e-01</leafValues></_>
    <_>
      <internalNodes>
        0 -1 58254 -191629594 -2146823144 1092669440 211077512
        1783251477 1535557642 1669531728 -202966419</internalNodes>
      <leafValues>
        -4.8529398441314697e-01 3.3614644408226013e-01</leafValues></_>
    <_>
      <internalNodes>
        0 -1 49144 -129388737 -1208823725 369344566 -719310542
        -1073632259 -773191544 713539818 1143598124</internalNodes>
      <leafValues>
        -3.9178588986396790e-01 4.0186756849288940e-01</leafValues></_>
    <_>
      <internalNodes>
        0 -1 78288 -461653890 -783646079 -1877462383 1947522780
        -590826954 -1945075279 -388974388 -195779776</internalNodes>
      <leafValues>
        -4.1743269562721252e-01 3.7599700689315796e-01</leafValues></_></weakClassifiers></stage9>
</opencv_storage>
