<?xml version="1.0"?>
<opencv_storage>
<stage7>
  <maxWeakCount>13</maxWeakCount>
  <stageThreshold>-1.3021894693374634e+00</stageThreshold>
  <weakClassifiers>
    <_>
      <internalNodes>
        0 -1 63312 905396205 1073569727 536816416 -1086933249 1878880248
        2079686645 -1006686353 -1074792481</internalNodes>
      <leafValues>
        -3.0658105015754700e-01 5.5824178457260132e-01</leafValues></_>
    <_>
      <internalNodes>
        0 -1 28670 -218105889 -67125253 -1275253844 -605884482 -527425
        920416991 -1157635350 1657795315</internalNodes>
      <leafValues>
        -4.1370987892150879e-01 4.4739168882369995e-01</leafValues></_>
    <_>
      <internalNodes>
        0 -1 40434 -889454721 -222429306 -8716358 -1801130464 -461905993
        -840761355 -730107567 -1058539581</internalNodes>
      <leafValues>
        -3.3547550439834595e-01 4.7584834694862366e-01</leafValues></_>
    <_>
      <internalNodes>
        0 -1 58123 -419962001 6417963 -16844529 -358221897 693838871
        728891135 -419488512 -713556109</internalNodes>
      <leafValues>
        -3.4105578064918518e-01 4.7910344600677490e-01</leafValues></_>
    <_>
      <internalNodes>
        0 -1 43075 1408311197 421397381 159609341 -1572687606 1832268700
        956631051 1804348236 -17879314</internalNodes>
      <leafValues>
        -4.7439807653427124e-01 3.4939321875572205e-01</leafValues></_>
    <_>
      <internalNodes>
        0 -1 64459 1881084978 1947649661 545788575 -1534324026
        1233308475 -1474579958 -297682376 -1536099258</internalNodes>
      <leafValues>
        -5.1669806241989136e-01 3.3849218487739563e-01</leafValues></_>
    <_>
      <internalNodes>
        0 -1 108863 328211893 -2060129701 -596089969 -1479558907
        1629205743 -1094049588 -1970255489 1837422652</internalNodes>
      <leafValues>
        -4.5338514447212219e-01 3.6496299505233765e-01</leafValues></_>
    <_>
      <internalNodes>
        0 -1 18361 -597836058 1879168413 490036366 -605179647 1229071349
        1423945465 -1371191301 -370816476</internalNodes>
      <leafValues>
        -4.0699440240859985e-01 4.2395609617233276e-01</leafValues></_>
    <_>
      <internalNodes>
        0 -1 77905 -523830252 -581647574 1358977215 324549421 -669943452
        -86368108 -1206461156 15032883</internalNodes>
      <leafValues>
        -4.8715603351593018e-01 3.5190606117248535e-01</leafValues></_>
    <_>
      <internalNodes>
        0 -1 83121 -320868825 586216685 1611782265 -1464073604
        1598408609 1601684754 1787195315 -1395267133</internalNodes>
      <leafValues>
        -4.2517605423927307e-01 3.8314488530158997e-01</leafValues></_>
    <_>
      <internalNodes>
        0 -1 45556 1522930522 1510641758 587363256 -1244273208
        1344067368 -1148136903 1103334604 -187338364</internalNodes>
      <leafValues>
        -4.4785389304161072e-01 3.8860401511192322e-01</leafValues></_>
    <_>
      <internalNodes>
        0 -1 80631 1956709749 -573526417 -289424401 -820627341
        -148427338 -1946550273 1541912954 1254434812</internalNodes>
      <leafValues>
        -3.3166414499282837e-01 5.1878446340560913e-01</leafValues></_>
    <_>
      <internalNodes>
        0 -1 48281 -1355854193 1443807365 -1861129428 1925936202
        1000347645 1613349254 1720310294 1682211835</internalNodes>
      <leafValues>
        -6.1731821298599243e-01 2.9272729158401489e-01</leafValues></_></weakClassifiers></stage7>
</opencv_storage>
