<?xml version="1.0"?>
<opencv_storage>
<stage2>
  <maxWeakCount>8</maxWeakCount>
  <stageThreshold>-1.0074988603591919e+00</stageThreshold>
  <weakClassifiers>
    <_>
      <internalNodes>
        0 -1 120795 1702342580 1065319359 711603391 863477759 2147444671
        293026551 935274431 2147482111</internalNodes>
      <leafValues>
        -4.5583039522171021e-01 6.6409599781036377e-01</leafValues></_>
    <_>
      <internalNodes>
        0 -1 362929 771731391 859704894 1005225886 289942561 914323255
        1061117823 -1224788557 -268443665</internalNodes>
      <leafValues>
        -4.1516697406768799e-01 5.3351193666458130e-01</leafValues></_>
    <_>
      <internalNodes>
        0 -1 47992 1976008834 -250310194 268435543 -2944964 -2146754342
        -291946258 -669405446 63676043</internalNodes>
      <leafValues>
        -4.8959451913833618e-01 4.9407151341438293e-01</leafValues></_>
    <_>
      <internalNodes>
        0 -1 223280 -363858497 33609728 -788475496 -801704730 -750324935
        773327801 -1431571723 -990515440</internalNodes>
      <leafValues>
        -4.5520421862602234e-01 5.0868237018585205e-01</leafValues></_>
    <_>
      <internalNodes>
        0 -1 312371 -291766981 -1400441957 -1999721740 679772198
        -39185083 2116520042 -89771660 -965580492</internalNodes>
      <leafValues>
        -5.6586915254592896e-01 3.6419641971588135e-01</leafValues></_>
    <_>
      <internalNodes>
        0 -1 365400 315505021 937836409 -1107349505 1060906173 536636543
        -163873 -1392759620 -25628771</internalNodes>
      <leafValues>
        -4.3811315298080444e-01 5.0468170642852783e-01</leafValues></_>
    <_>
      <internalNodes>
        0 -1 377046 -138416377 150423769 69142800 586404229 1640946015
        1076660355 -441897649 -201327637</internalNodes>
      <leafValues>
        -4.6327602863311768e-01 5.0058233737945557e-01</leafValues></_>
    <_>
      <internalNodes>
        0 -1 354140 -1904595693 102051856 -2112876039 -1094795218
        -1622107968 -544569241 -307443036 -1405091503</internalNodes>
      <leafValues>
        -5.6707549095153809e-01 4.0718251466751099e-01</leafValues></_></weakClassifiers></stage2>
</opencv_storage>
