<?xml version="1.0"?>
<opencv_storage>
<stage5>
  <maxWeakCount>10</maxWeakCount>
  <stageThreshold>-8.2206362485885620e-01</stageThreshold>
  <weakClassifiers>
    <_>
      <internalNodes>
        0 -1 170477 -581436945 66842559 2013260734 -671372555 1440044815
        57047039 2095574459 2013265775</internalNodes>
      <leafValues>
        -2.9846152663230896e-01 6.5650969743728638e-01</leafValues></_>
    <_>
      <internalNodes>
        0 -1 193094 2105491439 1069400063 -1359007745 732344183 66393333
        796684030 -50305 -33557</internalNodes>
      <leafValues>
        -4.0095335245132446e-01 5.4184585809707642e-01</leafValues></_>
    <_>
      <internalNodes>
        0 -1 4726 -459804446 -68709485 335661183 -141560303 -250639932
        -123603528 -225859848 1962015972</internalNodes>
      <leafValues>
        -5.8156090974807739e-01 4.0673759579658508e-01</leafValues></_>
    <_>
      <internalNodes>
        0 -1 365401 576194933 935614279 -1224650421 -1342467813
        -1165010561 -71708318 -291604101 -1344783744</internalNodes>
      <leafValues>
        -5.5240821838378906e-01 3.5955253243446350e-01</leafValues></_>
    <_>
      <internalNodes>
        0 -1 385666 -807409089 552708151 -1360114115 -1590074582
        1115489967 150978284 1625886264 -303043753</internalNodes>
      <leafValues>
        -3.4988999366760254e-01 6.0465133190155029e-01</leafValues></_>
    <_>
      <internalNodes>
        0 -1 493994 1340503823 2113798139 -328335441 -839148113
        -1593837730 -1 -134354097 1825044103</internalNodes>
      <leafValues>
        -4.3597799539566040e-01 5.0582563877105713e-01</leafValues></_>
    <_>
      <internalNodes>
        0 -1 294101 -956898369 -121308290 -758711809 -1409228158
        -536197930 1756998273 -118588480 -924820332</internalNodes>
      <leafValues>
        -4.7075304388999939e-01 4.4757065176963806e-01</leafValues></_>
    <_>
      <internalNodes>
        0 -1 317256 -1962949101 235541634 -349973562 -1370052573
        1089929829 745289827 688485121 -102243481</internalNodes>
      <leafValues>
        -4.8205068707466125e-01 4.4297146797180176e-01</leafValues></_>
    <_>
      <internalNodes>
        0 -1 223306 -218104133 -1938620738 -1577129363 -492159184
        -505123323 -276824067 -193040624 -466092717</internalNodes>
      <leafValues>
        -4.2074063420295715e-01 4.6449187397956848e-01</leafValues></_>
    <_>
      <internalNodes>
        0 -1 269264 328279319 982823121 1712050527 952224924 2022904253
        -1821736800 -2027945632 -1092862096</internalNodes>
      <leafValues>
        -4.9975541234016418e-01 4.0153440833091736e-01</leafValues></_></weakClassifiers></stage5>
</opencv_storage>
