<?xml version="1.0"?>
<opencv_storage>
<cascade>
  <stageType>BOOST</stageType>
  <featureType>LBP</featureType>
  <height>64</height>
  <width>32</width>
  <stageParams>
    <boostType>GAB</boostType>
    <minHitRate>9.9900001287460327e-01</minHitRate>
    <maxFalseAlarm>5.0000000000000000e-01</maxFalseAlarm>
    <weightTrimRate>9.4999999999999996e-01</weightTrimRate>
    <maxDepth>1</maxDepth>
    <maxWeakCount>100</maxWeakCount></stageParams>
  <featureParams>
    <maxCatCount>256</maxCatCount>
    <featSize>1</featSize></featureParams>
  <stageNum>10</stageNum>
  <stages>
    <!-- stage 0 -->
    <_>
      <maxWeakCount>5</maxWeakCount>
      <stageThreshold>-1.4549381732940674e+00</stageThreshold>
      <weakClassifiers>
        <_>
          <internalNodes>
            0 -1 21 353835450 320147619 16974674 318832915 201387
            20972544 323694815 2068840191</internalNodes>
          <leafValues>
            -7.2930866479873657e-01 6.8597412109375000e-01</leafValues></_>
        <_>
          <internalNodes>
            0 -1 16 -775176062 1363757106 1073856858 -174903151
            -1869897554 -1744257016 1342214283 1074262775</internalNodes>
          <leafValues>
            -6.1459821462631226e-01 5.8407932519912720e-01</leafValues></_>
        <_>
          <internalNodes>
            0 -1 56 735515583 290719635 813695008 370868259 373498039
            1245954667 1494946447 -68167697</internalNodes>
          <leafValues>
            -4.9126836657524109e-01 5.4395925998687744e-01</leafValues></_>
        <_>
          <internalNodes>
            0 -1 13 -1068012990 -1811902127 319049811 -778309327
            -108140083 -393560064 -804662549 -530451637</internalNodes>
          <leafValues>
            -5.2035415172576904e-01 5.1688039302825928e-01</leafValues></_>
        <_>
          <internalNodes>
            0 -1 70 -763661810 641945857 -736952057 -1298202037
            1107931735 16843459 -494833341 -1069809717</internalNodes>
          <leafValues>
            -5.1469159126281738e-01 5.3281003236770630e-01</leafValues></_></weakClassifiers></_>
    <!-- stage 1 -->
    <_>
      <maxWeakCount>8</maxWeakCount>
      <stageThreshold>-1.8516548871994019e+00</stageThreshold>
      <weakClassifiers>
        <_>
          <internalNodes>
            0 -1 11 1197469503 733965295 450770940 335484927 1068986223
            339156850 1031749631 2080374783</internalNodes>
          <leafValues>
            -5.0584566593170166e-01 7.2722315788269043e-01</leafValues></_>
        <_>
          <internalNodes>
            0 -1 17 -514334558 1365496000 268566659 1701433441
            -133961558 -636878842 1650123275 1883489971</internalNodes>
          <leafValues>
            -5.6294685602188110e-01 5.2845656871795654e-01</leafValues></_>
        <_>
          <internalNodes>
            0 -1 38 1006353335 136632346 1065107261 2113380079
            1316949802 687193973 671028201 -1310721</internalNodes>
          <leafValues>
            -4.4842255115509033e-01 5.4360514879226685e-01</leafValues></_>
        <_>
          <internalNodes>
            0 -1 33 -895489498 246112280 9594898 135778836 46338116
            1561067651 1889489410 -520882309</internalNodes>
          <leafValues>
            -5.8941239118576050e-01 4.1538855433464050e-01</leafValues></_>
        <_>
          <internalNodes>
            0 -1 75 -157878237 675504286 2018607328 1611124939
            1792275310 1481359695 -796400930 1946147839</internalNodes>
          <leafValues>
            -5.0036215782165527e-01 4.6883308887481689e-01</leafValues></_>
        <_>
          <internalNodes>
            0 -1 81 -54592495 2013589600 -553803944 1988621396
            2105431414 -816583298 653389498 -232565037</internalNodes>
          <leafValues>
            -4.6143987774848938e-01 5.3233557939529419e-01</leafValues></_>
        <_>
          <internalNodes>
            0 -1 64 159854605 1003487435 16974101 2005160102 143727831
            530655263 -208987158 -10014161</internalNodes>
          <leafValues>
            -4.6975737810134888e-01 5.2197974920272827e-01</leafValues></_>
        <_>
          <internalNodes>
            0 -1 10 1133769670 -796884461 1074078338 1363906897
            -1341457962 -1601633918 328394330 729768699</internalNodes>
          <leafValues>
            -5.1573216915130615e-01 4.6874484419822693e-01</leafValues></_></weakClassifiers></_>
    <!-- stage 2 -->
    <_>
      <maxWeakCount>8</maxWeakCount>
      <stageThreshold>-9.4373208284378052e-01</stageThreshold>
      <weakClassifiers>
        <_>
          <internalNodes>
            0 -1 6 1339666367 861273891 1878994743 2138570495 1555842811
            72101655 1610612735 -1</internalNodes>
          <leafValues>
            -3.4368669986724854e-01 7.2966361045837402e-01</leafValues></_>
        <_>
          <internalNodes>
            0 -1 5 -255068086 -640186314 1083257756 1407041555
            -1039937301 -1194295140 -1292770577 1425276663</internalNodes>
          <leafValues>
            -5.0233113765716553e-01 5.0216841697692871e-01</leafValues></_>
        <_>
          <internalNodes>
            0 -1 82 -255546462 1766547830 -528285164 -262499434
            -780031932 1367458311 -125707104 -253301369</internalNodes>
          <leafValues>
            -5.3620398044586182e-01 3.9649730920791626e-01</leafValues></_>
        <_>
          <internalNodes>
            0 -1 22 2044663623 419676611 1090588700 1506213987 50862377
            1854423168 453213115 -10786369</internalNodes>
          <leafValues>
            -4.6430358290672302e-01 4.5468157529830933e-01</leafValues></_>
        <_>
          <internalNodes>
            0 -1 71 -816077266 642470451 676939778 -1597679889
            1107898641 889436225 1077837846 -218634553</internalNodes>
          <leafValues>
            -5.4016613960266113e-01 3.9088737964630127e-01</leafValues></_>
        <_>
          <internalNodes>
            0 -1 42 -274806654 -146702248 8524027 -108854504 -663767862
            -1564344191 -508718673 558326339</internalNodes>
          <leafValues>
            -5.2823376655578613e-01 4.1506516933441162e-01</leafValues></_>
        <_>
          <internalNodes>
            0 -1 50 -714607245 1877995114 -185682522 -1402421652
            -167874762 753366183 -204106891 -387135748</internalNodes>
          <leafValues>
            -4.1152015328407288e-01 5.2420336008071899e-01</leafValues></_>
        <_>
          <internalNodes>
            0 -1 69 -892080217 266399724 1055861541 2001204979 103952012
            473903103 81626251 -275784069</internalNodes>
          <leafValues>
            -4.0002661943435669e-01 5.6489717960357666e-01</leafValues></_></weakClassifiers></_>
    <!-- stage 3 -->
    <_>
      <maxWeakCount>8</maxWeakCount>
      <stageThreshold>-9.8710811138153076e-01</stageThreshold>
      <weakClassifiers>
        <_>
          <internalNodes>
            0 -1 15 200091579 264220535 677330491 -134251137 1310525435
            156249340 -821051397 2147481599</internalNodes>
          <leafValues>
            -4.9466192722320557e-01 6.2248998880386353e-01</leafValues></_>
        <_>
          <internalNodes>
            0 -1 1 1884267138 -40996478 153146135 1000073574 -109845783
            -48547193 -1717977969 319781679</internalNodes>
          <leafValues>
            -5.3605794906616211e-01 4.3231177330017090e-01</leafValues></_>
        <_>
          <internalNodes>
            0 -1 77 104539711 933609237 -1074168961 -1074827283
            780085247 -196609 1870551997 -65554</internalNodes>
          <leafValues>
            -3.8200774788856506e-01 5.4937416315078735e-01</leafValues></_>
        <_>
          <internalNodes>
            0 -1 31 1192738346 588693662 570442017 458087315 624935098
            262275087 1115825882 1050651067</internalNodes>
          <leafValues>
            -6.0221493244171143e-01 3.3155426383018494e-01</leafValues></_>
        <_>
          <internalNodes>
            0 -1 52 -139726857 -353996819 -1359038671 -1805336794
            -738763300 -369954862 -172557104 -1058736314</internalNodes>
          <leafValues>
            -3.9517539739608765e-01 5.3596580028533936e-01</leafValues></_>
        <_>
          <internalNodes>
            0 -1 18 1220567842 -203120349 1880166773 -136973421
            1199592154 -231482928 852247195 -517609609</internalNodes>
          <leafValues>
            -4.5996528863906860e-01 4.2635715007781982e-01</leafValues></_>
        <_>
          <internalNodes>
            0 -1 90 89991295 1037201606 338954221 -1355853619 959201743
            -1010726802 -693326785 2142561855</internalNodes>
          <leafValues>
            -4.3182173371315002e-01 4.7512161731719971e-01</leafValues></_>
        <_>
          <internalNodes>
            0 -1 79 -1485135969 319865871 151148907 431575053 29885174
            683868296 -1713633335 -268444361</internalNodes>
          <leafValues>
            -4.1223815083503723e-01 5.0296008586883545e-01</leafValues></_></weakClassifiers></_>
    <!-- stage 4 -->
    <_>
      <maxWeakCount>10</maxWeakCount>
      <stageThreshold>-1.5157636404037476e+00</stageThreshold>
      <weakClassifiers>
        <_>
          <internalNodes>
            0 -1 23 1650446979 129351646 670526252 2008022911 1969954815
            1398097718 2004869023 2013265663</internalNodes>
          <leafValues>
            -4.1658899188041687e-01 5.5359762907028198e-01</leafValues></_>
        <_>
          <internalNodes>
            0 -1 29 2110126047 725604543 1006502451 -134222409
            1811561819 519861733 1879047995 -16417</internalNodes>
          <leafValues>
            -3.1383132934570313e-01 6.1688715219497681e-01</leafValues></_>
        <_>
          <internalNodes>
            0 -1 12 -738200702 -677871222 298123551 59441675 -2112379718
            -2146727678 897762911 1668793227</internalNodes>
          <leafValues>
            -4.6680012345314026e-01 4.0760120749473572e-01</leafValues></_>
        <_>
          <internalNodes>
            0 -1 78 -285213251 326898248 -792005993 -86715516 -627971923
            -292320768 279366322 -463176192</internalNodes>
          <leafValues>
            -4.1921499371528625e-01 4.6841344237327576e-01</leafValues></_>
        <_>
          <internalNodes>
            0 -1 53 -419969697 540997295 -1610616280 -1128964247
            -1133025518 -1611415812 2117031251 -160446633</internalNodes>
          <leafValues>
            -3.6796697974205017e-01 5.3802567720413208e-01</leafValues></_>
        <_>
          <internalNodes>
            0 -1 74 111152549 357744661 276959803 -1325305855 671681791
            -878030847 -400999434 -1352065062</internalNodes>
          <leafValues>
            -5.3706312179565430e-01 3.8240709900856018e-01</leafValues></_>
        <_>
          <internalNodes>
            0 -1 52 -354423937 13325324 -346582146 1111811144 150952022
            -816219192 -1786076608 -735775772</internalNodes>
          <leafValues>
            -5.4318755865097046e-01 3.2669559121131897e-01</leafValues></_>
        <_>
          <internalNodes>
            0 -1 67 -1931310537 -79920681 -1291267879 -75464368
            -399865164 138578185 -2004165968 -389021600</internalNodes>
          <leafValues>
            -4.2969590425491333e-01 4.3511536717414856e-01</leafValues></_>
        <_>
          <internalNodes>
            0 -1 89 -953960929 -524937 -88285 1869854623 1222502365
            -1080672905 -297556415 2047581924</internalNodes>
          <leafValues>
            -3.5755729675292969e-01 5.2476704120635986e-01</leafValues></_>
        <_>
          <internalNodes>
            0 -1 73 -807419025 573277019 -1878884222 843637039
            2030998071 1739655227 -447639662 -150219897</internalNodes>
          <leafValues>
            -4.8423266410827637e-01 4.0071830153465271e-01</leafValues></_></weakClassifiers></_>
    <!-- stage 5 -->
    <_>
      <maxWeakCount>9</maxWeakCount>
      <stageThreshold>-1.4653203487396240e+00</stageThreshold>
      <weakClassifiers>
        <_>
          <internalNodes>
            0 -1 24 -547356693 1373633150 -1225002766 2013003387
            1642064895 310129605 100661150 1409286047</internalNodes>
          <leafValues>
            -3.4980696439743042e-01 6.2438219785690308e-01</leafValues></_>
        <_>
          <internalNodes>
            0 -1 76 -429923582 4968076 32848 -2113728501 -1866284270
            137219 -1031651226 1390404591</internalNodes>
          <leafValues>
            -5.7790690660476685e-01 3.9474853873252869e-01</leafValues></_>
        <_>
          <internalNodes>
            0 -1 41 -169885142 -393887605 -784068346 -266481074
            -1048350110 860405921 -711203324 -187696385</internalNodes>
          <leafValues>
            -5.2964729070663452e-01 3.7103316187858582e-01</leafValues></_>
        <_>
          <internalNodes>
            0 -1 51 554374423 622355354 42012693 285591827 -335320853
            407699458 -436122785 -1128795442</internalNodes>
          <leafValues>
            -4.4997572898864746e-01 4.4285023212432861e-01</leafValues></_>
        <_>
          <internalNodes>
            0 -1 72 -875577301 1120343116 1073840134 -1060974136
            269091333 270762510 -754203805 -168824161</internalNodes>
          <leafValues>
            -4.8438727855682373e-01 4.3165051937103271e-01</leafValues></_>
        <_>
          <internalNodes>
            0 -1 32 -217318966 139402371 -233125760 1145078402
            -242231001 1082507272 1535357760 -781729085</internalNodes>
          <leafValues>
            -5.2546840906143188e-01 4.0316292643547058e-01</leafValues></_>
        <_>
          <internalNodes>
            0 -1 3 1401184388 -15159167 81986 857014599 -1584854497
            956829762 1233359307 1661434075</internalNodes>
          <leafValues>
            -5.0698733329772949e-01 4.2851442098617554e-01</leafValues></_>
        <_>
          <internalNodes>
            0 -1 85 -822088977 -776671250 -286656983 1760919525
            -271628434 2095577045 -50858688 -252182713</internalNodes>
          <leafValues>
            -4.3461227416992188e-01 4.7307989001274109e-01</leafValues></_>
        <_>
          <internalNodes>
            0 -1 9 -2020111869 -1551724541 1377141255 -1608806235
            -1584137810 -2094530559 143507987 1137431215</internalNodes>
          <leafValues>
            -4.4619873166084290e-01 4.5248630642890930e-01</leafValues></_></weakClassifiers></_>
    <!-- stage 6 -->
    <_>
      <maxWeakCount>10</maxWeakCount>
      <stageThreshold>-8.8895553350448608e-01</stageThreshold>
      <weakClassifiers>
        <_>
          <internalNodes>
            0 -1 14 119271293 385266815 2112335871 2142629663 1308430267
            260014015 1543503807 2126507999</internalNodes>
          <leafValues>
            -3.5314685106277466e-01 5.5172413587570190e-01</leafValues></_>
        <_>
          <internalNodes>
            0 -1 2 1631303814 -33591429 636992043 -76334083 -1149805925
            -34080842 -604073285 454017963</internalNodes>
          <leafValues>
            -3.9819040894508362e-01 4.3349939584732056e-01</leafValues></_>
        <_>
          <internalNodes>
            0 -1 57 70583645 1073627111 -1375731721 -583035652 498485229
            -301989890 -1261160739 -590082</internalNodes>
          <leafValues>
            -3.7733274698257446e-01 4.5087400078773499e-01</leafValues></_>
        <_>
          <internalNodes>
            0 -1 36 -1421346861 -366412054 -16816139 -463136 1157090815
            -42995719 1206986176 -555354528</internalNodes>
          <leafValues>
            -3.3928358554840088e-01 4.9138057231903076e-01</leafValues></_>
        <_>
          <internalNodes>
            0 -1 46 -552881289 235100036 -1808147370 -460661990
            165337670 -1847686620 1670001860 -252643435</internalNodes>
          <leafValues>
            -4.4119009375572205e-01 3.7694287300109863e-01</leafValues></_>
        <_>
          <internalNodes>
            0 -1 49 -715404150 198088535 827719816 311556292 1378436176
            657631818 -1073659584 1967384467</internalNodes>
          <leafValues>
            -6.3610076904296875e-01 2.6937767863273621e-01</leafValues></_>
        <_>
          <internalNodes>
            0 -1 59 -861343855 -1107671251 -58917509 -72024224
            1232635821 -579436937 -571599658 -823794400</internalNodes>
          <leafValues>
            -3.9015209674835205e-01 4.5531797409057617e-01</leafValues></_>
        <_>
          <internalNodes>
            0 -1 60 -806376653 -1951551494 -1342501005 627781033
            -1904276104 -269521044 -2056779752 -51392575</internalNodes>
          <leafValues>
            -3.7197208404541016e-01 4.6183291077613831e-01</leafValues></_>
        <_>
          <internalNodes>
            0 -1 68 -1474464367 1263538193 269685235 -1199057965
            36212926 -1198946142 -1945617956 -1058748416</internalNodes>
          <leafValues>
            -4.3144902586936951e-01 3.9807713031768799e-01</leafValues></_>
        <_>
          <internalNodes>
            0 -1 48 -359575993 723444038 1367709821 -953777891
            1506218052 -887465983 1728197168 -525074638</internalNodes>
          <leafValues>
            -4.5883154869079590e-01 3.8777247071266174e-01</leafValues></_></weakClassifiers></_>
    <!-- stage 7 -->
    <_>
      <maxWeakCount>10</maxWeakCount>
      <stageThreshold>-8.9255785942077637e-01</stageThreshold>
      <weakClassifiers>
        <_>
          <internalNodes>
            0 -1 62 144454437 1073688061 1073491967 805125631 805273342
            -1074167827 704544591 -1073813569</internalNodes>
          <leafValues>
            -3.2813853025436401e-01 5.4207038879394531e-01</leafValues></_>
        <_>
          <internalNodes>
            0 -1 20 -134217729 -134217733 644591656 -1276662021
            -136937545 819811293 -6006 1676661694</internalNodes>
          <leafValues>
            -4.1185745596885681e-01 4.4856619834899902e-01</leafValues></_>
        <_>
          <internalNodes>
            0 -1 45 -379588609 -355648963 -1311732272 -992156198
            -745962527 -319118199 -166795660 -521885852</internalNodes>
          <leafValues>
            -4.1646021604537964e-01 4.1279640793800354e-01</leafValues></_>
        <_>
          <internalNodes>
            0 -1 80 90193271 603435733 -854491665 -1386572774 447718307
            -67515831 2106764921 -274935108</internalNodes>
          <leafValues>
            -4.0372708439826965e-01 4.1191205382347107e-01</leafValues></_>
        <_>
          <internalNodes>
            0 -1 87 -559981491 -281141881 337230299 -1359939926
            -123713004 -88940207 -47002434 -319752634</internalNodes>
          <leafValues>
            -4.1992962360382080e-01 4.1012731194496155e-01</leafValues></_>
        <_>
          <internalNodes>
            0 -1 28 -797528280 591693184 -1853291256 -75324473 916794754
            589368831 2141172658 1472986039</internalNodes>
          <leafValues>
            -5.8481591939926147e-01 3.2682883739471436e-01</leafValues></_>
        <_>
          <internalNodes>
            0 -1 34 2103282359 1063780341 1839628141 -1342212551
            -1652869255 -12828675 -845218177 2129964945</internalNodes>
          <leafValues>
            -3.9508074522018433e-01 4.6394035220146179e-01</leafValues></_>
        <_>
          <internalNodes>
            0 -1 83 -631344387 2122179013 -636956228 -131403622
            -276293114 -98128723 -118295872 -186582496</internalNodes>
          <leafValues>
            -4.0813285112380981e-01 4.4051557779312134e-01</leafValues></_>
        <_>
          <internalNodes>
            0 -1 47 1189591311 -294916085 1074134767 -493305825
            -171480297 -1516795663 -208940528 -32047491</internalNodes>
          <leafValues>
            -4.4396707415580750e-01 4.2658853530883789e-01</leafValues></_>
        <_>
          <internalNodes>
            0 -1 8 795946047 972609811 1122185365 1996490091 342257831
            2141733263 -381146455 -285685704</internalNodes>
          <leafValues>
            -4.6899184584617615e-01 3.9951312541961670e-01</leafValues></_></weakClassifiers></_>
    <!-- stage 8 -->
    <_>
      <maxWeakCount>12</maxWeakCount>
      <stageThreshold>-7.8006887435913086e-01</stageThreshold>
      <weakClassifiers>
        <_>
          <internalNodes>
            0 -1 26 -179307553 2112878267 599364114 -202688526
            1904137977 1773579581 -134360625 1944581598</internalNodes>
          <leafValues>
            -2.3857143521308899e-01 5.9324008226394653e-01</leafValues></_>
        <_>
          <internalNodes>
            0 -1 54 -8406017 1039875710 -1207992919 1040039645
            2147466942 1844739838 1567597998 2062547647</internalNodes>
          <leafValues>
            -3.2117658853530884e-01 4.8410496115684509e-01</leafValues></_>
        <_>
          <internalNodes>
            0 -1 4 -1562928602 -7617598 -717205121 -973436466 2039347722
            -174667131 -91913233 -1066014365</internalNodes>
          <leafValues>
            -4.4056043028831482e-01 3.5728982090950012e-01</leafValues></_>
        <_>
          <internalNodes>
            0 -1 65 -257141161 -710515138 -1612297425 -839956961
            -1485429539 -570664984 -1124215719 1609833052</internalNodes>
          <leafValues>
            -3.0570343136787415e-01 4.9193876981735229e-01</leafValues></_>
        <_>
          <internalNodes>
            0 -1 55 -392189137 72855980 4212744 1214493199 96701189
            76005955 1372079142 -185079225</internalNodes>
          <leafValues>
            -4.0650105476379395e-01 3.5040259361267090e-01</leafValues></_>
        <_>
          <internalNodes>
            0 -1 63 986068061 891102272 407572932 -1166012415 428673981
            -74808693 2039159452 -32857691</internalNodes>
          <leafValues>
            -4.1467779874801636e-01 3.8839277625083923e-01</leafValues></_>
        <_>
          <internalNodes>
            0 -1 44 -1992236464 -766394348 831019972 1609273364
            323803833 -1472167680 -1375436342 -841635062</internalNodes>
          <leafValues>
            -4.3656054139137268e-01 3.4388267993927002e-01</leafValues></_>
        <_>
          <internalNodes>
            0 -1 84 -437416077 179486641 1073606636 149672459 1862078248
            -672174723 1837042783 -557581177</internalNodes>
          <leafValues>
            -3.1372228264808655e-01 5.0546556711196899e-01</leafValues></_>
        <_>
          <internalNodes>
            0 -1 39 -146276830 -1567194352 1073741886 814190738 89205076
            671091843 2018736510 1904830415</internalNodes>
          <leafValues>
            -5.0309282541275024e-01 3.3049848675727844e-01</leafValues></_>
        <_>
          <internalNodes>
            0 -1 25 -641227806 1375882711 1057030423 784630087
            -234299263 -1526525282 -1300677749 1358139987</internalNodes>
          <leafValues>
            -4.8480567336082458e-01 3.3058270812034607e-01</leafValues></_>
        <_>
          <internalNodes>
            0 -1 0 1375965844 2039584841 69356057 2114064537 -239032188
            -1230286463 155946797 1020988431</internalNodes>
          <leafValues>
            -4.6070158481597900e-01 3.5759058594703674e-01</leafValues></_>
        <_>
          <internalNodes>
            0 -1 37 -929057921 -1468165942 286376210 -700391134
            -250953489 -196902776 -1035858332 -1070347786</internalNodes>
          <leafValues>
            -4.2667236924171448e-01 3.7349832057952881e-01</leafValues></_></weakClassifiers></_>
    <!-- stage 9 -->
    <_>
      <maxWeakCount>12</maxWeakCount>
      <stageThreshold>-7.8028428554534912e-01</stageThreshold>
      <weakClassifiers>
        <_>
          <internalNodes>
            0 -1 7 -135397409 1398734645 1064255032 -33576145 1743736315
            1073245563 -268484689 -262918</internalNodes>
          <leafValues>
            -1.2009237706661224e-01 6.4450865983963013e-01</leafValues></_>
        <_>
          <internalNodes>
            0 -1 66 -803269540 -721303231 419851280 -112877154
            -1872660307 -1625841661 46516715 135253103</internalNodes>
          <leafValues>
            -4.3713238835334778e-01 3.4182581305503845e-01</leafValues></_>
        <_>
          <internalNodes>
            0 -1 58 -1758001701 -176865801 2138962895 1878208187
            1541184699 -1149255715 -698722513 2130494962</internalNodes>
          <leafValues>
            -2.8566205501556396e-01 5.1241290569305420e-01</leafValues></_>
        <_>
          <internalNodes>
            0 -1 27 -152306793 1806090174 -269550123 -548929565
            -1343291409 -39587097 -142874729 -671631498</internalNodes>
          <leafValues>
            -2.8130879998207092e-01 5.0948548316955566e-01</leafValues></_>
        <_>
          <internalNodes>
            0 -1 43 -52201404 1901859600 -1639738729 2040338336
            -1861417770 -322870592 -826372898 -2064190232</internalNodes>
          <leafValues>
            -4.6237844228744507e-01 2.9881465435028076e-01</leafValues></_>
        <_>
          <internalNodes>
            0 -1 40 -889724666 646938971 -1304276602 -1001209856
            73941541 11504779 55206209 1742058143</internalNodes>
          <leafValues>
            -6.1741518974304199e-01 2.4433037638664246e-01</leafValues></_>
        <_>
          <internalNodes>
            0 -1 61 970202785 1069852929 290003200 464070890 46691326
            2139299978 -1962657656 -6312308</internalNodes>
          <leafValues>
            -5.3300678730010986e-01 2.5754249095916748e-01</leafValues></_>
        <_>
          <internalNodes>
            0 -1 35 -664567618 1397122826 -1265444769 -77626602
            -1022385699 -1309081017 -897402705 1901527891</internalNodes>
          <leafValues>
            -3.6604258418083191e-01 3.9593547582626343e-01</leafValues></_>
        <_>
          <internalNodes>
            0 -1 19 -1069093950 -826010319 -2112409509 -1688628452
            -1609389860 -1799845760 302242245 1103209487</internalNodes>
          <leafValues>
            -5.3457719087600708e-01 2.7541720867156982e-01</leafValues></_>
        <_>
          <internalNodes>
            0 -1 86 -403853341 -2132726361 -285216842 -1728778252
            -688435256 1828478975 1660863520 -35140357</internalNodes>
          <leafValues>
            -3.4035006165504456e-01 4.2747840285301208e-01</leafValues></_>
        <_>
          <internalNodes>
            0 -1 88 -1225510699 -1655181858 -2142924368 -1828392828
            403548921 -660567926 1342533654 -1498667928</internalNodes>
          <leafValues>
            -4.2694041132926941e-01 3.3888161182403564e-01</leafValues></_>
        <_>
          <internalNodes>
            0 -1 30 425916405 -1126226187 -1074611953 762006203
            1990023871 -84492305 -866105297 -1194751795</internalNodes>
          <leafValues>
            -2.6081120967864990e-01 5.5082023143768311e-01</leafValues></_></weakClassifiers></_></stages>
  <features>
    <_>
      <rect>
        0 0 10 15</rect></_>
    <_>
      <rect>
        0 1 9 14</rect></_>
    <_>
      <rect>
        0 3 9 14</rect></_>
    <_>
      <rect>
        0 10 9 7</rect></_>
    <_>
      <rect>
        1 1 8 9</rect></_>
    <_>
      <rect>
        1 7 8 7</rect></_>
    <_>
      <rect>
        1 28 8 12</rect></_>
    <_>
      <rect>
        1 32 8 8</rect></_>
    <_>
      <rect>
        1 37 6 9</rect></_>
    <_>
      <rect>
        1 61 2 1</rect></_>
    <_>
      <rect>
        2 9 7 11</rect></_>
    <_>
      <rect>
        2 10 7 17</rect></_>
    <_>
      <rect>
        3 2 6 11</rect></_>
    <_>
      <rect>
        3 7 7 6</rect></_>
    <_>
      <rect>
        3 21 7 14</rect></_>
    <_>
      <rect>
        3 30 6 11</rect></_>
    <_>
      <rect>
        4 0 6 12</rect></_>
    <_>
      <rect>
        4 4 6 10</rect></_>
    <_>
      <rect>
        4 7 4 7</rect></_>
    <_>
      <rect>
        4 8 6 5</rect></_>
    <_>
      <rect>
        4 13 6 8</rect></_>
    <_>
      <rect>
        4 18 6 15</rect></_>
    <_>
      <rect>
        4 24 4 13</rect></_>
    <_>
      <rect>
        4 25 6 7</rect></_>
    <_>
      <rect>
        4 26 6 4</rect></_>
    <_>
      <rect>
        5 4 5 3</rect></_>
    <_>
      <rect>
        5 10 5 13</rect></_>
    <_>
      <rect>
        5 13 2 2</rect></_>
    <_>
      <rect>
        5 30 5 7</rect></_>
    <_>
      <rect>
        5 41 5 6</rect></_>
    <_>
      <rect>
        5 58 3 1</rect></_>
    <_>
      <rect>
        6 13 5 14</rect></_>
    <_>
      <rect>
        6 18 1 1</rect></_>
    <_>
      <rect>
        6 29 2 3</rect></_>
    <_>
      <rect>
        6 59 1 1</rect></_>
    <_>
      <rect>
        7 5 3 3</rect></_>
    <_>
      <rect>
        7 13 1 1</rect></_>
    <_>
      <rect>
        7 16 1 1</rect></_>
    <_>
      <rect>
        7 28 5 12</rect></_>
    <_>
      <rect>
        7 33 2 5</rect></_>
    <_>
      <rect>
        7 34 2 2</rect></_>
    <_>
      <rect>
        7 41 2 1</rect></_>
    <_>
      <rect>
        8 4 3 3</rect></_>
    <_>
      <rect>
        8 6 5 7</rect></_>
    <_>
      <rect>
        8 9 3 4</rect></_>
    <_>
      <rect>
        8 15 1 1</rect></_>
    <_>
      <rect>
        8 17 1 1</rect></_>
    <_>
      <rect>
        8 31 1 1</rect></_>
    <_>
      <rect>
        8 31 1 2</rect></_>
    <_>
      <rect>
        8 39 3 2</rect></_>
    <_>
      <rect>
        8 40 1 1</rect></_>
    <_>
      <rect>
        8 45 5 3</rect></_>
    <_>
      <rect>
        9 16 1 1</rect></_>
    <_>
      <rect>
        9 35 1 3</rect></_>
    <_>
      <rect>
        9 37 4 6</rect></_>
    <_>
      <rect>
        9 38 1 2</rect></_>
    <_>
      <rect>
        9 43 2 4</rect></_>
    <_>
      <rect>
        9 48 1 1</rect></_>
    <_>
      <rect>
        9 61 4 1</rect></_>
    <_>
      <rect>
        10 6 1 1</rect></_>
    <_>
      <rect>
        10 13 5 9</rect></_>
    <_>
      <rect>
        10 45 2 3</rect></_>
    <_>
      <rect>
        10 47 1 2</rect></_>
    <_>
      <rect>
        10 48 1 1</rect></_>
    <_>
      <rect>
        10 48 2 1</rect></_>
    <_>
      <rect>
        10 61 7 1</rect></_>
    <_>
      <rect>
        11 2 3 13</rect></_>
    <_>
      <rect>
        11 6 1 1</rect></_>
    <_>
      <rect>
        11 14 1 2</rect></_>
    <_>
      <rect>
        11 19 6 8</rect></_>
    <_>
      <rect>
        11 33 2 2</rect></_>
    <_>
      <rect>
        11 34 1 1</rect></_>
    <_>
      <rect>
        11 35 1 1</rect></_>
    <_>
      <rect>
        11 37 2 1</rect></_>
    <_>
      <rect>
        11 47 1 2</rect></_>
    <_>
      <rect>
        12 34 2 2</rect></_>
    <_>
      <rect>
        12 35 2 3</rect></_>
    <_>
      <rect>
        12 48 1 1</rect></_>
    <_>
      <rect>
        13 15 1 2</rect></_>
    <_>
      <rect>
        13 39 2 6</rect></_>
    <_>
      <rect>
        13 49 1 1</rect></_>
    <_>
      <rect>
        14 10 2 3</rect></_>
    <_>
      <rect>
        14 15 2 1</rect></_>
    <_>
      <rect>
        15 14 1 1</rect></_>
    <_>
      <rect>
        15 16 2 8</rect></_>
    <_>
      <rect>
        15 17 1 1</rect></_>
    <_>
      <rect>
        15 30 1 2</rect></_>
    <_>
      <rect>
        16 13 1 1</rect></_>
    <_>
      <rect>
        17 44 1 2</rect></_>
    <_>
      <rect>
        23 61 1 1</rect></_>
    <_>
      <rect>
        23 61 3 1</rect></_></features></cascade>
</opencv_storage>
