<?xml version="1.0"?>
<opencv_storage>
<cascade>
  <stageType>BOOST</stageType>
  <featureType>LBP</featureType>
  <height>96</height>
  <width>48</width>
  <stageParams>
    <boostType>GAB</boostType>
    <minHitRate>9.9900001287460327e-01</minHitRate>
    <maxFalseAlarm>5.0000000000000000e-01</maxFalseAlarm>
    <weightTrimRate>9.4999999999999996e-01</weightTrimRate>
    <maxDepth>1</maxDepth>
    <maxWeakCount>100</maxWeakCount></stageParams>
  <featureParams>
    <maxCatCount>256</maxCatCount>
    <featSize>1</featSize></featureParams>
  <stageNum>10</stageNum>
  <stages>
    <!-- stage 0 -->
    <_>
      <maxWeakCount>3</maxWeakCount>
      <stageThreshold>-8.6583858728408813e-01</stageThreshold>
      <weakClassifiers>
        <_>
          <internalNodes>
            0 -1 10 3081874 1151648 65554 353566871 272708386 257
            273219739 2145386239</internalNodes>
          <leafValues>
            -7.7020448446273804e-01 7.4825745820999146e-01</leafValues></_>
        <_>
          <internalNodes>
            0 -1 16 268927554 1342296194 1114128 1642053635 -2147252038
            -2012610559 268616091 1346884339</internalNodes>
          <leafValues>
            -6.6285610198974609e-01 6.6865038871765137e-01</leafValues></_>
        <_>
          <internalNodes>
            0 -1 25 89242391 387416067 67 65930 142680258 536936599
            335781963 1937505151</internalNodes>
          <leafValues>
            -5.7438623905181885e-01 5.6722193956375122e-01</leafValues></_></weakClassifiers></_>
    <!-- stage 1 -->
    <_>
      <maxWeakCount>7</maxWeakCount>
      <stageThreshold>-1.4655189514160156e+00</stageThreshold>
      <weakClassifiers>
        <_>
          <internalNodes>
            0 -1 5 527937439 682606383 953617778 494871991 95756151
            74522427 1551790079 1607466491</internalNodes>
          <leafValues>
            -5.1036679744720459e-01 7.5678122043609619e-01</leafValues></_>
        <_>
          <internalNodes>
            0 -1 17 -260049950 -253526080 1990529755 -772163229
            -50857782 -1370423948 -187308145 -254282357</internalNodes>
          <leafValues>
            -3.7028810381889343e-01 6.8633431196212769e-01</leafValues></_>
        <_>
          <internalNodes>
            0 -1 13 2002722047 859815229 771633064 930066367 8064491
            224149311 2139078139 -69216257</internalNodes>
          <leafValues>
            -4.4049137830734253e-01 6.0979962348937988e-01</leafValues></_>
        <_>
          <internalNodes>
            0 -1 90 -292554577 -1442281465 -1269742460 -531705767
            -791951804 1900178013 -1702196860 -462094832</internalNodes>
          <leafValues>
            -5.3729677200317383e-01 4.6338751912117004e-01</leafValues></_>
        <_>
          <internalNodes>
            0 -1 26 1162061850 296452225 657408 1133351070 319012864
            302653441 1145647306 1397725787</internalNodes>
          <leafValues>
            -6.1155652999877930e-01 3.9465564489364624e-01</leafValues></_>
        <_>
          <internalNodes>
            0 -1 39 -873872598 -112637574 -2146377718 291701120
            294407049 838402336 1619143071 1665118839</internalNodes>
          <leafValues>
            -5.0015300512313843e-01 4.7302457690238953e-01</leafValues></_>
        <_>
          <internalNodes>
            0 -1 72 854012063 206801947 1090912514 -1923907442 45099525
            -2113224056 270008514 -71341713</internalNodes>
          <leafValues>
            -5.4634159803390503e-01 4.4863322377204895e-01</leafValues></_></weakClassifiers></_>
    <!-- stage 2 -->
    <_>
      <maxWeakCount>8</maxWeakCount>
      <stageThreshold>-1.0074988603591919e+00</stageThreshold>
      <weakClassifiers>
        <_>
          <internalNodes>
            0 -1 12 1702342580 1065319359 711603391 863477759 2147444671
            293026551 935274431 2147482111</internalNodes>
          <leafValues>
            -4.5583039522171021e-01 6.6409599781036377e-01</leafValues></_>
        <_>
          <internalNodes>
            0 -1 71 771731391 859704894 1005225886 289942561 914323255
            1061117823 -1224788557 -268443665</internalNodes>
          <leafValues>
            -4.1516697406768799e-01 5.3351193666458130e-01</leafValues></_>
        <_>
          <internalNodes>
            0 -1 4 1976008834 -250310194 268435543 -2944964 -2146754342
            -291946258 -669405446 63676043</internalNodes>
          <leafValues>
            -4.8959451913833618e-01 4.9407151341438293e-01</leafValues></_>
        <_>
          <internalNodes>
            0 -1 34 -363858497 33609728 -788475496 -801704730 -750324935
            773327801 -1431571723 -990515440</internalNodes>
          <leafValues>
            -4.5520421862602234e-01 5.0868237018585205e-01</leafValues></_>
        <_>
          <internalNodes>
            0 -1 57 -291766981 -1400441957 -1999721740 679772198
            -39185083 2116520042 -89771660 -965580492</internalNodes>
          <leafValues>
            -5.6586915254592896e-01 3.6419641971588135e-01</leafValues></_>
        <_>
          <internalNodes>
            0 -1 76 315505021 937836409 -1107349505 1060906173 536636543
            -163873 -1392759620 -25628771</internalNodes>
          <leafValues>
            -4.3811315298080444e-01 5.0468170642852783e-01</leafValues></_>
        <_>
          <internalNodes>
            0 -1 79 -138416377 150423769 69142800 586404229 1640946015
            1076660355 -441897649 -201327637</internalNodes>
          <leafValues>
            -4.6327602863311768e-01 5.0058233737945557e-01</leafValues></_>
        <_>
          <internalNodes>
            0 -1 69 -1904595693 102051856 -2112876039 -1094795218
            -1622107968 -544569241 -307443036 -1405091503</internalNodes>
          <leafValues>
            -5.6707549095153809e-01 4.0718251466751099e-01</leafValues></_></weakClassifiers></_>
    <!-- stage 3 -->
    <_>
      <maxWeakCount>8</maxWeakCount>
      <stageThreshold>-1.1574753522872925e+00</stageThreshold>
      <weakClassifiers>
        <_>
          <internalNodes>
            0 -1 14 1577053119 924309307 1333243494 1468006199 662508819
            104138099 1740455770 2145376255</internalNodes>
          <leafValues>
            -3.3195877075195313e-01 7.5435107946395874e-01</leafValues></_>
        <_>
          <internalNodes>
            0 -1 2 1356169378 1042903129 1073811485 1400094787
            -1996431214 -536838111 1762377947 1398003691</internalNodes>
          <leafValues>
            -4.9547913670539856e-01 5.6718385219573975e-01</leafValues></_>
        <_>
          <internalNodes>
            0 -1 61 -489691646 44290058 -2146861056 1112133635
            1120028931 1073793034 1116195783 2001726399</internalNodes>
          <leafValues>
            -6.3083481788635254e-01 4.2456078529357910e-01</leafValues></_>
        <_>
          <internalNodes>
            0 -1 38 -902866933 570626304 -2130681850 1314369557
            -1849434109 555909760 1141041167 1715728998</internalNodes>
          <leafValues>
            -5.2753275632858276e-01 4.3473881483078003e-01</leafValues></_>
        <_>
          <internalNodes>
            0 -1 41 -286265745 -1509697975 -108519360 -527437610
            1770611205 621512499 -792215520 -151787137</internalNodes>
          <leafValues>
            -5.8200943470001221e-01 4.2287731170654297e-01</leafValues></_>
        <_>
          <internalNodes>
            0 -1 33 -184299358 -785022653 274768157 1971274243 545886603
            176881792 1372217774 322406587</internalNodes>
          <leafValues>
            -4.9752381443977356e-01 5.0064784288406372e-01</leafValues></_>
        <_>
          <internalNodes>
            0 -1 30 1254951858 935676419 1358954587 864092211 1260613666
            235028565 1108427171 1464848495</internalNodes>
          <leafValues>
            -6.2592458724975586e-01 4.0131220221519470e-01</leafValues></_>
        <_>
          <internalNodes>
            0 -1 65 -33554617 -415240205 1124002478 -252184657
            2002773838 1937735549 -67677 -168823041</internalNodes>
          <leafValues>
            -4.5389208197593689e-01 5.4150342941284180e-01</leafValues></_></weakClassifiers></_>
    <!-- stage 4 -->
    <_>
      <maxWeakCount>10</maxWeakCount>
      <stageThreshold>-8.5884958505630493e-01</stageThreshold>
      <weakClassifiers>
        <_>
          <internalNodes>
            0 -1 1 1350017674 -1242569998 1039563001 1400322803
            1886909112 -3082 1971237627 326053979</internalNodes>
          <leafValues>
            -4.3589743971824646e-01 6.0195755958557129e-01</leafValues></_>
        <_>
          <internalNodes>
            0 -1 6 1835761599 1002419579 1275051605 2100164591
            2109163455 1641381428 -1074266641 -262689</internalNodes>
          <leafValues>
            -3.7884253263473511e-01 5.9430348873138428e-01</leafValues></_>
        <_>
          <internalNodes>
            0 -1 89 -1375734897 776924783 -1090601135 180514604
            903293199 1576460285 -168602156 -285216777</internalNodes>
          <leafValues>
            -3.8577058911323547e-01 4.9869009852409363e-01</leafValues></_>
        <_>
          <internalNodes>
            0 -1 28 -761926974 -144410634 -940441743 -167903246
            -574572904 -923500576 -1552548642 -175838385</internalNodes>
          <leafValues>
            -4.1321587562561035e-01 4.7574320435523987e-01</leafValues></_>
        <_>
          <internalNodes>
            0 -1 70 -1438781681 177339151 -1866414657 -362417805
            1250805521 -1962183989 -73482186 -160643764</internalNodes>
          <leafValues>
            -4.4447928667068481e-01 4.4674035906791687e-01</leafValues></_>
        <_>
          <internalNodes>
            0 -1 75 50989365 310137089 498532763 -1416277613 -1408562424
            -1448933309 -905096341 -2188641</internalNodes>
          <leafValues>
            -4.9997371435165405e-01 4.2034807801246643e-01</leafValues></_>
        <_>
          <internalNodes>
            0 -1 18 -1049636768 2116923179 1056914229 -1419268106
            1172247584 -33620098 342968219 -337650833</internalNodes>
          <leafValues>
            -4.4421666860580444e-01 4.5782890915870667e-01</leafValues></_>
        <_>
          <internalNodes>
            0 -1 80 1590944335 -473755648 -532489973 1177661446 8510747
            -896827310 -1341920410 1625748164</internalNodes>
          <leafValues>
            -5.6882005929946899e-01 3.8328132033348083e-01</leafValues></_>
        <_>
          <internalNodes>
            0 -1 44 -609243725 -332988552 -1107298477 -676528590
            -1962975363 -1368162322 1610544356 -369761168</internalNodes>
          <leafValues>
            -3.8984858989715576e-01 5.1404780149459839e-01</leafValues></_>
        <_>
          <internalNodes>
            0 -1 62 220281693 63050201 -576592483 1003561679 1892550845
            -375830007 -1668723749 -1343263660</internalNodes>
          <leafValues>
            -4.8274603486061096e-01 4.1419932246208191e-01</leafValues></_></weakClassifiers></_>
    <!-- stage 5 -->
    <_>
      <maxWeakCount>10</maxWeakCount>
      <stageThreshold>-8.2206362485885620e-01</stageThreshold>
      <weakClassifiers>
        <_>
          <internalNodes>
            0 -1 24 -581436945 66842559 2013260734 -671372555 1440044815
            57047039 2095574459 2013265775</internalNodes>
          <leafValues>
            -2.9846152663230896e-01 6.5650969743728638e-01</leafValues></_>
        <_>
          <internalNodes>
            0 -1 29 2105491439 1069400063 -1359007745 732344183 66393333
            796684030 -50305 -33557</internalNodes>
          <leafValues>
            -4.0095335245132446e-01 5.4184585809707642e-01</leafValues></_>
        <_>
          <internalNodes>
            0 -1 0 -459804446 -68709485 335661183 -141560303 -250639932
            -123603528 -225859848 1962015972</internalNodes>
          <leafValues>
            -5.8156090974807739e-01 4.0673759579658508e-01</leafValues></_>
        <_>
          <internalNodes>
            0 -1 77 576194933 935614279 -1224650421 -1342467813
            -1165010561 -71708318 -291604101 -1344783744</internalNodes>
          <leafValues>
            -5.5240821838378906e-01 3.5955253243446350e-01</leafValues></_>
        <_>
          <internalNodes>
            0 -1 82 -807409089 552708151 -1360114115 -1590074582
            1115489967 150978284 1625886264 -303043753</internalNodes>
          <leafValues>
            -3.4988999366760254e-01 6.0465133190155029e-01</leafValues></_>
        <_>
          <internalNodes>
            0 -1 93 1340503823 2113798139 -328335441 -839148113
            -1593837730 -1 -134354097 1825044103</internalNodes>
          <leafValues>
            -4.3597799539566040e-01 5.0582563877105713e-01</leafValues></_>
        <_>
          <internalNodes>
            0 -1 55 -956898369 -121308290 -758711809 -1409228158
            -536197930 1756998273 -118588480 -924820332</internalNodes>
          <leafValues>
            -4.7075304388999939e-01 4.4757065176963806e-01</leafValues></_>
        <_>
          <internalNodes>
            0 -1 60 -1962949101 235541634 -349973562 -1370052573
            1089929829 745289827 688485121 -102243481</internalNodes>
          <leafValues>
            -4.8205068707466125e-01 4.4297146797180176e-01</leafValues></_>
        <_>
          <internalNodes>
            0 -1 35 -218104133 -1938620738 -1577129363 -492159184
            -505123323 -276824067 -193040624 -466092717</internalNodes>
          <leafValues>
            -4.2074063420295715e-01 4.6449187397956848e-01</leafValues></_>
        <_>
          <internalNodes>
            0 -1 46 328279319 982823121 1712050527 952224924 2022904253
            -1821736800 -2027945632 -1092862096</internalNodes>
          <leafValues>
            -4.9975541234016418e-01 4.0153440833091736e-01</leafValues></_></weakClassifiers></_>
    <!-- stage 6 -->
    <_>
      <maxWeakCount>10</maxWeakCount>
      <stageThreshold>-8.2717305421829224e-01</stageThreshold>
      <weakClassifiers>
        <_>
          <internalNodes>
            0 -1 8 2012216286 1942867963 861807608 465153983 1423835119
            288695998 1994358207 1977588735</internalNodes>
          <leafValues>
            -3.3037298917770386e-01 6.0085469484329224e-01</leafValues></_>
        <_>
          <internalNodes>
            0 -1 52 -1070162 966234906 956695688 1058459907 2034979835
            2097750150 1216611215 517991407</internalNodes>
          <leafValues>
            -4.2806094884872437e-01 4.3939161300659180e-01</leafValues></_>
        <_>
          <internalNodes>
            0 -1 42 -1024460286 -1068444662 1149567632 -506222746
            1090680577 33751041 380325923 1702230383</internalNodes>
          <leafValues>
            -5.6773900985717773e-01 3.1063917279243469e-01</leafValues></_>
        <_>
          <internalNodes>
            0 -1 11 -683574774 -78016422 1426919967 -707012581
            -972953366 -930054111 -2054192917 -190710121</internalNodes>
          <leafValues>
            -4.6556228399276733e-01 3.8391834497451782e-01</leafValues></_>
        <_>
          <internalNodes>
            0 -1 94 -800529409 -1211383558 -8726549 1797643919
            2104946620 -779550 993430138 1603059471</internalNodes>
          <leafValues>
            -3.1782618165016174e-01 5.8145165443420410e-01</leafValues></_>
        <_>
          <internalNodes>
            0 -1 50 -262757278 -583514111 1348551109 -104431149
            -1526556529 -1039447414 -1693859173 14016515</internalNodes>
          <leafValues>
            -4.5591661334037781e-01 3.7606471776962280e-01</leafValues></_>
        <_>
          <internalNodes>
            0 -1 66 -1027609050 47800599 -671072254 1935250707
            -645154693 1980551651 1515047598 2079322095</internalNodes>
          <leafValues>
            -4.4035398960113525e-01 3.8673463463783264e-01</leafValues></_>
        <_>
          <internalNodes>
            0 -1 74 968725431 296893237 1052684023 -1141543437
            2130638229 905133428 -25347925 -1077953709</internalNodes>
          <leafValues>
            -3.6967566609382629e-01 4.8722979426383972e-01</leafValues></_>
        <_>
          <internalNodes>
            0 -1 27 -1032389786 -792571882 -1474035247 -498909054
            1111525619 1501921989 25167378 1160243459</internalNodes>
          <leafValues>
            -4.4717049598693848e-01 3.8984635472297668e-01</leafValues></_>
        <_>
          <internalNodes>
            0 -1 83 -1037317845 1079665766 2029815354 12582693
            -1007204864 678559573 -1116781482 -1007424545</internalNodes>
          <leafValues>
            -3.7498646974563599e-01 4.7861811518669128e-01</leafValues></_></weakClassifiers></_>
    <!-- stage 7 -->
    <_>
      <maxWeakCount>13</maxWeakCount>
      <stageThreshold>-8.7309318780899048e-01</stageThreshold>
      <weakClassifiers>
        <_>
          <internalNodes>
            0 -1 22 -68159521 -34870339 587044407 1677124281 -8393313
            247342136 -67146246 2147476911</internalNodes>
          <leafValues>
            -1.0785462707281113e-01 6.9204545021057129e-01</leafValues></_>
        <_>
          <internalNodes>
            0 -1 85 -939528217 544712430 -872539422 1185918895
            1736172821 1080980839 -142606491 -438566961</internalNodes>
          <leafValues>
            -3.6453762650489807e-01 4.2222756147384644e-01</leafValues></_>
        <_>
          <internalNodes>
            0 -1 78 -541353993 -209899723 -17830859 -262996821
            -654387436 -25960548 -2064218108 -789054797</internalNodes>
          <leafValues>
            -3.4361875057220459e-01 4.5780450105667114e-01</leafValues></_>
        <_>
          <internalNodes>
            0 -1 36 2109710034 469310848 1160786130 1469677578
            1518811576 262144953 1764479471 1567423179</internalNodes>
          <leafValues>
            -4.8921141028404236e-01 3.1103423237800598e-01</leafValues></_>
        <_>
          <internalNodes>
            0 -1 48 -1263013369 2072500803 -1850752377 -1479196899
            1216936877 -36851509 1276764943 1873664586</internalNodes>
          <leafValues>
            -3.9580857753753662e-01 4.0694278478622437e-01</leafValues></_>
        <_>
          <internalNodes>
            0 -1 23 -322251178 -221217868 972058417 -2490623 1962061563
            -7995404 -394494575 -193638589</internalNodes>
          <leafValues>
            -4.0151488780975342e-01 4.1779735684394836e-01</leafValues></_>
        <_>
          <internalNodes>
            0 -1 51 1737484550 580251757 -1590257658 -770484082
            1611817479 475172956 -393528011 1892743979</internalNodes>
          <leafValues>
            -5.8018219470977783e-01 2.4960133433341980e-01</leafValues></_>
        <_>
          <internalNodes>
            0 -1 37 -919600651 -713134343 784199407 569944947
            -1211900503 -337699038 1266125675 1067292078</internalNodes>
          <leafValues>
            -3.6544460058212280e-01 4.5167270302772522e-01</leafValues></_>
        <_>
          <internalNodes>
            0 -1 49 -401331048 -1281833550 -754920323 924949405
            -1869911816 -1620901792 -499121762 292894626</internalNodes>
          <leafValues>
            -5.0469040870666504e-01 3.2937899231910706e-01</leafValues></_>
        <_>
          <internalNodes>
            0 -1 31 -35915009 2142578655 536833903 1065286636 1199513336
            1018443709 -1476444244 -4720641</internalNodes>
          <leafValues>
            -2.8296115994453430e-01 5.9673368930816650e-01</leafValues></_>
        <_>
          <internalNodes>
            0 -1 63 423695207 1597451767 -1631701771 2104687311
            532092909 -50954369 -1637918754 -810531003</internalNodes>
          <leafValues>
            -2.7166357636451721e-01 5.4652136564254761e-01</leafValues></_>
        <_>
          <internalNodes>
            0 -1 59 -302020086 1115158443 -134617266 -407011573
            -707826227 115338095 -136343991 -1226967409</internalNodes>
          <leafValues>
            -3.8293439149856567e-01 4.6161016821861267e-01</leafValues></_>
        <_>
          <internalNodes>
            0 -1 81 1384498943 1812170144 1229012994 -2113485791
            346116867 -1716314094 -2091520830 -1463303613</internalNodes>
          <leafValues>
            -4.2361986637115479e-01 4.2015847563743591e-01</leafValues></_></weakClassifiers></_>
    <!-- stage 8 -->
    <_>
      <maxWeakCount>14</maxWeakCount>
      <stageThreshold>-1.3279559612274170e+00</stageThreshold>
      <weakClassifiers>
        <_>
          <internalNodes>
            0 -1 45 792707007 326974769 -49155 -1073897474 -1107533921
            2111340538 -276971521 -536870913</internalNodes>
          <leafValues>
            -1.6322451829910278e-01 6.5089058876037598e-01</leafValues></_>
        <_>
          <internalNodes>
            0 -1 7 -144706569 -1625896161 1342243328 -417538006
            -305149249 363012688 1133625422 846942859</internalNodes>
          <leafValues>
            -4.3092775344848633e-01 3.7081211805343628e-01</leafValues></_>
        <_>
          <internalNodes>
            0 -1 53 917288057 397733716 1845295625 -805356167
            -1080630885 -105629705 1270562379 1058150989</internalNodes>
          <leafValues>
            -3.2225087285041809e-01 4.4192114472389221e-01</leafValues></_>
        <_>
          <internalNodes>
            0 -1 47 283122489 933180397 -538043597 -72405903 532131035
            -17371314 -499976769 -1074275457</internalNodes>
          <leafValues>
            -3.0705788731575012e-01 4.8031386733055115e-01</leafValues></_>
        <_>
          <internalNodes>
            0 -1 86 -810553397 -543526993 -470979626 -2085639262
            1306596249 -843059247 -378321080 -304875773</internalNodes>
          <leafValues>
            -3.1529495120048523e-01 4.7741633653640747e-01</leafValues></_>
        <_>
          <internalNodes>
            0 -1 64 -496313536 -929208057 -1727970928 -3874768 168009463
            -632815612 -515638480 -991902684</internalNodes>
          <leafValues>
            -4.7064891457557678e-01 3.2439288496971130e-01</leafValues></_>
        <_>
          <internalNodes>
            0 -1 88 -218132969 2003160631 1056767857 1891303292
            -537010362 -1083801801 -1124142086 -536543420</internalNodes>
          <leafValues>
            -3.6104097962379456e-01 4.3569633364677429e-01</leafValues></_>
        <_>
          <internalNodes>
            0 -1 15 123183631 -807423725 1224784353 1866678579
            1078567579 -125005693 -729251285 1213454886</internalNodes>
          <leafValues>
            -4.2762655019760132e-01 3.5625252127647400e-01</leafValues></_>
        <_>
          <internalNodes>
            0 -1 9 -734005737 1059569442 -1392607617 405956353
            1681858060 1971058557 -153623473 -999038458</internalNodes>
          <leafValues>
            -3.5499200224876404e-01 4.4485920667648315e-01</leafValues></_>
        <_>
          <internalNodes>
            0 -1 54 -51977468 -1179467040 -1559753705 -653278201
            -1796826441 -2063044605 -300754277 13988039</internalNodes>
          <leafValues>
            -4.7608080506324768e-01 3.5280233621597290e-01</leafValues></_>
        <_>
          <internalNodes>
            0 -1 56 -900993374 16064655 1426159624 -1311483532
            1108947870 1048711 -266256080 1090110731</internalNodes>
          <leafValues>
            -5.8434611558914185e-01 2.8969332575798035e-01</leafValues></_>
        <_>
          <internalNodes>
            0 -1 43 -800096716 -1756302053 1082606833 -43836269
            -916539174 -54226408 -1878262785 -1606423869</internalNodes>
          <leafValues>
            -4.1335323452949524e-01 4.1737735271453857e-01</leafValues></_>
        <_>
          <internalNodes>
            0 -1 3 67805447 -30847876 369120031 1229934691 1360749563
            696781841 -1073555300 -804917212</internalNodes>
          <leafValues>
            -4.4865328073501587e-01 3.5657718777656555e-01</leafValues></_>
        <_>
          <internalNodes>
            0 -1 19 705110257 -242085349 151201741 -1482715115
            -1014331202 -99975013 981518395 230559992</internalNodes>
          <leafValues>
            -3.6610662937164307e-01 4.8187220096588135e-01</leafValues></_></weakClassifiers></_>
    <!-- stage 9 -->
    <_>
      <maxWeakCount>12</maxWeakCount>
      <stageThreshold>-8.3842235803604126e-01</stageThreshold>
      <weakClassifiers>
        <_>
          <internalNodes>
            0 -1 67 939498671 804560875 901758395 720150198 1069496307
            485850976 1978646495 -8465</internalNodes>
          <leafValues>
            -1.4953933656215668e-01 6.0583943128585815e-01</leafValues></_>
        <_>
          <internalNodes>
            0 -1 40 -140519509 1806692204 2147434224 -188829776
            -268841003 1315962733 -25168432 -705306671</internalNodes>
          <leafValues>
            -3.0012822151184082e-01 4.8131278157234192e-01</leafValues></_>
        <_>
          <internalNodes>
            0 -1 32 762812191 2013265831 1979677445 1195274021
            -956307473 -1147635 -797971697 1757327142</internalNodes>
          <leafValues>
            -3.5648813843727112e-01 4.6226400136947632e-01</leafValues></_>
        <_>
          <internalNodes>
            0 -1 92 226448565 -2023586787 -377252897 -1374273124
            1140882623 -35422038 -1436422708 -1398244736</internalNodes>
          <leafValues>
            -4.1457390785217285e-01 3.6155781149864197e-01</leafValues></_>
        <_>
          <internalNodes>
            0 -1 84 -526385241 21479775 -889148768 1116032075 -753966321
            1904331283 -724898986 -422580481</internalNodes>
          <leafValues>
            -4.1467949748039246e-01 3.5903126001358032e-01</leafValues></_>
        <_>
          <internalNodes>
            0 -1 91 -144183185 -788013025 -2083371453 -457913591
            -790214588 -230555391 -186129892 -1066108096</internalNodes>
          <leafValues>
            -4.3184614181518555e-01 3.7920925021171570e-01</leafValues></_>
        <_>
          <internalNodes>
            0 -1 68 1912867637 -255355823 -2129554757 -1618715113
            2077303221 -36851575 -1978486630 -1971294048</internalNodes>
          <leafValues>
            -4.1105341911315918e-01 3.9779022336006165e-01</leafValues></_>
        <_>
          <internalNodes>
            0 -1 21 -1750957434 -212193070 25499803 -1210613357
            -1845430050 1369591010 763840557 1460867603</internalNodes>
          <leafValues>
            -5.1402038335800171e-01 3.5034272074699402e-01</leafValues></_>
        <_>
          <internalNodes>
            0 -1 58 576146983 1615463255 -1425568555 -493983474 23033397
            122212586 1493254756 -1427228384</internalNodes>
          <leafValues>
            -5.4776883125305176e-01 2.8854700922966003e-01</leafValues></_>
        <_>
          <internalNodes>
            0 -1 20 335413021 1609166551 -1677971607 -1444200914
            267086266 -33763468 -1644857489 2057269133</internalNodes>
          <leafValues>
            -3.4577152132987976e-01 4.8775190114974976e-01</leafValues></_>
        <_>
          <internalNodes>
            0 -1 73 445913933 983197078 -268303985 529019408 705704669
            422256640 575998120 -1164230934</internalNodes>
          <leafValues>
            -4.7245037555694580e-01 3.6986359953880310e-01</leafValues></_>
        <_>
          <internalNodes>
            0 -1 87 -272976275 248963865 -1060408878 -1597459965
            679750213 685482761 -1378715583 -529046169</internalNodes>
          <leafValues>
            -4.9887728691101074e-01 3.3519852161407471e-01</leafValues></_></weakClassifiers></_></stages>
  <features>
    <_>
      <rect>
        0 9 13 11</rect></_>
    <_>
      <rect>
        1 0 12 23</rect></_>
    <_>
      <rect>
        1 2 12 21</rect></_>
    <_>
      <rect>
        2 0 13 13</rect></_>
    <_>
      <rect>
        2 1 13 21</rect></_>
    <_>
      <rect>
        3 18 10 26</rect></_>
    <_>
      <rect>
        3 47 10 16</rect></_>
    <_>
      <rect>
        4 20 10 10</rect></_>
    <_>
      <rect>
        4 24 10 18</rect></_>
    <_>
      <rect>
        4 27 5 11</rect></_>
    <_>
      <rect>
        4 31 10 21</rect></_>
    <_>
      <rect>
        5 7 10 10</rect></_>
    <_>
      <rect>
        5 16 10 24</rect></_>
    <_>
      <rect>
        5 40 9 18</rect></_>
    <_>
      <rect>
        5 49 10 14</rect></_>
    <_>
      <rect>
        5 93 1 1</rect></_>
    <_>
      <rect>
        6 0 9 18</rect></_>
    <_>
      <rect>
        6 9 9 11</rect></_>
    <_>
      <rect>
        6 40 5 10</rect></_>
    <_>
      <rect>
        6 88 5 2</rect></_>
    <_>
      <rect>
        6 92 4 1</rect></_>
    <_>
      <rect>
        7 1 6 19</rect></_>
    <_>
      <rect>
        7 10 8 24</rect></_>
    <_>
      <rect>
        7 15 6 6</rect></_>
    <_>
      <rect>
        7 43 8 6</rect></_>
    <_>
      <rect>
        8 11 8 27</rect></_>
    <_>
      <rect>
        8 12 8 20</rect></_>
    <_>
      <rect>
        8 13 4 11</rect></_>
    <_>
      <rect>
        8 15 7 6</rect></_>
    <_>
      <rect>
        8 58 5 9</rect></_>
    <_>
      <rect>
        8 58 7 9</rect></_>
    <_>
      <rect>
        9 61 3 7</rect></_>
    <_>
      <rect>
        9 93 2 1</rect></_>
    <_>
      <rect>
        10 8 6 4</rect></_>
    <_>
      <rect>
        10 22 1 1</rect></_>
    <_>
      <rect>
        10 22 2 3</rect></_>
    <_>
      <rect>
        10 47 6 13</rect></_>
    <_>
      <rect>
        10 88 3 2</rect></_>
    <_>
      <rect>
        10 93 1 1</rect></_>
    <_>
      <rect>
        11 10 5 3</rect></_>
    <_>
      <rect>
        11 22 1 1</rect></_>
    <_>
      <rect>
        11 47 2 1</rect></_>
    <_>
      <rect>
        11 52 3 5</rect></_>
    <_>
      <rect>
        12 15 7 5</rect></_>
    <_>
      <rect>
        12 21 1 1</rect></_>
    <_>
      <rect>
        12 42 7 18</rect></_>
    <_>
      <rect>
        12 70 1 1</rect></_>
    <_>
      <rect>
        12 71 6 3</rect></_>
    <_>
      <rect>
        12 93 2 1</rect></_>
    <_>
      <rect>
        13 4 4 7</rect></_>
    <_>
      <rect>
        13 7 4 3</rect></_>
    <_>
      <rect>
        13 50 3 3</rect></_>
    <_>
      <rect>
        13 60 4 6</rect></_>
    <_>
      <rect>
        13 88 8 2</rect></_>
    <_>
      <rect>
        14 5 4 5</rect></_>
    <_>
      <rect>
        14 22 1 2</rect></_>
    <_>
      <rect>
        14 55 5 5</rect></_>
    <_>
      <rect>
        15 28 1 1</rect></_>
    <_>
      <rect>
        15 47 1 2</rect></_>
    <_>
      <rect>
        15 50 3 5</rect></_>
    <_>
      <rect>
        15 52 1 2</rect></_>
    <_>
      <rect>
        15 52 3 3</rect></_>
    <_>
      <rect>
        15 71 1 2</rect></_>
    <_>
      <rect>
        15 73 3 1</rect></_>
    <_>
      <rect>
        16 11 1 1</rect></_>
    <_>
      <rect>
        16 59 3 1</rect></_>
    <_>
      <rect>
        17 44 4 7</rect></_>
    <_>
      <rect>
        17 59 5 10</rect></_>
    <_>
      <rect>
        18 9 1 1</rect></_>
    <_>
      <rect>
        18 10 1 1</rect></_>
    <_>
      <rect>
        18 47 1 1</rect></_>
    <_>
      <rect>
        18 50 4 15</rect></_>
    <_>
      <rect>
        18 65 2 6</rect></_>
    <_>
      <rect>
        18 70 2 2</rect></_>
    <_>
      <rect>
        18 70 4 3</rect></_>
    <_>
      <rect>
        18 71 1 4</rect></_>
    <_>
      <rect>
        18 72 1 1</rect></_>
    <_>
      <rect>
        18 72 1 2</rect></_>
    <_>
      <rect>
        19 20 4 4</rect></_>
    <_>
      <rect>
        19 51 2 2</rect></_>
    <_>
      <rect>
        19 93 4 1</rect></_>
    <_>
      <rect>
        20 18 6 10</rect></_>
    <_>
      <rect>
        20 22 4 15</rect></_>
    <_>
      <rect>
        20 47 2 7</rect></_>
    <_>
      <rect>
        20 49 2 2</rect></_>
    <_>
      <rect>
        20 53 2 2</rect></_>
    <_>
      <rect>
        21 21 5 10</rect></_>
    <_>
      <rect>
        21 58 1 2</rect></_>
    <_>
      <rect>
        22 21 1 1</rect></_>
    <_>
      <rect>
        23 46 1 1</rect></_>
    <_>
      <rect>
        24 23 1 1</rect></_>
    <_>
      <rect>
        24 23 1 2</rect></_>
    <_>
      <rect>
        24 71 1 1</rect></_>
    <_>
      <rect>
        29 93 1 1</rect></_>
    <_>
      <rect>
        38 90 3 2</rect></_></features></cascade>
</opencv_storage>
