<?xml version="1.0"?>
<opencv_storage>
<cascade>
  <stageType>BOOST</stageType>
  <featureType>LBP</featureType>
  <height>40</height>
  <width>20</width>
  <stageParams>
    <boostType>GAB</boostType>
    <minHitRate>9.9900001287460327e-01</minHitRate>
    <maxFalseAlarm>5.0000000000000000e-01</maxFalseAlarm>
    <weightTrimRate>9.4999999999999996e-01</weightTrimRate>
    <maxDepth>1</maxDepth>
    <maxWeakCount>100</maxWeakCount></stageParams>
  <featureParams>
    <maxCatCount>256</maxCatCount>
    <featSize>1</featSize></featureParams>
  <stageNum>12</stageNum>
  <stages>
    <!-- stage 0 -->
    <_>
      <maxWeakCount>6</maxWeakCount>
      <stageThreshold>-9.9033862352371216e-01</stageThreshold>
      <weakClassifiers>
        <_>
          <internalNodes>
            0 -1 38 901065726 104278911 192874042 1064117995 75373367
            292828991 436022971 2147483647</internalNodes>
          <leafValues>
            -6.8530803918838501e-01 7.3425436019897461e-01</leafValues></_>
        <_>
          <internalNodes>
            0 -1 21 -741350694 -219679514 872346361 838284147
            -1275332646 75067766 1895772782 1398272203</internalNodes>
          <leafValues>
            -5.0228083133697510e-01 6.7771112918853760e-01</leafValues></_>
        <_>
          <internalNodes>
            0 -1 141 -487592414 576859695 771682022 13278754 1719602725
            99057525 1744009031 -470818897</internalNodes>
          <leafValues>
            -5.3208971023559570e-01 5.8839863538742065e-01</leafValues></_>
        <_>
          <internalNodes>
            0 -1 10 -1327042462 2095578996 -788555155 -235407791
            -1191250453 -191828027 -218238213 -520883893</internalNodes>
          <leafValues>
            -4.8869144916534424e-01 6.2126070261001587e-01</leafValues></_>
        <_>
          <internalNodes>
            0 -1 84 -932185722 49752224 1325270664 -218760208 341279490
            1081441591 627425554 -671090769</internalNodes>
          <leafValues>
            -4.4064754247665405e-01 6.6817557811737061e-01</leafValues></_>
        <_>
          <internalNodes>
            0 -1 91 156247959 944980552 -603717486 1895891328 1115832325
            538533922 553902475 -68160561</internalNodes>
          <leafValues>
            -5.4357784986495972e-01 5.4872679710388184e-01</leafValues></_></weakClassifiers></_>
    <!-- stage 1 -->
    <_>
      <maxWeakCount>10</maxWeakCount>
      <stageThreshold>-1.0733534097671509e+00</stageThreshold>
      <weakClassifiers>
        <_>
          <internalNodes>
            0 -1 39 929897983 524129911 1039543996 2139095031 1203570683
            91586430 2113912815 2147483647</internalNodes>
          <leafValues>
            -4.6576499938964844e-01 7.0081442594528198e-01</leafValues></_>
        <_>
          <internalNodes>
            0 -1 23 -134221590 -772027673 1928065495 1941434603
            -142739541 -1292372238 -218572309 1884549859</internalNodes>
          <leafValues>
            -4.5063751935958862e-01 5.4515343904495239e-01</leafValues></_>
        <_>
          <internalNodes>
            0 -1 78 -959721404 -183176106 5329372 -56845422 -1331039764
            -997162876 -1731695893 -532284705</internalNodes>
          <leafValues>
            -4.4343701004981995e-01 4.1941618919372559e-01</leafValues></_>
        <_>
          <internalNodes>
            0 -1 102 1658839338 17342663 244035586 -628643733 1916997894
            1095058370 1535366098 -740821045</internalNodes>
          <leafValues>
            -4.2145481705665588e-01 4.5233651995658875e-01</leafValues></_>
        <_>
          <internalNodes>
            0 -1 121 1071199737 502873057 939066236 1039363887 125314815
            -545964545 -1680470695 -1082158165</internalNodes>
          <leafValues>
            -3.9927992224693298e-01 5.2637505531311035e-01</leafValues></_>
        <_>
          <internalNodes>
            0 -1 12 1717011094 1928172247 1091928216 -1822381293
            -108684313 -1161156093 1122644955 592177007</internalNodes>
          <leafValues>
            -5.1120340824127197e-01 3.6573502421379089e-01</leafValues></_>
        <_>
          <internalNodes>
            0 -1 63 -724307712 583107719 -2096807926 -1005917941
            2030297347 1646518288 1371690753 -225716493</internalNodes>
          <leafValues>
            -5.7251143455505371e-01 2.9713124036788940e-01</leafValues></_>
        <_>
          <internalNodes>
            0 -1 133 -352336338 34067418 1163432 -2108950461 1124217123
            1107337251 -1996134989 1643097041</internalNodes>
          <leafValues>
            -4.9382722377777100e-01 3.7996393442153931e-01</leafValues></_>
        <_>
          <internalNodes>
            0 -1 66 434116029 2146709333 972824376 1066348268 897416942
            745895773 2138914285 -1078580289</internalNodes>
          <leafValues>
            -3.8970175385475159e-01 4.7380065917968750e-01</leafValues></_>
        <_>
          <internalNodes>
            0 -1 146 -411640109 -436228097 -360711218 1350168308
            -1354806204 1817608148 -18550960 -722510257</internalNodes>
          <leafValues>
            -4.1290950775146484e-01 4.6871623396873474e-01</leafValues></_></weakClassifiers></_>
    <!-- stage 2 -->
    <_>
      <maxWeakCount>11</maxWeakCount>
      <stageThreshold>-8.5384541749954224e-01</stageThreshold>
      <weakClassifiers>
        <_>
          <internalNodes>
            0 -1 6 1264299967 289217843 268185471 2146811773 215878079
            205287212 1577058303 -6318081</internalNodes>
          <leafValues>
            -2.2454142570495605e-01 7.4366927146911621e-01</leafValues></_>
        <_>
          <internalNodes>
            0 -1 27 -650120470 2011805361 1911877877 -176556325
            -134300449 -353469230 2045115611 -172886017</internalNodes>
          <leafValues>
            -3.0284202098846436e-01 5.7310914993286133e-01</leafValues></_>
        <_>
          <internalNodes>
            0 -1 34 1734197558 421736642 22286367 1097695255 135088459
            1493369218 1611212907 2078015487</internalNodes>
          <leafValues>
            -5.0540304183959961e-01 3.7043121457099915e-01</leafValues></_>
        <_>
          <internalNodes>
            0 -1 130 -877690353 66071146 787433459 -1950363069 653085578
            -1137187733 711806152 -549467905</internalNodes>
          <leafValues>
            -3.2674530148506165e-01 5.2057224512100220e-01</leafValues></_>
        <_>
          <internalNodes>
            0 -1 118 -236985310 -1066811382 137282368 30662746
            1688342597 135725058 -1832730517 -727714649</internalNodes>
          <leafValues>
            -4.1729307174682617e-01 3.8568952679634094e-01</leafValues></_>
        <_>
          <internalNodes>
            0 -1 75 -472922974 -29114108 -867724992 -609417831
            -669398865 -1936751968 1882976426 1643116191</internalNodes>
          <leafValues>
            -3.9527142047882080e-01 4.0517321228981018e-01</leafValues></_>
        <_>
          <internalNodes>
            0 -1 16 34344963 1004830590 -1568834219 992977895 774249499
            -1346417185 -1259356442 -1310929</internalNodes>
          <leafValues>
            -3.8747447729110718e-01 4.5883789658546448e-01</leafValues></_>
        <_>
          <internalNodes>
            0 -1 51 -573311273 -1064623708 1108394370 -534871934
            -1056306274 -905721682 555766081 -186387994</internalNodes>
          <leafValues>
            -4.4400638341903687e-01 3.9422103762626648e-01</leafValues></_>
        <_>
          <internalNodes>
            0 -1 144 -716787505 -612271247 -1099661489 -346317193
            -1373795121 -543789204 -1770127505 325791846</internalNodes>
          <leafValues>
            -3.5947740077972412e-01 4.6733799576759338e-01</leafValues></_>
        <_>
          <internalNodes>
            0 -1 127 -937818860 -126091020 -2147413996 -1341648860
            -368424742 -517373895 -2136356165 -804195445</internalNodes>
          <leafValues>
            -4.3406060338020325e-01 4.1944676637649536e-01</leafValues></_>
        <_>
          <internalNodes>
            0 -1 25 1623929601 335134471 -235100047 1999445600
            1626806267 -1739070236 -1533405797 -66726865</internalNodes>
          <leafValues>
            -3.5483434796333313e-01 4.8633512854576111e-01</leafValues></_></weakClassifiers></_>
    <!-- stage 3 -->
    <_>
      <maxWeakCount>12</maxWeakCount>
      <stageThreshold>-1.0038623809814453e+00</stageThreshold>
      <weakClassifiers>
        <_>
          <internalNodes>
            0 -1 37 1388837867 1092816738 293036722 2009054207
            1685576847 288774141 2002762219 2011163579</internalNodes>
          <leafValues>
            -2.9131436347961426e-01 6.6049659252166748e-01</leafValues></_>
        <_>
          <internalNodes>
            0 -1 92 601830491 933982699 510471697 1493155822 855337967
            1073512316 2004877291 -4211201</internalNodes>
          <leafValues>
            -3.7742212414741516e-01 4.8879691958427429e-01</leafValues></_>
        <_>
          <internalNodes>
            0 -1 87 -1026571742 -2004581246 528688 -201076707 1648435216
            1654961 1134194709 1427366787</internalNodes>
          <leafValues>
            -5.7007479667663574e-01 3.1448766589164734e-01</leafValues></_>
        <_>
          <internalNodes>
            0 -1 0 1944303778 -11599222 268552467 -1857563165
            -1659909501 -1148829694 1645674638 1356329511</internalNodes>
          <leafValues>
            -5.2691787481307983e-01 3.4982571005821228e-01</leafValues></_>
        <_>
          <internalNodes>
            0 -1 52 -582229754 -1031790300 -2142875312 -793377918
            -561281102 -1683324544 1338225856 -690493869</internalNodes>
          <leafValues>
            -4.0973484516143799e-01 3.7636494636535645e-01</leafValues></_>
        <_>
          <internalNodes>
            0 -1 26 -572661096 1581301760 -1869330864 -1711062909
            1757872303 142652577 2162928 -818417521</internalNodes>
          <leafValues>
            -3.8847401738166809e-01 4.1062450408935547e-01</leafValues></_>
        <_>
          <internalNodes>
            0 -1 132 -295706354 1999019 1614888960 1355538666 -483753366
            354485760 -1736359292 -769931417</internalNodes>
          <leafValues>
            -4.0684664249420166e-01 3.8301926851272583e-01</leafValues></_>
        <_>
          <internalNodes>
            0 -1 76 1176552664 -788283376 838938789 -1962884970
            134791372 -1538760639 1256556680 -928921087</internalNodes>
          <leafValues>
            -4.7603848576545715e-01 3.2020154595375061e-01</leafValues></_>
        <_>
          <internalNodes>
            0 -1 120 -808456666 -483250313 2095946272 1920199335
            -411576486 39747503 -705170188 -185074193</internalNodes>
          <leafValues>
            -3.3736243844032288e-01 4.5828020572662354e-01</leafValues></_>
        <_>
          <internalNodes>
            0 -1 17 4728189 1943164224 -2105521289 500891802 272713816
            -1668640728 434831602 -1379238339</internalNodes>
          <leafValues>
            -4.1671669483184814e-01 4.1949132084846497e-01</leafValues></_>
        <_>
          <internalNodes>
            0 -1 29 2003018655 -784869394 586424881 299973223 -42477660
            -831756119 -495619169 1400876639</internalNodes>
          <leafValues>
            -3.8221147656440735e-01 4.5007687807083130e-01</leafValues></_>
        <_>
          <internalNodes>
            0 -1 131 -1035478877 1780123727 -1610235658 1913241986
            1764811819 1694533641 -1027211178 -784337277</internalNodes>
          <leafValues>
            -4.2826089262962341e-01 3.8531461358070374e-01</leafValues></_></weakClassifiers></_>
    <!-- stage 4 -->
    <_>
      <maxWeakCount>13</maxWeakCount>
      <stageThreshold>-1.2012439966201782e+00</stageThreshold>
      <weakClassifiers>
        <_>
          <internalNodes>
            0 -1 40 1979430399 829406947 1073687359 -5 133637370
            521473855 -268452097 2146955263</internalNodes>
          <leafValues>
            -2.7102804183959961e-01 6.4157706499099731e-01</leafValues></_>
        <_>
          <internalNodes>
            0 -1 3 -580912390 -553156517 4194314 -746405400 1619239343
            1577683103 2013389465 1140803051</internalNodes>
          <leafValues>
            -4.2354515194892883e-01 4.0572899580001831e-01</leafValues></_>
        <_>
          <internalNodes>
            0 -1 28 -532221958 2147195879 1987476287 1972598705
            -969564162 -666763280 -96103526 -578521753</internalNodes>
          <leafValues>
            -3.2804471254348755e-01 4.1508206725120544e-01</leafValues></_>
        <_>
          <internalNodes>
            0 -1 82 1908123562 869507074 4572 -1123040894 168496298
            138412160 1352265344 1573644719</internalNodes>
          <leafValues>
            -4.8727437853813171e-01 3.0534186959266663e-01</leafValues></_>
        <_>
          <internalNodes>
            0 -1 71 -497815414 -217983872 -788020517 -80050680 11008666
            -133005163 1871351515 1087891459</internalNodes>
          <leafValues>
            -3.6515155434608459e-01 3.8983651995658875e-01</leafValues></_>
        <_>
          <internalNodes>
            0 -1 22 1638236304 1594606159 1216535 1971032601 -1072279501
            -938884982 684408863 1000047250</internalNodes>
          <leafValues>
            -4.3648990988731384e-01 3.2379558682441711e-01</leafValues></_>
        <_>
          <internalNodes>
            0 -1 36 -285349601 -1749491198 -1363202243 -2096990409
            -985707510 -126353878 -596681250 -346569005</internalNodes>
          <leafValues>
            -2.9640117287635803e-01 4.9220731854438782e-01</leafValues></_>
        <_>
          <internalNodes>
            0 -1 4 545501358 10225869 1096818982 261042331 35823626
            455149696 312287262 737106927</internalNodes>
          <leafValues>
            -5.9453773498535156e-01 2.4403040111064911e-01</leafValues></_>
        <_>
          <internalNodes>
            0 -1 30 -951259535 790621770 -299702510 -1251160082
            1417541372 1083766486 1450690034 -172256089</internalNodes>
          <leafValues>
            -3.6935341358184814e-01 3.9633533358573914e-01</leafValues></_>
        <_>
          <internalNodes>
            0 -1 126 -325417398 -1063811045 71029130 1917439 -1988024252
            1140916352 -2012568658 -2131262962</internalNodes>
          <leafValues>
            -4.4052758812904358e-01 3.3197286725044250e-01</leafValues></_>
        <_>
          <internalNodes>
            0 -1 18 -1790413331 -211997903 -8602011 119251064 1216276367
            -1427111955 1994323322 1468870345</internalNodes>
          <leafValues>
            -3.7427544593811035e-01 3.9573889970779419e-01</leafValues></_>
        <_>
          <internalNodes>
            0 -1 112 -386961485 1928031390 805142026 -986616021
            -554363512 245255557 -985463732 -816847265</internalNodes>
          <leafValues>
            -3.0081921815872192e-01 4.9263888597488403e-01</leafValues></_>
        <_>
          <internalNodes>
            0 -1 8 -119600100 -69598375 152044828 865140850 1481148592
            2072658115 -894879496 1825513802</internalNodes>
          <leafValues>
            -4.6107706427574158e-01 3.2962074875831604e-01</leafValues></_></weakClassifiers></_>
    <!-- stage 5 -->
    <_>
      <maxWeakCount>11</maxWeakCount>
      <stageThreshold>-1.2470810413360596e+00</stageThreshold>
      <weakClassifiers>
        <_>
          <internalNodes>
            0 -1 31 -75500565 -169099909 586883633 1942172647 1907617495
            444572724 956199415 2012992507</internalNodes>
          <leafValues>
            -1.6241610050201416e-01 6.5449160337448120e-01</leafValues></_>
        <_>
          <internalNodes>
            0 -1 43 1870135167 58701694 -1095836141 -709120001 687744043
            803175517 -143262425 -71565313</internalNodes>
          <leafValues>
            -2.8090772032737732e-01 5.2888578176498413e-01</leafValues></_>
        <_>
          <internalNodes>
            0 -1 147 -277895682 -435715937 -805220128 139366470
            -1469660606 2032799744 -196181488 -527437726</internalNodes>
          <leafValues>
            -4.4128426909446716e-01 3.5427159070968628e-01</leafValues></_>
        <_>
          <internalNodes>
            0 -1 58 -360002446 -2046652288 8419856 -52264112 -2054173461
            -1894612992 -2113286075 -976760368</internalNodes>
          <leafValues>
            -4.5128023624420166e-01 3.3107191324234009e-01</leafValues></_>
        <_>
          <internalNodes>
            0 -1 88 -271591928 -1968274122 1225007496 1078394907
            1493897732 1194197069 -250760368 -977079585</internalNodes>
          <leafValues>
            -5.5633771419525146e-01 2.5187349319458008e-01</leafValues></_>
        <_>
          <internalNodes>
            0 -1 122 151478785 981417976 532381493 -8707538 533831675
            -570523649 -1657029385 -813697364</internalNodes>
          <leafValues>
            -3.4035065770149231e-01 3.9490392804145813e-01</leafValues></_>
        <_>
          <internalNodes>
            0 -1 47 -389049809 -782144990 -436281217 -173147913
            -772243029 -369689530 -554242001 -715531770</internalNodes>
          <leafValues>
            -3.4534826874732971e-01 4.2533576488494873e-01</leafValues></_>
        <_>
          <internalNodes>
            0 -1 119 -140253906 1117016210 -737626362 314958419
            562679873 1695035394 -481627162 -154143829</internalNodes>
          <leafValues>
            -3.9065781235694885e-01 3.7995460629463196e-01</leafValues></_>
        <_>
          <internalNodes>
            0 -1 45 -621759078 1250044370 1073796432 1296109595
            311578319 26812746 35815647 438519123</internalNodes>
          <leafValues>
            -4.7353228926658630e-01 3.0418437719345093e-01</leafValues></_>
        <_>
          <internalNodes>
            0 -1 81 -854079477 604462863 -268315198 -217083797 286312452
            1075183763 -1234446610 1653588451</internalNodes>
          <leafValues>
            -5.1025950908660889e-01 2.7717468142509460e-01</leafValues></_>
        <_>
          <internalNodes>
            0 -1 93 970532380 446503388 17220035 877482523 -2002625610
            1783291937 -786357968 -1077212437</internalNodes>
          <leafValues>
            -4.6815451979637146e-01 3.2678288221359253e-01</leafValues></_></weakClassifiers></_>
    <!-- stage 6 -->
    <_>
      <maxWeakCount>14</maxWeakCount>
      <stageThreshold>-7.6716297864913940e-01</stageThreshold>
      <weakClassifiers>
        <_>
          <internalNodes>
            0 -1 94 165680989 402482644 934092401 532619188 888569837
            492928471 2147454719 -1095820326</internalNodes>
          <leafValues>
            -2.3602484166622162e-01 6.2298023700714111e-01</leafValues></_>
        <_>
          <internalNodes>
            0 -1 101 680569754 454861584 360992863 1063359599 1393231102
            -1683324798 42966191 -805328681</internalNodes>
          <leafValues>
            -4.1965430974960327e-01 3.7040838599205017e-01</leafValues></_>
        <_>
          <internalNodes>
            0 -1 72 1891328016 -783833244 -936341025 1966133381
            -1395962436 -1118731847 1691006680 -2132477746</internalNodes>
          <leafValues>
            -5.0604128837585449e-01 2.8656309843063354e-01</leafValues></_>
        <_>
          <internalNodes>
            0 -1 74 -1918402055 1023071283 218770609 -1080995186
            348001213 -1698131840 -532144712 -1350235984</internalNodes>
          <leafValues>
            -3.7579622864723206e-01 3.6430454254150391e-01</leafValues></_>
        <_>
          <internalNodes>
            0 -1 55 -571468051 454374423 -733666819 -1084962674
            2090498733 -73750350 -1702359011 -436324288</internalNodes>
          <leafValues>
            -3.7700581550598145e-01 3.7340405583381653e-01</leafValues></_>
        <_>
          <internalNodes>
            0 -1 110 -196771824 -778334308 -1180713195 -1186592571
            -1853804307 -645486376 -678889032 -1736394079</internalNodes>
          <leafValues>
            -3.6341625452041626e-01 3.7983056902885437e-01</leafValues></_>
        <_>
          <internalNodes>
            0 -1 60 -709652658 936921095 402961059 -809991872 1405135273
            922865793 -1085619956 1692230236</internalNodes>
          <leafValues>
            -4.7234818339347839e-01 2.9436209797859192e-01</leafValues></_>
        <_>
          <internalNodes>
            0 -1 128 -583322697 -532247168 1193283678 1879122254
            -838096320 -893746942 -2147185968 -465527040</internalNodes>
          <leafValues>
            -4.5445540547370911e-01 3.1569030880928040e-01</leafValues></_>
        <_>
          <internalNodes>
            0 -1 11 -25350631 891005555 -1358979395 -517525830 805135741
            -1027633585 -1786835905 -1685066533</internalNodes>
          <leafValues>
            -3.0026328563690186e-01 4.6778005361557007e-01</leafValues></_>
        <_>
          <internalNodes>
            0 -1 68 -1015320225 -722747407 -857821235 233666211
            -2055944993 -178487315 1112273195 2131392987</internalNodes>
          <leafValues>
            -3.0566653609275818e-01 4.7924011945724487e-01</leafValues></_>
        <_>
          <internalNodes>
            0 -1 73 76680336 -653126831 1147344 -921615616 597395703
            -152963047 -339310449 1131537418</internalNodes>
          <leafValues>
            -4.0438231825828552e-01 3.6962792277336121e-01</leafValues></_>
        <_>
          <internalNodes>
            0 -1 58 -335872265 -995968052 -1888485833 -101919584
            -840530434 -869341219 -490940543 -660734617</internalNodes>
          <leafValues>
            -3.1092160940170288e-01 4.9654987454414368e-01</leafValues></_>
        <_>
          <internalNodes>
            0 -1 135 34865433 809867416 553664989 -2099442877 440930618
            -129807702 597846783 -1388803085</internalNodes>
          <leafValues>
            -4.4452899694442749e-01 3.4415265917778015e-01</leafValues></_>
        <_>
          <internalNodes>
            0 -1 140 -422318569 -1354074862 420463135 789012766
            -511369116 -1505277005 1610662016 -1067306713</internalNodes>
          <leafValues>
            -3.8758793473243713e-01 3.9106884598731995e-01</leafValues></_></weakClassifiers></_>
    <!-- stage 7 -->
    <_>
      <maxWeakCount>15</maxWeakCount>
      <stageThreshold>-8.8257068395614624e-01</stageThreshold>
      <weakClassifiers>
        <_>
          <internalNodes>
            0 -1 62 2139043243 536817663 788414454 1474015087 728698582
            2147368941 2143109119 -33564673</internalNodes>
          <leafValues>
            -1.6852264106273651e-01 6.0442602634429932e-01</leafValues></_>
        <_>
          <internalNodes>
            0 -1 138 -218169776 2096415319 -1051356367 -1336878535
            -800942012 -887956301 -192420196 -463156666</internalNodes>
          <leafValues>
            -3.9388266205787659e-01 3.9594605565071106e-01</leafValues></_>
        <_>
          <internalNodes>
            0 -1 32 -1430328322 2106767315 401801169 -1075448096
            -325070913 -3803174 -1141453093 -207137437</internalNodes>
          <leafValues>
            -3.0390864610671997e-01 4.4543331861495972e-01</leafValues></_>
        <_>
          <internalNodes>
            0 -1 142 -1078001953 1059666672 -1073824813 -1515715027
            519405530 1073487870 -828492056 -1140926665</internalNodes>
          <leafValues>
            -3.2304212450981140e-01 4.1790357232093811e-01</leafValues></_>
        <_>
          <internalNodes>
            0 -1 115 -1426329617 180025198 -1233159309 295910142
            653547468 -1636302977 1563779740 -336229193</internalNodes>
          <leafValues>
            -3.6447212100028992e-01 4.0095305442810059e-01</leafValues></_>
        <_>
          <internalNodes>
            0 -1 33 -4214089 1069059846 -303092162 -1993330890
            1034787871 -1216585900 -546032881 -297566437</internalNodes>
          <leafValues>
            -2.9125195741653442e-01 4.3020406365394592e-01</leafValues></_>
        <_>
          <internalNodes>
            0 -1 105 762854621 467086649 -1592651745 -1627254152
            1379936318 1026067241 -1962923033 -49673552</internalNodes>
          <leafValues>
            -4.1820248961448669e-01 3.0225881934165955e-01</leafValues></_>
        <_>
          <internalNodes>
            0 -1 148 -230354180 -2010410885 436848886 -458046302
            269225738 1293361409 -2093185340 -456948653</internalNodes>
          <leafValues>
            -4.1738882660865784e-01 3.3038347959518433e-01</leafValues></_>
        <_>
          <internalNodes>
            0 -1 42 -708611614 388219433 17040676 -1793978277 1522534862
            1116390033 -1734284648 -739723127</internalNodes>
          <leafValues>
            -3.6974579095840454e-01 3.3735379576683044e-01</leafValues></_>
        <_>
          <internalNodes>
            0 -1 64 -1766631619 299212828 -2130624109 378667987
            -370579719 1242235040 -2139014992 -1964369705</internalNodes>
          <leafValues>
            -3.7167054414749146e-01 3.6005863547325134e-01</leafValues></_>
        <_>
          <internalNodes>
            0 -1 24 -1631363070 -16658168 336026441 -1253489769
            -1815478046 -838301664 -1031206259 1074062256</internalNodes>
          <leafValues>
            -5.7944524288177490e-01 2.5529253482818604e-01</leafValues></_>
        <_>
          <internalNodes>
            0 -1 143 775019513 1060747703 -1485919691 781203436
            716701428 -112328707 -473972833 -293763404</internalNodes>
          <leafValues>
            -3.3128285408020020e-01 4.1125512123107910e-01</leafValues></_>
        <_>
          <internalNodes>
            0 -1 116 1807743522 6749775 -1292960429 1895267759
            2147471175 544571261 -1216373763 -443812017</internalNodes>
          <leafValues>
            -3.6597722768783569e-01 3.8130918145179749e-01</leafValues></_>
        <_>
          <internalNodes>
            0 -1 136 1955569587 -18156372 1676820263 656256447
            -144251205 -1619018828 1844731246 -77733233</internalNodes>
          <leafValues>
            -2.3148770630359650e-01 5.8400374650955200e-01</leafValues></_>
        <_>
          <internalNodes>
            0 -1 99 1447062068 1914585481 -2126395284 1033439707
            588123330 -1744657816 550039432 -492781438</internalNodes>
          <leafValues>
            -3.8128033280372620e-01 3.6033284664154053e-01</leafValues></_></weakClassifiers></_>
    <!-- stage 8 -->
    <_>
      <maxWeakCount>15</maxWeakCount>
      <stageThreshold>-1.1364746093750000e+00</stageThreshold>
      <weakClassifiers>
        <_>
          <internalNodes>
            0 -1 41 -81 124514095 905324448 -622609 1702845739 22443862
            -134250770 1467875327</internalNodes>
          <leafValues>
            -2.4818275868892670e-01 5.1821386814117432e-01</leafValues></_>
        <_>
          <internalNodes>
            0 -1 90 -33557761 517955322 -1073799180 429116881 2004574680
            750551039 -2144072 -2359809</internalNodes>
          <leafValues>
            -2.1326337754726410e-01 5.3199166059494019e-01</leafValues></_>
        <_>
          <internalNodes>
            0 -1 20 -519593718 -1295020846 1138839 -146501101 -197048689
            -1381330944 -1014911514 -1002184298</internalNodes>
          <leafValues>
            -4.0439447760581970e-01 3.2482078671455383e-01</leafValues></_>
        <_>
          <internalNodes>
            0 -1 50 -43521137 -1582575698 -536876176 -798507120
            -545325180 -2070085803 1566504194 -187176974</internalNodes>
          <leafValues>
            -3.0840584635734558e-01 3.8380941748619080e-01</leafValues></_>
        <_>
          <internalNodes>
            0 -1 138 -426319340 -568557552 269070656 -2139858683
            -532789184 -666127616 -1199523118 -1066214385</internalNodes>
          <leafValues>
            -4.7636350989341736e-01 2.4014484882354736e-01</leafValues></_>
        <_>
          <internalNodes>
            0 -1 106 931332377 55837842 -1895190439 460360665
            -1137108867 964706722 1610702008 -1427142433</internalNodes>
          <leafValues>
            -3.9029923081398010e-01 3.1795889139175415e-01</leafValues></_>
        <_>
          <internalNodes>
            0 -1 108 -201591809 -586187605 1800713967 -969910466
            1874847417 -697519017 -805204389 -639894113</internalNodes>
          <leafValues>
            -1.9372141361236572e-01 6.8797051906585693e-01</leafValues></_>
        <_>
          <internalNodes>
            0 -1 139 -943014237 1765728650 1343019754 -460865454
            1661671424 941270048 311907584 1683487009</internalNodes>
          <leafValues>
            -5.0669854879379272e-01 2.4874004721641541e-01</leafValues></_>
        <_>
          <internalNodes>
            0 -1 15 -980670241 1916867075 1077940596 722633171
            1179713835 2048950537 -930409712 -348845475</internalNodes>
          <leafValues>
            -3.7255853414535522e-01 3.3844321966171265e-01</leafValues></_>
        <_>
          <internalNodes>
            0 -1 56 -413781248 1330037277 1048917 -652143926 1233174854
            37797890 -1609678261 525311418</internalNodes>
          <leafValues>
            -4.6520280838012695e-01 2.7296218276023865e-01</leafValues></_>
        <_>
          <internalNodes>
            0 -1 85 -475016694 315009961 -1006464886 339747648
            1409553029 537526786 -2113878368 1709685263</internalNodes>
          <leafValues>
            -5.1069438457489014e-01 2.6052194833755493e-01</leafValues></_>
        <_>
          <internalNodes>
            0 -1 44 647488871 114976623 1860108069 1694262835
            -1220551411 -558344715 -396998358 -35806022</internalNodes>
          <leafValues>
            -2.9394349455833435e-01 4.4272550940513611e-01</leafValues></_>
        <_>
          <internalNodes>
            0 -1 137 -432344814 2003299943 -1083300783 -190374542
            -372480434 -1496422468 -457776130 1739808678</internalNodes>
          <leafValues>
            -3.2965809106826782e-01 3.7055921554565430e-01</leafValues></_>
        <_>
          <internalNodes>
            0 -1 46 -1974738098 1850180099 -788441767 -1018298314
            1481578455 -434593776 1244135985 1884586017</internalNodes>
          <leafValues>
            -4.9643653631210327e-01 2.5538420677185059e-01</leafValues></_>
        <_>
          <internalNodes>
            0 -1 77 1083681332 520099867 -1610547070 891556032
            1812513721 1282426908 1786791068 -45843396</internalNodes>
          <leafValues>
            -4.2619726061820984e-01 3.1323969364166260e-01</leafValues></_></weakClassifiers></_>
    <!-- stage 9 -->
    <_>
      <maxWeakCount>16</maxWeakCount>
      <stageThreshold>-1.2098388671875000e+00</stageThreshold>
      <weakClassifiers>
        <_>
          <internalNodes>
            0 -1 7 -138552097 258210815 804174646 -1476661637 1466765055
            2113617852 -805392657 -2230565</internalNodes>
          <leafValues>
            -9.8792538046836853e-03 6.5053129196166992e-01</leafValues></_>
        <_>
          <internalNodes>
            0 -1 1 1367580818 1376507794 877286745 -1081746076
            -2067144659 -24983480 1625061566 990845842</internalNodes>
          <leafValues>
            -3.9206069707870483e-01 3.3461871743202209e-01</leafValues></_>
        <_>
          <internalNodes>
            0 -1 59 -783557190 1648513480 1343379536 -922693616
            -1064725041 -805207032 -1786333726 -722995597</internalNodes>
          <leafValues>
            -3.4788492321968079e-01 3.6341932415962219e-01</leafValues></_>
        <_>
          <internalNodes>
            0 -1 104 -811620726 -468303741 2013348034 1644719043
            -391544313 1912840323 -409751102 -171189489</internalNodes>
          <leafValues>
            -3.4242501854896545e-01 3.5171774029731750e-01</leafValues></_>
        <_>
          <internalNodes>
            0 -1 83 -531891670 -1413234493 -1072680304 -1584033459
            1661361923 19405064 46367378 1997001707</internalNodes>
          <leafValues>
            -4.9173104763031006e-01 2.2190546989440918e-01</leafValues></_>
        <_>
          <internalNodes>
            0 -1 96 110755859 75518593 293608735 -1222037126 1375735123
            -1702198615 270534689 -1079009150</internalNodes>
          <leafValues>
            -4.1629651188850403e-01 3.1616199016571045e-01</leafValues></_>
        <_>
          <internalNodes>
            0 -1 97 -572787769 1439657184 991720303 -859331526 951416830
            -1334419732 -918953413 -607157157</internalNodes>
          <leafValues>
            -2.2810113430023193e-01 5.8911651372909546e-01</leafValues></_>
        <_>
          <internalNodes>
            0 -1 124 1212289282 -83799842 -1073741805 999311771
            822182042 -1454833662 46139818 -325012582</internalNodes>
          <leafValues>
            -4.0118268132209778e-01 3.2866525650024414e-01</leafValues></_>
        <_>
          <internalNodes>
            0 -1 89 1389483320 893439048 1543527833 -1245068167
            1346492805 263716873 1221238802 -806632434</internalNodes>
          <leafValues>
            -3.5023400187492371e-01 3.5890546441078186e-01</leafValues></_>
        <_>
          <internalNodes>
            0 -1 48 -1027446462 -1769323946 -1823931587 1829111043
            -1069055768 -1071415161 -2112836043 -1236932749</internalNodes>
          <leafValues>
            -4.1325181722640991e-01 2.9351359605789185e-01</leafValues></_>
        <_>
          <internalNodes>
            0 -1 131 -369635369 1143209567 721397366 -252199327
            2004871019 1312161149 -151595557 -419436913</internalNodes>
          <leafValues>
            -2.8286060690879822e-01 4.2425268888473511e-01</leafValues></_>
        <_>
          <internalNodes>
            0 -1 111 -16307696 433033472 106644249 2104939161 -873955272
            -1423343488 757205658 2826919</internalNodes>
          <leafValues>
            -4.0934842824935913e-01 2.9818367958068848e-01</leafValues></_>
        <_>
          <internalNodes>
            0 -1 149 -958430665 -1115328595 615657073 786478928
            -1381212532 -855165139 1022834059 -8417921</internalNodes>
          <leafValues>
            -2.4599233269691467e-01 5.1354384422302246e-01</leafValues></_>
        <_>
          <internalNodes>
            0 -1 69 140645426 1596391451 85662847 -1618673390 404403922
            -1440606078 157680306 -955866622</internalNodes>
          <leafValues>
            -3.4220042824745178e-01 3.7366732954978943e-01</leafValues></_>
        <_>
          <internalNodes>
            0 -1 35 1283893802 1007716770 1648547869 -795527343
            839467315 983590920 713911170 957248671</internalNodes>
          <leafValues>
            -5.1833373308181763e-01 2.3834323883056641e-01</leafValues></_>
        <_>
          <internalNodes>
            0 -1 65 -791412541 1441075202 1360232665 -1795059320
            1820462208 192940032 2097703668 -543264766</internalNodes>
          <leafValues>
            -3.5416346788406372e-01 3.6513054370880127e-01</leafValues></_></weakClassifiers></_>
    <!-- stage 10 -->
    <_>
      <maxWeakCount>18</maxWeakCount>
      <stageThreshold>-8.8604044914245605e-01</stageThreshold>
      <weakClassifiers>
        <_>
          <internalNodes>
            0 -1 54 2139078323 528460407 -1351423235 -1744883718
            1306209787 2078162687 -276845061 -67110913</internalNodes>
          <leafValues>
            -4.4485069811344147e-02 6.1706668138504028e-01</leafValues></_>
        <_>
          <internalNodes>
            0 -1 79 1290261044 -14989289 1073811709 -1763766023 496120
            -54785334 -1047553368 -1609184629</internalNodes>
          <leafValues>
            -3.2373896241188049e-01 3.6082252860069275e-01</leafValues></_>
        <_>
          <internalNodes>
            0 -1 134 -142606473 1027226735 -17124353 -1141182594
            1583224813 998154140 -69928874 -266254</internalNodes>
          <leafValues>
            -2.1202921867370605e-01 5.1953601837158203e-01</leafValues></_>
        <_>
          <internalNodes>
            0 -1 13 163982391 88611010 -1039509001 189399298 1652567409
            176537933 -610382802 -304634346</internalNodes>
          <leafValues>
            -4.1135022044181824e-01 2.5179928541183472e-01</leafValues></_>
        <_>
          <internalNodes>
            0 -1 129 -567020765 -677510851 1226315970 -166415598
            1226541824 2030207607 -1661841150 -533210878</internalNodes>
          <leafValues>
            -3.3345365524291992e-01 3.2062792778015137e-01</leafValues></_>
        <_>
          <internalNodes>
            0 -1 123 391192789 972287967 2038296431 -1422821588
            2121733563 -538451202 -545286282 -5308424</internalNodes>
          <leafValues>
            -3.0632802844047546e-01 3.6437612771987915e-01</leafValues></_>
        <_>
          <internalNodes>
            0 -1 53 -983920126 201853061 1896183648 570701838 1512731412
            1493207171 4215328 -990708157</internalNodes>
          <leafValues>
            -5.3585380315780640e-01 2.1402783691883087e-01</leafValues></_>
        <_>
          <internalNodes>
            0 -1 67 310556813 815337800 -1023386171 -469642880
            1664321661 -1079374587 -913880977 1587479107</internalNodes>
          <leafValues>
            -3.1896951794624329e-01 3.5419386625289917e-01</leafValues></_>
        <_>
          <internalNodes>
            0 -1 5 -902024387 2070061931 1861823839 -1973456953
            2084564687 -1078579457 -1761662952 -863249153</internalNodes>
          <leafValues>
            -2.6532837748527527e-01 4.4111847877502441e-01</leafValues></_>
        <_>
          <internalNodes>
            0 -1 57 -2000286368 -2063105445 -652126955 -1358224240
            1217168281 -24625024 -1048044456 -861014992</internalNodes>
          <leafValues>
            -4.2861726880073547e-01 2.7031514048576355e-01</leafValues></_>
        <_>
          <internalNodes>
            0 -1 95 169426741 25166299 -1793565639 529142194 167853033
            -1683881912 598480366 -6650199</internalNodes>
          <leafValues>
            -3.4280228614807129e-01 3.3931592106819153e-01</leafValues></_>
        <_>
          <internalNodes>
            0 -1 125 2011998459 1962987490 -201381095 490632229
            838746808 1964203735 -420467078 -1519369854</internalNodes>
          <leafValues>
            -3.2840391993522644e-01 3.6407738924026489e-01</leafValues></_>
        <_>
          <internalNodes>
            0 -1 9 -4996237 -203626831 805088672 1340958570 -10379044
            -547723792 1819612842 -582758658</internalNodes>
          <leafValues>
            -2.1770004928112030e-01 5.4668074846267700e-01</leafValues></_>
        <_>
          <internalNodes>
            0 -1 103 -892352602 -1467518030 -990527488 575017166
            945154855 641469010 -1173392157 -262412141</internalNodes>
          <leafValues>
            -4.1919174790382385e-01 2.8649106621742249e-01</leafValues></_>
        <_>
          <internalNodes>
            0 -1 98 -1603859113 -1124503828 2112832445 -69341789
            771231485 -822155398 -805468007 -376446133</internalNodes>
          <leafValues>
            -2.4808725714683533e-01 4.9686506390571594e-01</leafValues></_>
        <_>
          <internalNodes>
            0 -1 19 -964285526 1771356261 -1052657455 -1694461918
            573241389 -1882258816 -2120013332 -2030721174</internalNodes>
          <leafValues>
            -3.3971500396728516e-01 3.6300078034400940e-01</leafValues></_>
        <_>
          <internalNodes>
            0 -1 51 -16783461 -1242661187 -356515974 -1263343954
            1744170997 -299565186 127313394 -692584523</internalNodes>
          <leafValues>
            -3.3125612139701843e-01 4.0560740232467651e-01</leafValues></_>
        <_>
          <internalNodes>
            0 -1 150 -1628948943 325554101 787422899 -1159418016
            1115106472 -659687634 1861372388 -1698908904</internalNodes>
          <leafValues>
            -3.5234764218330383e-01 3.7833768129348755e-01</leafValues></_></weakClassifiers></_>
    <!-- stage 11 -->
    <_>
      <maxWeakCount>15</maxWeakCount>
      <stageThreshold>-1.1606198549270630e+00</stageThreshold>
      <weakClassifiers>
        <_>
          <internalNodes>
            0 -1 61 -33554649 -2005766209 -68194505 -1300824326
            1056269575 -51024002 -1359071984 -697567454</internalNodes>
          <leafValues>
            -8.0459773540496826e-02 5.9057438373565674e-01</leafValues></_>
        <_>
          <internalNodes>
            0 -1 14 1599993179 1028878617 -989851368 -422330135
            1247115899 1071841867 1509970170 2061491005</internalNodes>
          <leafValues>
            -3.6891943216323853e-01 3.4124881029129028e-01</leafValues></_>
        <_>
          <internalNodes>
            0 -1 113 -18350401 -738594825 888667518 -51904521 -549990511
            -1630021641 -823199868 -263856486</internalNodes>
          <leafValues>
            -2.9601392149925232e-01 4.0782719850540161e-01</leafValues></_>
        <_>
          <internalNodes>
            0 -1 109 -1670656804 -100568763 -783923815 -1658473446
            1225336891 755597921 -1391086741 3129391</internalNodes>
          <leafValues>
            -4.1781246662139893e-01 2.7519258856773376e-01</leafValues></_>
        <_>
          <internalNodes>
            0 -1 100 -2076146655 -1187431100 1666833238 -209390381
            -972564313 -1174397789 -1126056716 -321633711</internalNodes>
          <leafValues>
            -3.7177085876464844e-01 2.9100012779235840e-01</leafValues></_>
        <_>
          <internalNodes>
            0 -1 86 -414456530 1099750982 1167135808 -2130734705
            1653304641 1665237101 1944678496 -152047407</internalNodes>
          <leafValues>
            -4.0622770786285400e-01 2.9097786545753479e-01</leafValues></_>
        <_>
          <internalNodes>
            0 -1 49 -1453006224 1263706565 89904566 -772451939 17117079
            -1699642606 -1375620412 -139201657</internalNodes>
          <leafValues>
            -4.0278041362762451e-01 3.0160582065582275e-01</leafValues></_>
        <_>
          <internalNodes>
            0 -1 70 746594464 1024461825 16908559 826803512 574884839
            -1513414502 1162412191 1031614370</internalNodes>
          <leafValues>
            -6.4397734403610229e-01 1.9104772806167603e-01</leafValues></_>
        <_>
          <internalNodes>
            0 -1 117 -891310330 646284536 -1001325536 -489581817
            1997346057 1915724090 -1701704218 -206832717</internalNodes>
          <leafValues>
            -4.0577372908592224e-01 3.0829128623008728e-01</leafValues></_>
        <_>
          <internalNodes>
            0 -1 107 274287729 668834893 1044311933 -612555260
            -1477009601 -1166090258 -1343229972 -101395165</internalNodes>
          <leafValues>
            -3.2536262273788452e-01 3.8859680294990540e-01</leafValues></_>
        <_>
          <internalNodes>
            0 -1 145 1540857843 880143971 -1343440787 -1950782252
            -50821089 -61546765 -2102083781 2110495259</internalNodes>
          <leafValues>
            -2.9130795598030090e-01 4.4484162330627441e-01</leafValues></_>
        <_>
          <internalNodes>
            0 -1 2 1073928430 466813397 -1844312104 1371394118
            -402648678 -98286552 1208461468 1681260866</internalNodes>
          <leafValues>
            -4.2198008298873901e-01 3.1036812067031860e-01</leafValues></_>
        <_>
          <internalNodes>
            0 -1 128 -1168130073 -773872023 -1005549963 -1724470286
            -937032615 1781319329 -693985150 -186322684</internalNodes>
          <leafValues>
            -3.5162878036499023e-01 3.7095764279365540e-01</leafValues></_>
        <_>
          <internalNodes>
            0 -1 114 -809111953 -1438150565 -467619760 1853265316
            1092571648 1527152652 -1073480636 -862193273</internalNodes>
          <leafValues>
            -4.2310020327568054e-01 3.0906328558921814e-01</leafValues></_>
        <_>
          <internalNodes>
            0 -1 80 -100523815 -1236644160 -2025777837 36837760
            274664283 -230686079 138621817 -1113294954</internalNodes>
          <leafValues>
            -3.8300159573554993e-01 3.4898018836975098e-01</leafValues></_></weakClassifiers></_></stages>
  <features>
    <_>
      <rect>
        0 0 5 7</rect></_>
    <_>
      <rect>
        0 0 6 10</rect></_>
    <_>
      <rect>
        0 6 4 3</rect></_>
    <_>
      <rect>
        0 7 5 5</rect></_>
    <_>
      <rect>
        0 7 6 11</rect></_>
    <_>
      <rect>
        0 8 2 6</rect></_>
    <_>
      <rect>
        0 18 5 7</rect></_>
    <_>
      <rect>
        0 20 5 5</rect></_>
    <_>
      <rect>
        0 25 3 3</rect></_>
    <_>
      <rect>
        1 4 3 2</rect></_>
    <_>
      <rect>
        1 4 5 4</rect></_>
    <_>
      <rect>
        1 5 2 8</rect></_>
    <_>
      <rect>
        1 5 5 7</rect></_>
    <_>
      <rect>
        1 11 3 5</rect></_>
    <_>
      <rect>
        1 20 5 6</rect></_>
    <_>
      <rect>
        1 26 2 3</rect></_>
    <_>
      <rect>
        1 29 4 2</rect></_>
    <_>
      <rect>
        1 30 3 1</rect></_>
    <_>
      <rect>
        1 36 1 1</rect></_>
    <_>
      <rect>
        2 0 3 3</rect></_>
    <_>
      <rect>
        2 0 4 6</rect></_>
    <_>
      <rect>
        2 0 4 9</rect></_>
    <_>
      <rect>
        2 0 5 9</rect></_>
    <_>
      <rect>
        2 1 4 7</rect></_>
    <_>
      <rect>
        2 2 4 5</rect></_>
    <_>
      <rect>
        2 2 6 4</rect></_>
    <_>
      <rect>
        2 4 2 2</rect></_>
    <_>
      <rect>
        2 4 4 4</rect></_>
    <_>
      <rect>
        2 5 3 3</rect></_>
    <_>
      <rect>
        2 5 4 8</rect></_>
    <_>
      <rect>
        2 6 2 2</rect></_>
    <_>
      <rect>
        2 6 4 8</rect></_>
    <_>
      <rect>
        2 7 3 2</rect></_>
    <_>
      <rect>
        2 8 2 5</rect></_>
    <_>
      <rect>
        2 8 4 9</rect></_>
    <_>
      <rect>
        2 11 3 7</rect></_>
    <_>
      <rect>
        2 12 2 4</rect></_>
    <_>
      <rect>
        2 13 4 6</rect></_>
    <_>
      <rect>
        2 13 4 8</rect></_>
    <_>
      <rect>
        2 16 4 8</rect></_>
    <_>
      <rect>
        2 18 4 6</rect></_>
    <_>
      <rect>
        2 20 4 2</rect></_>
    <_>
      <rect>
        2 21 4 2</rect></_>
    <_>
      <rect>
        2 22 4 6</rect></_>
    <_>
      <rect>
        2 33 4 2</rect></_>
    <_>
      <rect>
        3 2 2 8</rect></_>
    <_>
      <rect>
        3 2 3 2</rect></_>
    <_>
      <rect>
        3 2 4 4</rect></_>
    <_>
      <rect>
        3 5 2 4</rect></_>
    <_>
      <rect>
        3 7 2 1</rect></_>
    <_>
      <rect>
        3 9 1 1</rect></_>
    <_>
      <rect>
        3 9 2 1</rect></_>
    <_>
      <rect>
        3 10 1 1</rect></_>
    <_>
      <rect>
        3 11 1 1</rect></_>
    <_>
      <rect>
        3 19 3 7</rect></_>
    <_>
      <rect>
        3 26 1 3</rect></_>
    <_>
      <rect>
        4 4 3 9</rect></_>
    <_>
      <rect>
        4 6 1 2</rect></_>
    <_>
      <rect>
        4 8 1 1</rect></_>
    <_>
      <rect>
        4 9 1 1</rect></_>
    <_>
      <rect>
        4 16 3 3</rect></_>
    <_>
      <rect>
        4 18 1 1</rect></_>
    <_>
      <rect>
        4 18 2 7</rect></_>
    <_>
      <rect>
        4 20 1 1</rect></_>
    <_>
      <rect>
        4 28 1 2</rect></_>
    <_>
      <rect>
        4 29 1 1</rect></_>
    <_>
      <rect>
        4 29 2 1</rect></_>
    <_>
      <rect>
        4 36 4 1</rect></_>
    <_>
      <rect>
        4 37 1 1</rect></_>
    <_>
      <rect>
        5 0 5 5</rect></_>
    <_>
      <rect>
        5 1 5 13</rect></_>
    <_>
      <rect>
        5 2 2 2</rect></_>
    <_>
      <rect>
        5 2 3 5</rect></_>
    <_>
      <rect>
        5 2 5 7</rect></_>
    <_>
      <rect>
        5 3 1 3</rect></_>
    <_>
      <rect>
        5 4 2 1</rect></_>
    <_>
      <rect>
        5 5 1 3</rect></_>
    <_>
      <rect>
        5 5 2 2</rect></_>
    <_>
      <rect>
        5 5 3 3</rect></_>
    <_>
      <rect>
        5 7 3 2</rect></_>
    <_>
      <rect>
        5 11 1 3</rect></_>
    <_>
      <rect>
        5 19 2 2</rect></_>
    <_>
      <rect>
        5 20 2 5</rect></_>
    <_>
      <rect>
        5 21 1 1</rect></_>
    <_>
      <rect>
        5 21 1 2</rect></_>
    <_>
      <rect>
        5 21 2 3</rect></_>
    <_>
      <rect>
        5 22 1 1</rect></_>
    <_>
      <rect>
        5 22 1 2</rect></_>
    <_>
      <rect>
        5 23 1 1</rect></_>
    <_>
      <rect>
        5 24 3 4</rect></_>
    <_>
      <rect>
        5 25 1 3</rect></_>
    <_>
      <rect>
        5 25 2 4</rect></_>
    <_>
      <rect>
        5 27 2 3</rect></_>
    <_>
      <rect>
        5 27 3 3</rect></_>
    <_>
      <rect>
        5 28 2 2</rect></_>
    <_>
      <rect>
        5 29 1 1</rect></_>
    <_>
      <rect>
        5 30 3 1</rect></_>
    <_>
      <rect>
        5 37 1 1</rect></_>
    <_>
      <rect>
        6 0 4 9</rect></_>
    <_>
      <rect>
        6 2 4 2</rect></_>
    <_>
      <rect>
        6 3 1 1</rect></_>
    <_>
      <rect>
        6 15 3 8</rect></_>
    <_>
      <rect>
        6 21 1 2</rect></_>
    <_>
      <rect>
        6 24 1 1</rect></_>
    <_>
      <rect>
        6 25 1 1</rect></_>
    <_>
      <rect>
        6 29 1 1</rect></_>
    <_>
      <rect>
        6 29 2 1</rect></_>
    <_>
      <rect>
        6 30 2 1</rect></_>
    <_>
      <rect>
        6 37 1 1</rect></_>
    <_>
      <rect>
        7 1 2 8</rect></_>
    <_>
      <rect>
        7 3 1 1</rect></_>
    <_>
      <rect>
        7 3 1 2</rect></_>
    <_>
      <rect>
        7 8 3 5</rect></_>
    <_>
      <rect>
        7 10 2 1</rect></_>
    <_>
      <rect>
        7 17 2 1</rect></_>
    <_>
      <rect>
        7 18 2 2</rect></_>
    <_>
      <rect>
        7 20 1 1</rect></_>
    <_>
      <rect>
        7 22 1 1</rect></_>
    <_>
      <rect>
        7 22 1 2</rect></_>
    <_>
      <rect>
        7 24 1 1</rect></_>
    <_>
      <rect>
        7 25 1 1</rect></_>
    <_>
      <rect>
        7 29 1 1</rect></_>
    <_>
      <rect>
        7 30 1 1</rect></_>
    <_>
      <rect>
        7 31 1 1</rect></_>
    <_>
      <rect>
        8 0 1 5</rect></_>
    <_>
      <rect>
        8 1 4 3</rect></_>
    <_>
      <rect>
        8 4 1 1</rect></_>
    <_>
      <rect>
        8 7 1 1</rect></_>
    <_>
      <rect>
        8 9 1 1</rect></_>
    <_>
      <rect>
        8 11 1 1</rect></_>
    <_>
      <rect>
        8 11 2 5</rect></_>
    <_>
      <rect>
        8 21 1 1</rect></_>
    <_>
      <rect>
        8 21 1 2</rect></_>
    <_>
      <rect>
        8 23 1 2</rect></_>
    <_>
      <rect>
        8 24 1 3</rect></_>
    <_>
      <rect>
        8 30 1 1</rect></_>
    <_>
      <rect>
        8 36 1 1</rect></_>
    <_>
      <rect>
        9 3 3 4</rect></_>
    <_>
      <rect>
        9 8 1 1</rect></_>
    <_>
      <rect>
        9 11 1 1</rect></_>
    <_>
      <rect>
        9 15 1 2</rect></_>
    <_>
      <rect>
        9 19 1 2</rect></_>
    <_>
      <rect>
        9 27 1 2</rect></_>
    <_>
      <rect>
        9 27 2 2</rect></_>
    <_>
      <rect>
        9 37 1 1</rect></_>
    <_>
      <rect>
        9 37 2 1</rect></_>
    <_>
      <rect>
        10 9 1 1</rect></_>
    <_>
      <rect>
        10 10 1 1</rect></_>
    <_>
      <rect>
        10 11 1 1</rect></_>
    <_>
      <rect>
        11 12 1 2</rect></_>
    <_>
      <rect>
        11 22 2 2</rect></_></features></cascade>
</opencv_storage>
