<?xml version="1.0"?>
<opencv_storage>
<stage5>
  <maxWeakCount>10</maxWeakCount>
  <stageThreshold>-1.0808794498443604e+00</stageThreshold>
  <weakClassifiers>
    <_>
      <internalNodes>
        0 -1 78342 1470103551 1065156271 266547020 1006606775 1576499919
        377434039 2147433983 2145091195</internalNodes>
      <leafValues>
        -3.3784928917884827e-01 6.2713348865509033e-01</leafValues></_>
    <_>
      <internalNodes>
        0 -1 365321 802624311 972389503 -1140899841 -1115705449
        268259327 -1073971233 -1494008065 -1343242306</internalNodes>
      <leafValues>
        -3.6564919352531433e-01 5.8562493324279785e-01</leafValues></_>
    <_>
      <internalNodes>
        0 -1 389740 -455348433 38977890 1889059650 -1608269494
        1483426308 1722483332 1612280163 -453514249</internalNodes>
      <leafValues>
        -4.8166543245315552e-01 4.6966719627380371e-01</leafValues></_>
    <_>
      <internalNodes>
        0 -1 79103 -167798785 -746605571 1861124738 -535955392
        -543426051 1923327618 -1047690688 1073959006</internalNodes>
      <leafValues>
        -5.7860815525054932e-01 3.5622990131378174e-01</leafValues></_>
    <_>
      <internalNodes>
        0 -1 406605 124781893 769418103 -1761352817 -423636405 9000575
        -108319553 -1820019841 -1632097172</internalNodes>
      <leafValues>
        -5.6112599372863770e-01 3.5082855820655823e-01</leafValues></_>
    <_>
      <internalNodes>
        0 -1 259761 -849346625 -2098165509 -989645801 -1491028016
        1295065209 -325547832 -108127120 -1060048556</internalNodes>
      <leafValues>
        -5.0706285238265991e-01 3.8059943914413452e-01</leafValues></_>
    <_>
      <internalNodes>
        0 -1 300690 -335550623 -2143633793 -285528817 -563167497
        779302663 1719496703 397760374 -219747464</internalNodes>
      <leafValues>
        -4.1458502411842346e-01 4.9758696556091309e-01</leafValues></_>
    <_>
      <internalNodes>
        0 -1 431672 1086029621 -684212121 1812795847 1163503875
        277671407 -308567383 1896347151 538111522</internalNodes>
      <leafValues>
        -5.3444230556488037e-01 3.8083574175834656e-01</leafValues></_>
    <_>
      <internalNodes>
        0 -1 130125 1070803949 941728024 1140865692 1002832601
        1134584244 1804097699 -1082127381 -77857969</internalNodes>
      <leafValues>
        -4.7773572802543640e-01 4.6657398343086243e-01</leafValues></_>
    <_>
      <internalNodes>
        0 -1 436833 -824186017 -100301485 -1010461673 -1508111924
        -858847163 -1907227903 -2013208476 -1595606256</internalNodes>
      <leafValues>
        -5.0788456201553345e-01 4.3904125690460205e-01</leafValues></_></weakClassifiers></stage5>
</opencv_storage>
