<?xml version="1.0"?>
<opencv_storage>
<stage1>
  <maxWeakCount>6</maxWeakCount>
  <stageThreshold>-1.2845897674560547e+00</stageThreshold>
  <weakClassifiers>
    <_>
      <internalNodes>
        0 -1 74757 391841198 320541071 16777395 491982855 722149551
        270860830 17236411 528432095</internalNodes>
      <leafValues>
        -7.4100720882415771e-01 7.0397114753723145e-01</leafValues></_>
    <_>
      <internalNodes>
        0 -1 72113 -203959638 -728510324 12315 997658635 -1073548646
        -926865404 1417872287 290919147</internalNodes>
      <leafValues>
        -5.8865588903427124e-01 5.2702999114990234e-01</leafValues></_>
    <_>
      <internalNodes>
        0 -1 332238 798470127 993198650 800862205 716406715 1071069086
        436109027 1069496243 -268705841</internalNodes>
      <leafValues>
        -5.0686079263687134e-01 6.2515902519226074e-01</leafValues></_>
    <_>
      <internalNodes>
        0 -1 309709 -1363794640 210813363 -1986713385 -1442550440
        -1869938395 -1091895287 -1920630588 -667495980</internalNodes>
      <leafValues>
        -5.6428885459899902e-01 4.7227087616920471e-01</leafValues></_>
    <_>
      <internalNodes>
        0 -1 318278 -185369477 1755561775 -310546441 218091243
        1065338229 1732730871 309811056 -186388539</internalNodes>
      <leafValues>
        -4.7836673259735107e-01 5.5281388759613037e-01</leafValues></_>
    <_>
      <internalNodes>
        0 -1 97572 -775760926 1411037302 362025232 331563267 -912617232
        -461367255 -1736433493 -449323838</internalNodes>
      <leafValues>
        -5.5765593051910400e-01 4.8406478762626648e-01</leafValues></_></weakClassifiers></stage1>
</opencv_storage>
