<?xml version="1.0"?>
<opencv_storage>
<stage4>
  <maxWeakCount>9</maxWeakCount>
  <stageThreshold>-1.4491271972656250e+00</stageThreshold>
  <weakClassifiers>
    <_>
      <internalNodes>
        0 -1 167499 395288383 393559158 804659061 2008022583 1734306751
        523702143 535556027 2147483647</internalNodes>
      <leafValues>
        -3.5568276047706604e-01 6.5492641925811768e-01</leafValues></_>
    <_>
      <internalNodes>
        0 -1 408 1344503810 1609075087 268763281 2073158307 -535917926
        -1450737395 671323083 1004495387</internalNodes>
      <leafValues>
        -4.8208689689636230e-01 4.6072089672088623e-01</leafValues></_>
    <_>
      <internalNodes>
        0 -1 241832 -82850385 -1066512273 -1656598888 -267369856
        988411006 1380369793 -1329085964 -456863152</internalNodes>
      <leafValues>
        -5.1013195514678955e-01 4.2070865631103516e-01</leafValues></_>
    <_>
      <internalNodes>
        0 -1 319621 124075381 1069847385 -641336931 483472285 432810173
        -1366212372 -1207756321 -1628495747</internalNodes>
      <leafValues>
        -5.1359033584594727e-01 4.3611067533493042e-01</leafValues></_>
    <_>
      <internalNodes>
        0 -1 404540 -822087953 -1406161282 -1359004197 553447075
        -187204298 494403391 1609979287 -140771377</internalNodes>
      <leafValues>
        -4.3386813998222351e-01 4.8048594594001770e-01</leafValues></_>
    <_>
      <internalNodes>
        0 -1 353850 -1527577583 -537920228 -570639553 -139575756 -244233
        -1109000201 -285936420 -23003599</internalNodes>
      <leafValues>
        -4.1532862186431885e-01 5.3031855821609497e-01</leafValues></_>
    <_>
      <internalNodes>
        0 -1 113986 1147104071 1300742927 -1744633529 1717506319
        -359665878 -658399102 -1065098881 1191154262</internalNodes>
      <leafValues>
        -5.2759170532226563e-01 4.0608483552932739e-01</leafValues></_>
    <_>
      <internalNodes>
        0 -1 356570 14681945 91899202 -480906407 691722562 1336027740
        -559307997 -2052322064 -186112704</internalNodes>
      <leafValues>
        -5.6143951416015625e-01 3.8120096921920776e-01</leafValues></_>
    <_>
      <internalNodes>
        0 -1 74739 -531246526 -222199795 268521473 -183533486 -846511118
        -1329592125 -527203622 1693971363</internalNodes>
      <leafValues>
        -5.9813636541366577e-01 3.9028245210647583e-01</leafValues></_></weakClassifiers></stage4>
</opencv_storage>
