<?xml version="1.0"?>
<opencv_storage>
<stage9>
  <maxWeakCount>13</maxWeakCount>
  <stageThreshold>-1.0456433296203613e+00</stageThreshold>
  <weakClassifiers>
    <_>
      <internalNodes>
        0 -1 250749 1027423359 905187327 106961083 -278794 855326718
        1039953885 1728024538 -50689</internalNodes>
      <leafValues>
        -1.4697802066802979e-01 6.2089550495147705e-01</leafValues></_>
    <_>
      <internalNodes>
        0 -1 436440 -286296225 -50885057 -352387332 -1608368842
        -167843240 -28385281 -1359685930 -461324702</internalNodes>
      <leafValues>
        -3.4789466857910156e-01 4.1553711891174316e-01</leafValues></_>
    <_>
      <internalNodes>
        0 -1 493996 737625959 -34604239 380959625 -403835321 132513483
        -530646 -990458322 1592655526</internalNodes>
      <leafValues>
        -3.4442788362503052e-01 4.4262748956680298e-01</leafValues></_>
    <_>
      <internalNodes>
        0 -1 164371 -604541453 -320012307 -272646512 -1656142
        -1228933421 -424919067 -1000080442 -168311305</internalNodes>
      <leafValues>
        -3.3048617839813232e-01 4.5645135641098022e-01</leafValues></_>
    <_>
      <internalNodes>
        0 -1 412537 -25166149 -226885785 -285249868 1962409952
        2010447140 863334229 -252264308 -185335994</internalNodes>
      <leafValues>
        -3.6560812592506409e-01 4.1236385703086853e-01</leafValues></_>
    <_>
      <internalNodes>
        0 -1 319796 202380853 75301189 51085533 1596052183 1837583103
        -1572798333 -1205315809 -1381466660</internalNodes>
      <leafValues>
        -4.7100403904914856e-01 3.0744460225105286e-01</leafValues></_>
    <_>
      <internalNodes>
        0 -1 332655 -511728862 1347012653 -2010947584 567101904
        -1857187505 1074839822 1661592079 -714744765</internalNodes>
      <leafValues>
        -3.9031210541725159e-01 4.0499454736709595e-01</leafValues></_>
    <_>
      <internalNodes>
        0 -1 254305 1768794762 -749231625 756101593 -1310682239
        -351016718 -1350104443 1228989439 1363246771</internalNodes>
      <leafValues>
        -3.8913241028785706e-01 4.0897402167320251e-01</leafValues></_>
    <_>
      <internalNodes>
        0 -1 344892 35902438 58310856 -1067286269 1030351250 -1010700129
        144927771 -892505910 168238275</internalNodes>
      <leafValues>
        -5.3627395629882813e-01 2.9348838329315186e-01</leafValues></_>
    <_>
      <internalNodes>
        0 -1 362400 777380619 1793708069 -2139049641 678257109
        1125128991 1671555612 -628500384 -430416863</internalNodes>
      <leafValues>
        -5.1288777589797974e-01 2.9993966221809387e-01</leafValues></_>
    <_>
      <internalNodes>
        0 -1 393665 -2046301991 -1782812901 -8392885 64945725
        -1344006914 -1783332870 502812205 721186492</internalNodes>
      <leafValues>
        -3.5682457685470581e-01 4.7562777996063232e-01</leafValues></_>
    <_>
      <internalNodes>
        0 -1 124434 -819549633 -1200331201 1052655231 979526946
        1685747200 -508207197 -671136353 -270008721</internalNodes>
      <leafValues>
        -3.5717537999153137e-01 4.7651550173759460e-01</leafValues></_>
    <_>
      <internalNodes>
        0 -1 312371 -588710677 -1933309661 1075008094 -659936576
        -2115357920 732640808 -922570652 -996093899</internalNodes>
      <leafValues>
        -4.7593846917152405e-01 3.6074987053871155e-01</leafValues></_></weakClassifiers></stage9>
</opencv_storage>
