<?xml version="1.0"?>
<opencv_storage>
<stage5>
  <maxWeakCount>9</maxWeakCount>
  <stageThreshold>-4.8042476177215576e-01</stageThreshold>
  <weakClassifiers>
    <_>
      <internalNodes>
        0 -1 6141 -236457896 -1359004994 1891455992 368540927 -201920282
        2046619773 -486638088 813413119</internalNodes>
      <leafValues>
        -3.2007953524589539e-01 5.2207791805267334e-01</leafValues></_>
    <_>
      <internalNodes>
        0 -1 11640 34866769 561971707 269112671 -1619005157 918713214
        -121329648 -1297496661 -34960641</internalNodes>
      <leafValues>
        -3.9826172590255737e-01 4.2585217952728271e-01</leafValues></_>
    <_>
      <internalNodes>
        0 -1 6977 -121 1167065087 1543220150 -101715298 -251813953
        307232633 -185597967 -1221722129</internalNodes>
      <leafValues>
        -3.7895393371582031e-01 4.3855607509613037e-01</leafValues></_>
    <_>
      <internalNodes>
        0 -1 10050 -16777729 -155910209 -159524240 1347772071 -671127740
        -562075689 -721951600 -184562194</internalNodes>
      <leafValues>
        -3.8147822022438049e-01 4.4056224822998047e-01</leafValues></_>
    <_>
      <internalNodes>
        0 -1 2843 1836936525 185016831 1415123034 -594423786 1806068590
        1025472819 1402831034 -3156453</internalNodes>
      <leafValues>
        -4.4727739691734314e-01 3.3585178852081299e-01</leafValues></_>
    <_>
      <internalNodes>
        0 -1 9416 -822372446 1086906763 -360554422 -564930672
        -2132921273 1158250624 -535768153 -708857154</internalNodes>
      <leafValues>
        -4.2651173472404480e-01 3.6210051178932190e-01</leafValues></_>
    <_>
      <internalNodes>
        0 -1 6136 -1068064251 -65664888 1197595531 -37644101 827533053
        -91944958 -104854609 7689007</internalNodes>
      <leafValues>
        -4.1856777667999268e-01 3.5755026340484619e-01</leafValues></_>
    <_>
      <internalNodes>
        0 -1 4829 -1686075558 1225920834 135253 -444562911 16919179
        -2004876287 -786377653 1629708627</internalNodes>
      <leafValues>
        -5.2859258651733398e-01 2.8452232480049133e-01</leafValues></_>
    <_>
      <internalNodes>
        0 -1 11160 -14696657 -68423763 1056705194 2121465754 -571212480
        -1157630395 -992799200 -196642201</internalNodes>
      <leafValues>
        -3.4607130289077759e-01 4.4373103976249695e-01</leafValues></_></weakClassifiers></stage5>
</opencv_storage>
