<?xml version="1.0"?>
<opencv_storage>
<stage1>
  <maxWeakCount>6</maxWeakCount>
  <stageThreshold>-7.4493283033370972e-01</stageThreshold>
  <weakClassifiers>
    <_>
      <internalNodes>
        0 -1 3665 2004877311 938978295 391717362 902820831 1979710367
        402597222 1942469599 2013264895</internalNodes>
      <leafValues>
        -3.6260622739791870e-01 7.3319327831268311e-01</leafValues></_>
    <_>
      <internalNodes>
        0 -1 3245 -220747102 -5398 671017016 870822650 -8916310
        -394267785 -234900789 334185439</internalNodes>
      <leafValues>
        -4.7988641262054443e-01 4.9713236093521118e-01</leafValues></_>
    <_>
      <internalNodes>
        0 -1 6950 1006614271 524615766 1393229936 -1080339813 593179179
        965898473 -626681094 2147469023</internalNodes>
      <leafValues>
        -4.7626620531082153e-01 4.6726828813552856e-01</leafValues></_>
    <_>
      <internalNodes>
        0 -1 3316 -255368670 -565009846 -1789644597 837536215
        -2001819478 -662384640 -156385633 -247337989</internalNodes>
      <leafValues>
        -4.6777701377868652e-01 4.6301087737083435e-01</leafValues></_>
    <_>
      <internalNodes>
        0 -1 9393 -472915934 42722503 185245826 -796264085 1917530374
        285229962 1526973394 -690493473</internalNodes>
      <leafValues>
        -4.4775763154029846e-01 4.6996846795082092e-01</leafValues></_>
    <_>
      <internalNodes>
        0 -1 3036 603983967 2008623973 -1427112129 2147433723 670309528
        -1073973252 528367231 -1090618053</internalNodes>
      <leafValues>
        -3.5285845398902893e-01 5.4582619667053223e-01</leafValues></_></weakClassifiers></stage1>
</opencv_storage>
