<?xml version="1.0"?>
<opencv_storage>
<stage11>
  <maxWeakCount>11</maxWeakCount>
  <stageThreshold>-9.2782539129257202e-01</stageThreshold>
  <weakClassifiers>
    <_>
      <internalNodes>
        0 -1 4283 -486539578 1369681525 1907826478 -152142914 1668691403
        880035636 2139095039 2145382324</internalNodes>
      <leafValues>
        -2.4901185929775238e-01 4.9305555224418640e-01</leafValues></_>
    <_>
      <internalNodes>
        0 -1 8358 -536872961 335081447 1073687467 2142813431 2134593010
        801005567 -27426850 -56635554</internalNodes>
      <leafValues>
        -2.1595032513141632e-01 5.5008959770202637e-01</leafValues></_>
    <_>
      <internalNodes>
        0 -1 8490 487079925 790299536 -2130145223 -1828583200 407714484
        713564680 -91214952 -269600023</internalNodes>
      <leafValues>
        -3.6729231476783752e-01 3.1001266837120056e-01</leafValues></_>
    <_>
      <internalNodes>
        0 -1 5205 -66074768 -2004430548 1124712722 -113304942
        -2147245402 1083369633 -1140670014 -169609342</internalNodes>
      <leafValues>
        -3.3864575624465942e-01 3.4845450520515442e-01</leafValues></_>
    <_>
      <internalNodes>
        0 -1 14035 -632208387 -706892323 1323268011 629126389 -547055925
        -285450370 905342765 999752986</internalNodes>
      <leafValues>
        -3.0754613876342773e-01 3.8871812820434570e-01</leafValues></_>
    <_>
      <internalNodes>
        0 -1 4972 891523140 -721382379 1392972042 -180310759 -1728018950
        -1341824886 268511748 321881098</internalNodes>
      <leafValues>
        -5.0256329774856567e-01 2.5088003277778625e-01</leafValues></_>
    <_>
      <internalNodes>
        0 -1 13195 -1148396547 398721499 -2004760611 -1255266903
        113826645 1059250176 1161900559 -2031383800</internalNodes>
      <leafValues>
        -3.4239545464515686e-01 3.4605973958969116e-01</leafValues></_>
    <_>
      <internalNodes>
        0 -1 7700 -1964333408 468168048 -1487491163 -740217040 267138989
        1794604393 -545946152 -614600717</internalNodes>
      <leafValues>
        -3.0013111233711243e-01 3.9755177497863770e-01</leafValues></_>
    <_>
      <internalNodes>
        0 -1 8405 -217332958 -442777588 825332178 -263937887 -925664719
        8392722 -1458839545 -702310133</internalNodes>
      <leafValues>
        -3.8935536146163940e-01 3.1119400262832642e-01</leafValues></_>
    <_>
      <internalNodes>
        0 -1 15598 -1243854475 2002637453 -2063036343 195911903
        -1987758109 -2088632168 -1853712277 1029210395</internalNodes>
      <leafValues>
        -3.4783732891082764e-01 3.4296137094497681e-01</leafValues></_>
    <_>
      <internalNodes>
        0 -1 8612 -2079636176 -737185625 42026 -2096828401 -2012544353
        -1373593472 -1333582333 -1943950110</internalNodes>
      <leafValues>
        -4.4732663035392761e-01 2.8764113783836365e-01</leafValues></_></weakClassifiers></stage11>
</opencv_storage>
