<?xml version="1.0"?>
<opencv_storage>
<stage6>
  <maxWeakCount>10</maxWeakCount>
  <stageThreshold>-8.8895553350448608e-01</stageThreshold>
  <weakClassifiers>
    <_>
      <internalNodes>
        0 -1 23596 119271293 385266815 2112335871 2142629663 1308430267
        260014015 1543503807 2126507999</internalNodes>
      <leafValues>
        -3.5314685106277466e-01 5.5172413587570190e-01</leafValues></_>
    <_>
      <internalNodes>
        0 -1 793 1631303814 -33591429 636992043 -76334083 -1149805925
        -34080842 -604073285 454017963</internalNodes>
      <leafValues>
        -3.9819040894508362e-01 4.3349939584732056e-01</leafValues></_>
    <_>
      <internalNodes>
        0 -1 58856 70583645 1073627111 -1375731721 -583035652 498485229
        -301989890 -1261160739 -590082</internalNodes>
      <leafValues>
        -3.7733274698257446e-01 4.5087400078773499e-01</leafValues></_>
    <_>
      <internalNodes>
        0 -1 45656 -1421346861 -366412054 -16816139 -463136 1157090815
        -42995719 1206986176 -555354528</internalNodes>
      <leafValues>
        -3.3928358554840088e-01 4.9138057231903076e-01</leafValues></_>
    <_>
      <internalNodes>
        0 -1 51552 -552881289 235100036 -1808147370 -460661990 165337670
        -1847686620 1670001860 -252643435</internalNodes>
      <leafValues>
        -4.4119009375572205e-01 3.7694287300109863e-01</leafValues></_>
    <_>
      <internalNodes>
        0 -1 53649 -715404150 198088535 827719816 311556292 1378436176
        657631818 -1073659584 1967384467</internalNodes>
      <leafValues>
        -6.3610076904296875e-01 2.6937767863273621e-01</leafValues></_>
    <_>
      <internalNodes>
        0 -1 59983 -861343855 -1107671251 -58917509 -72024224 1232635821
        -579436937 -571599658 -823794400</internalNodes>
      <leafValues>
        -3.9015209674835205e-01 4.5531797409057617e-01</leafValues></_>
    <_>
      <internalNodes>
        0 -1 60941 -806376653 -1951551494 -1342501005 627781033
        -1904276104 -269521044 -2056779752 -51392575</internalNodes>
      <leafValues>
        -3.7197208404541016e-01 4.6183291077613831e-01</leafValues></_>
    <_>
      <internalNodes>
        0 -1 65689 -1474464367 1263538193 269685235 -1199057965 36212926
        -1198946142 -1945617956 -1058748416</internalNodes>
      <leafValues>
        -4.3144902586936951e-01 3.9807713031768799e-01</leafValues></_>
    <_>
      <internalNodes>
        0 -1 53025 -359575993 723444038 1367709821 -953777891 1506218052
        -887465983 1728197168 -525074638</internalNodes>
      <leafValues>
        -4.5883154869079590e-01 3.8777247071266174e-01</leafValues></_></weakClassifiers></stage6>
</opencv_storage>
