<?xml version="1.0"?>
<opencv_storage>
<stage1>
  <maxWeakCount>10</maxWeakCount>
  <stageThreshold>-1.0733534097671509e+00</stageThreshold>
  <weakClassifiers>
    <_>
      <internalNodes>
        0 -1 4159 929897983 524129911 1039543996 2139095031 1203570683
        91586430 2113912815 2147483647</internalNodes>
      <leafValues>
        -4.6576499938964844e-01 7.0081442594528198e-01</leafValues></_>
    <_>
      <internalNodes>
        0 -1 3243 -134221590 -772027673 1928065495 1941434603 -142739541
        -1292372238 -218572309 1884549859</internalNodes>
      <leafValues>
        -4.5063751935958862e-01 5.4515343904495239e-01</leafValues></_>
    <_>
      <internalNodes>
        0 -1 7614 -959721404 -183176106 5329372 -56845422 -1331039764
        -997162876 -1731695893 -532284705</internalNodes>
      <leafValues>
        -4.4343701004981995e-01 4.1941618919372559e-01</leafValues></_>
    <_>
      <internalNodes>
        0 -1 9393 1658839338 17342663 244035586 -628643733 1916997894
        1095058370 1535366098 -740821045</internalNodes>
      <leafValues>
        -4.2145481705665588e-01 4.5233651995658875e-01</leafValues></_>
    <_>
      <internalNodes>
        0 -1 10588 1071199737 502873057 939066236 1039363887 125314815
        -545964545 -1680470695 -1082158165</internalNodes>
      <leafValues>
        -3.9927992224693298e-01 5.2637505531311035e-01</leafValues></_>
    <_>
      <internalNodes>
        0 -1 1982 1717011094 1928172247 1091928216 -1822381293
        -108684313 -1161156093 1122644955 592177007</internalNodes>
      <leafValues>
        -5.1120340824127197e-01 3.6573502421379089e-01</leafValues></_>
    <_>
      <internalNodes>
        0 -1 6965 -724307712 583107719 -2096807926 -1005917941
        2030297347 1646518288 1371690753 -225716493</internalNodes>
      <leafValues>
        -5.7251143455505371e-01 2.9713124036788940e-01</leafValues></_>
    <_>
      <internalNodes>
        0 -1 11521 -352336338 34067418 1163432 -2108950461 1124217123
        1107337251 -1996134989 1643097041</internalNodes>
      <leafValues>
        -4.9382722377777100e-01 3.7996393442153931e-01</leafValues></_>
    <_>
      <internalNodes>
        0 -1 7193 434116029 2146709333 972824376 1066348268 897416942
        745895773 2138914285 -1078580289</internalNodes>
      <leafValues>
        -3.8970175385475159e-01 4.7380065917968750e-01</leafValues></_>
    <_>
      <internalNodes>
        0 -1 12795 -411640109 -436228097 -360711218 1350168308
        -1354806204 1817608148 -18550960 -722510257</internalNodes>
      <leafValues>
        -4.1290950775146484e-01 4.6871623396873474e-01</leafValues></_></weakClassifiers></stage1>
</opencv_storage>
