<?xml version="1.0"?>
<opencv_storage>
<stage11>
  <maxWeakCount>15</maxWeakCount>
  <stageThreshold>-1.1606198549270630e+00</stageThreshold>
  <weakClassifiers>
    <_>
      <internalNodes>
        0 -1 6895 -33554649 -2005766209 -68194505 -1300824326 1056269575
        -51024002 -1359071984 -697567454</internalNodes>
      <leafValues>
        -8.0459773540496826e-02 5.9057438373565674e-01</leafValues></_>
    <_>
      <internalNodes>
        0 -1 2771 1599993179 1028878617 -989851368 -422330135 1247115899
        1071841867 1509970170 2061491005</internalNodes>
      <leafValues>
        -3.6891943216323853e-01 3.4124881029129028e-01</leafValues></_>
    <_>
      <internalNodes>
        0 -1 10090 -18350401 -738594825 888667518 -51904521 -549990511
        -1630021641 -823199868 -263856486</internalNodes>
      <leafValues>
        -2.9601392149925232e-01 4.0782719850540161e-01</leafValues></_>
    <_>
      <internalNodes>
        0 -1 9692 -1670656804 -100568763 -783923815 -1658473446
        1225336891 755597921 -1391086741 3129391</internalNodes>
      <leafValues>
        -4.1781246662139893e-01 2.7519258856773376e-01</leafValues></_>
    <_>
      <internalNodes>
        0 -1 8732 -2076146655 -1187431100 1666833238 -209390381
        -972564313 -1174397789 -1126056716 -321633711</internalNodes>
      <leafValues>
        -3.7177085876464844e-01 2.9100012779235840e-01</leafValues></_>
    <_>
      <internalNodes>
        0 -1 8325 -414456530 1099750982 1167135808 -2130734705
        1653304641 1665237101 1944678496 -152047407</internalNodes>
      <leafValues>
        -4.0622770786285400e-01 2.9097786545753479e-01</leafValues></_>
    <_>
      <internalNodes>
        0 -1 5111 -1453006224 1263706565 89904566 -772451939 17117079
        -1699642606 -1375620412 -139201657</internalNodes>
      <leafValues>
        -4.0278041362762451e-01 3.0160582065582275e-01</leafValues></_>
    <_>
      <internalNodes>
        0 -1 7409 746594464 1024461825 16908559 826803512 574884839
        -1513414502 1162412191 1031614370</internalNodes>
      <leafValues>
        -6.4397734403610229e-01 1.9104772806167603e-01</leafValues></_>
    <_>
      <internalNodes>
        0 -1 10456 -891310330 646284536 -1001325536 -489581817
        1997346057 1915724090 -1701704218 -206832717</internalNodes>
      <leafValues>
        -4.0577372908592224e-01 3.0829128623008728e-01</leafValues></_>
    <_>
      <internalNodes>
        0 -1 9563 274287729 668834893 1044311933 -612555260 -1477009601
        -1166090258 -1343229972 -101395165</internalNodes>
      <leafValues>
        -3.2536262273788452e-01 3.8859680294990540e-01</leafValues></_>
    <_>
      <internalNodes>
        0 -1 12478 1540857843 880143971 -1343440787 -1950782252
        -50821089 -61546765 -2102083781 2110495259</internalNodes>
      <leafValues>
        -2.9130795598030090e-01 4.4484162330627441e-01</leafValues></_>
    <_>
      <internalNodes>
        0 -1 473 1073928430 466813397 -1844312104 1371394118 -402648678
        -98286552 1208461468 1681260866</internalNodes>
      <leafValues>
        -4.2198008298873901e-01 3.1036812067031860e-01</leafValues></_>
    <_>
      <internalNodes>
        0 -1 11080 -1168130073 -773872023 -1005549963 -1724470286
        -937032615 1781319329 -693985150 -186322684</internalNodes>
      <leafValues>
        -3.5162878036499023e-01 3.7095764279365540e-01</leafValues></_>
    <_>
      <internalNodes>
        0 -1 10331 -809111953 -1438150565 -467619760 1853265316
        1092571648 1527152652 -1073480636 -862193273</internalNodes>
      <leafValues>
        -4.2310020327568054e-01 3.0906328558921814e-01</leafValues></_>
    <_>
      <internalNodes>
        0 -1 7907 -100523815 -1236644160 -2025777837 36837760 274664283
        -230686079 138621817 -1113294954</internalNodes>
      <leafValues>
        -3.8300159573554993e-01 3.4898018836975098e-01</leafValues></_></weakClassifiers></stage11>
</opencv_storage>
